<?xml version="1.0" encoding="ISO-8859-1"?>
<smile version="1.0" id="SongRecommender" numsamples="1000" discsamples="10000">
	<nodes>
		<!-- create node "clusterPredict" -->
		<cpt id="clusterPredict" >
			<!-- setting names of outcomes -->
			<state id="c1" />
			<state id="c2" />
			<state id="c3" />
			<state id="c4" />
			<state id="c5" />
			<state id="c6" />
			<state id="c7" />
			<state id="c8" />
			<!-- setting probabilities -->
			<probabilities>0.105729187915 0.112632302111 0.12309897057 0.116810657943 0.204032093828 0.132014173071 0.10320234647 0.102480268091 </probabilities>
		</cpt>
		<!-- create node "song #1Hotel Yorba (Album Version)" -->
		<cpt id="song_#1Hotel_Yorba_(Album_Version)" >
			<!-- setting names of outcomes -->
			<state id="recommended" />
			<state id="notRecommended" />
			<!-- add arcs -->
			<parents>clusterPredict </parents>
			<!-- setting probabilities -->
			<probabilities>0.131423256157 0.868576743843 0.15122509575 0.84877490425 0.111337118697 0.888662881303 0.11096355733 0.88903644267 0.113440130891 0.886559869109 0.10331285019 0.89668714981 0.190181867641 0.809818132359 0.0881161233447 0.911883876655 </probabilities>
		</cpt>
		<!-- create node "song #2Dream Police" -->
		<cpt id="song_#2Dream_Police" >
			<!-- setting names of outcomes -->
			<state id="recommended" />
			<state id="notRecommended" />
			<!-- add arcs -->
			<parents>clusterPredict </parents>
			<!-- setting probabilities -->
			<probabilities>0.100976168729 0.899023831271 0.225115738043 0.774884261957 0.10335097659 0.89664902341 0.100469277269 0.899530722731 0.128330223297 0.871669776703 0.084362508238 0.915637491762 0.182586746116 0.817413253884 0.0748083617183 0.925191638282 </probabilities>
		</cpt>
		<!-- create node "song #3ANTS MARCHING (Live Acoustic)" -->
		<cpt id="song_#3ANTS_MARCHING_(Live_Acoustic)" >
			<!-- setting names of outcomes -->
			<state id="recommended" />
			<state id="notRecommended" />
			<!-- add arcs -->
			<parents>clusterPredict </parents>
			<!-- setting probabilities -->
			<probabilities>0.0806602194458 0.919339780554 0.125800695933 0.874199304067 0.317848310452 0.682151689548 0.0987259014185 0.901274098582 0.0973576664163 0.902642333584 0.0983677489832 0.901632251017 0.0888070587136 0.911192941286 0.0924323986375 0.907567601363 </probabilities>
		</cpt>
		<!-- create node "song #4Adive From the Angel of Thresholds" -->
		<cpt id="song_#4Adive_From_the_Angel_of_Thresholds" >
			<!-- setting names of outcomes -->
			<state id="recommended" />
			<state id="notRecommended" />
			<!-- add arcs -->
			<parents>clusterPredict </parents>
			<!-- setting probabilities -->
			<probabilities>0.138735931834 0.861264068166 0.104982353219 0.895017646781 0.132802695385 0.867197304615 0.115604825463 0.884395174537 0.0910950083035 0.908904991697 0.147009969336 0.852990030664 0.112460135193 0.887539864807 0.157309081267 0.842690918733 </probabilities>
		</cpt>
		<!-- create node "song #5Stoned Out Of My Mind" -->
		<cpt id="song_#5Stoned_Out_Of_My_Mind" >
			<!-- setting names of outcomes -->
			<state id="recommended" />
			<state id="notRecommended" />
			<!-- add arcs -->
			<parents>clusterPredict </parents>
			<!-- setting probabilities -->
			<probabilities>0.0925923510245 0.907407648976 0.246622283319 0.753377716681 0.140686399302 0.859313600698 0.115154713518 0.884845286482 0.0983495113159 0.901650488684 0.0897544724696 0.91024552753 0.136170573344 0.863829426656 0.0806696957077 0.919330304292 </probabilities>
		</cpt>
		<!-- create node "song #6Clair de Lune" -->
		<cpt id="song_#6Clair_de_Lune" >
			<!-- setting names of outcomes -->
			<state id="recommended" />
			<state id="notRecommended" />
			<!-- add arcs -->
			<parents>clusterPredict </parents>
			<!-- setting probabilities -->
			<probabilities>0.103349243839 0.896650756161 0.129380180073 0.870619819927 0.112576519885 0.887423480115 0.139829742834 0.860170257166 0.0906216889012 0.909378311099 0.113351022979 0.886648977021 0.0968931670326 0.903106832967 0.213998434455 0.786001565545 </probabilities>
		</cpt>
		<!-- create node "song #7" -->
		<cpt id="song_#7" >
			<!-- setting names of outcomes -->
			<state id="recommended" />
			<state id="notRecommended" />
			<!-- add arcs -->
			<parents>clusterPredict </parents>
			<!-- setting probabilities -->
			<probabilities>0.0871619920971 0.912838007903 0.199764804132 0.800235195868 0.0985664228636 0.901433577136 0.165085815269 0.834914184731 0.166056838326 0.833943161674 0.0969681011735 0.903031898826 0.104873891602 0.895126108398 0.0815221345364 0.918477865464 </probabilities>
		</cpt>
		<!-- create node "song #8Guinnevere" -->
		<cpt id="song_#8Guinnevere" >
			<!-- setting names of outcomes -->
			<state id="recommended" />
			<state id="notRecommended" />
			<!-- add arcs -->
			<parents>clusterPredict </parents>
			<!-- setting probabilities -->
			<probabilities>0.106654158086 0.893345841914 0.120370412235 0.879629587765 0.1178309508 0.8821690492 0.141418818221 0.858581181779 0.11244532348 0.88755467652 0.0963636417231 0.903636358277 0.159701391938 0.840298608062 0.145215303516 0.854784696484 </probabilities>
		</cpt>
		<!-- create node "song #9Heaven's the Place" -->
		<cpt id="song_#9Heaven's_the_Place" >
			<!-- setting names of outcomes -->
			<state id="recommended" />
			<state id="notRecommended" />
			<!-- add arcs -->
			<parents>clusterPredict </parents>
			<!-- setting probabilities -->
			<probabilities>0.0927965430459 0.907203456954 0.121186108591 0.878813891409 0.243247954499 0.756752045501 0.10204252307 0.89795747693 0.132944270834 0.867055729166 0.105222845655 0.894777154345 0.115293858177 0.884706141823 0.0872658961287 0.912734103871 </probabilities>
		</cpt>
		<!-- create node "song #10Maps" -->
		<cpt id="song_#10Maps" >
			<!-- setting names of outcomes -->
			<state id="recommended" />
			<state id="notRecommended" />
			<!-- add arcs -->
			<parents>clusterPredict </parents>
			<!-- setting probabilities -->
			<probabilities>0.110366636442 0.889633363558 0.182828783622 0.817171216378 0.0986897056734 0.901310294327 0.12345020989 0.87654979011 0.121027828209 0.878972171791 0.0937463736735 0.906253626326 0.195459627556 0.804540372444 0.0744308349347 0.925569165065 </probabilities>
		</cpt>
		<!-- create node "song #11Good Times Roll" -->
		<cpt id="song_#11Good_Times_Roll" >
			<!-- setting names of outcomes -->
			<state id="recommended" />
			<state id="notRecommended" />
			<!-- add arcs -->
			<parents>clusterPredict </parents>
			<!-- setting probabilities -->
			<probabilities>0.114358381278 0.885641618722 0.219925984974 0.780074015026 0.100632874459 0.899367125541 0.0993265456687 0.900673454331 0.0982076865874 0.901792313413 0.0856944572275 0.914305542772 0.201363091838 0.798636908162 0.0804909779682 0.919509022032 </probabilities>
		</cpt>
		<!-- create node "song #12d:b:l" -->
		<cpt id="song_#12d:b:l" >
			<!-- setting names of outcomes -->
			<state id="recommended" />
			<state id="notRecommended" />
			<!-- add arcs -->
			<parents>clusterPredict </parents>
			<!-- setting probabilities -->
			<probabilities>0.0808119833794 0.919188016621 0.108429839398 0.891570160602 0.252558177381 0.747441822619 0.137360383857 0.862639616143 0.111191514463 0.888808485537 0.115813724028 0.884186275972 0.0868930710916 0.913106928908 0.106941306402 0.893058693598 </probabilities>
		</cpt>
		<!-- create node "song #13You Set The Scene" -->
		<cpt id="song_#13You_Set_The_Scene" >
			<!-- setting names of outcomes -->
			<state id="recommended" />
			<state id="notRecommended" />
			<!-- add arcs -->
			<parents>clusterPredict </parents>
			<!-- setting probabilities -->
			<probabilities>0.078628897857 0.921371102143 0.169945901097 0.830054098903 0.126276924233 0.873723075767 0.168973847726 0.831026152274 0.177661699857 0.822338300143 0.101952686327 0.898047313673 0.089984700738 0.910015299262 0.0865753421657 0.913424657834 </probabilities>
		</cpt>
		<!-- create node "song #14The Black Crowes - 03 - Thorn In My Pride" -->
		<cpt id="song_#14The_Black_Crowes_-_03_-_Thorn_In_My_Pride" >
			<!-- setting names of outcomes -->
			<state id="recommended" />
			<state id="notRecommended" />
			<!-- add arcs -->
			<parents>clusterPredict </parents>
			<!-- setting probabilities -->
			<probabilities>0.0928868284708 0.907113171529 0.144175638409 0.855824361591 0.215147882746 0.784852117254 0.10828232096 0.89171767904 0.101410793642 0.898589206358 0.0918396331048 0.908160366895 0.125556634303 0.874443365697 0.120700268364 0.879299731636 </probabilities>
		</cpt>
		<!-- create node "song #15Ziggy Stardust" -->
		<cpt id="song_#15Ziggy_Stardust" >
			<!-- setting names of outcomes -->
			<state id="recommended" />
			<state id="notRecommended" />
			<!-- add arcs -->
			<parents>clusterPredict </parents>
			<!-- setting probabilities -->
			<probabilities>0.209974395768 0.790025604232 0.133500162128 0.866499837872 0.100432199538 0.899567800462 0.103247046828 0.896752953172 0.0906399673364 0.909360032664 0.143504588753 0.856495411247 0.13065553688 0.86934446312 0.0880461027688 0.911953897231 </probabilities>
		</cpt>
		<!-- create node "song #16Tales Of Brave Ulysses" -->
		<cpt id="song_#16Tales_Of_Brave_Ulysses" >
			<!-- setting names of outcomes -->
			<state id="recommended" />
			<state id="notRecommended" />
			<!-- add arcs -->
			<parents>clusterPredict </parents>
			<!-- setting probabilities -->
			<probabilities>0.0850398113128 0.914960188687 0.220131322516 0.779868677484 0.107370805795 0.892629194205 0.190179358159 0.809820641841 0.09811712835 0.90188287165 0.0920329981365 0.907967001863 0.10064180163 0.89935819837 0.1064867741 0.8935132259 </probabilities>
		</cpt>
		<!-- create node "song #17Time Is Tight" -->
		<cpt id="song_#17Time_Is_Tight" >
			<!-- setting names of outcomes -->
			<state id="recommended" />
			<state id="notRecommended" />
			<!-- add arcs -->
			<parents>clusterPredict </parents>
			<!-- setting probabilities -->
			<probabilities>0.103948173235 0.896051826765 0.15575070148 0.84424929852 0.119312947262 0.880687052738 0.125588658067 0.874411341933 0.144626560243 0.855373439757 0.107723526041 0.892276473959 0.110520336437 0.889479663563 0.132529097234 0.867470902766 </probabilities>
		</cpt>
		<!-- create node "song #18Kyo Rei" -->
		<cpt id="song_#18Kyo_Rei" >
			<!-- setting names of outcomes -->
			<state id="recommended" />
			<state id="notRecommended" />
			<!-- add arcs -->
			<parents>clusterPredict </parents>
			<!-- setting probabilities -->
			<probabilities>0.129008051681 0.870991948319 0.117057797399 0.882942202601 0.12304459841 0.87695540159 0.11254876943 0.88745123057 0.0931460374857 0.906853962514 0.124950326893 0.875049673107 0.108903220624 0.891096779376 0.191341198076 0.808658801924 </probabilities>
		</cpt>
		<!-- create node "song #19Echoes (1992 Digital Remaster)" -->
		<cpt id="song_#19Echoes_(1992_Digital_Remaster)" >
			<!-- setting names of outcomes -->
			<state id="recommended" />
			<state id="notRecommended" />
			<!-- add arcs -->
			<parents>clusterPredict </parents>
			<!-- setting probabilities -->
			<probabilities>0.0915961309366 0.908403869063 0.105950214673 0.894049785327 0.147483153612 0.852516846388 0.131995239486 0.868004760514 0.116613177508 0.883386822492 0.107763270734 0.892236729266 0.099617827268 0.900382172732 0.198980985782 0.801019014218 </probabilities>
		</cpt>
		<!-- create node "song #20Too Slow" -->
		<cpt id="song_#20Too_Slow" >
			<!-- setting names of outcomes -->
			<state id="recommended" />
			<state id="notRecommended" />
			<!-- add arcs -->
			<parents>clusterPredict </parents>
			<!-- setting probabilities -->
			<probabilities>0.134795897308 0.865204102692 0.116075571866 0.883924428134 0.140226728956 0.859773271044 0.104891151757 0.895108848243 0.0887056392212 0.911294360779 0.163852814053 0.836147185947 0.095865299582 0.904134700418 0.155586897256 0.844413102744 </probabilities>
		</cpt>
		<!-- create node "song #21Been Caught Stealing" -->
		<cpt id="song_#21Been_Caught_Stealing" >
			<!-- setting names of outcomes -->
			<state id="recommended" />
			<state id="notRecommended" />
			<!-- add arcs -->
			<parents>clusterPredict </parents>
			<!-- setting probabilities -->
			<probabilities>0.0902249317588 0.909775068241 0.123334570185 0.876665429815 0.104602075979 0.895397924021 0.120508566034 0.879491433966 0.276553842871 0.723446157129 0.107383335789 0.892616664211 0.0996856649765 0.900314335024 0.0777070124059 0.922292987594 </probabilities>
		</cpt>
		<!-- create node "song #22" -->
		<cpt id="song_#22" >
			<!-- setting names of outcomes -->
			<state id="recommended" />
			<state id="notRecommended" />
			<!-- add arcs -->
			<parents>clusterPredict </parents>
			<!-- setting probabilities -->
			<probabilities>0.111540903754 0.888459096246 0.113786116229 0.886213883771 0.117047497761 0.882952502239 0.131775501199 0.868224498801 0.0981552418726 0.901844758127 0.101046646396 0.898953353604 0.136351826177 0.863648173823 0.190296266611 0.809703733389 </probabilities>
		</cpt>
		<!-- create node "song #23Risingson" -->
		<cpt id="song_#23Risingson" >
			<!-- setting names of outcomes -->
			<state id="recommended" />
			<state id="notRecommended" />
			<!-- add arcs -->
			<parents>clusterPredict </parents>
			<!-- setting probabilities -->
			<probabilities>0.0923660838132 0.907633916187 0.125038278565 0.874961721435 0.105256640555 0.894743359445 0.172825559765 0.827174440235 0.199302073997 0.800697926003 0.106303856998 0.893696143002 0.120957241261 0.879042758739 0.0779502650451 0.922049734955 </probabilities>
		</cpt>
		<!-- create node "song #24EPIC" -->
		<cpt id="song_#24EPIC" >
			<!-- setting names of outcomes -->
			<state id="recommended" />
			<state id="notRecommended" />
			<!-- add arcs -->
			<parents>clusterPredict </parents>
			<!-- setting probabilities -->
			<probabilities>0.0851474201666 0.914852579833 0.10792432419 0.89207567581 0.128905992858 0.871094007142 0.147427527571 0.852572472429 0.231192830136 0.768807169864 0.106923770307 0.893076229693 0.10545318835 0.89454681165 0.0870249464215 0.912975053578 </probabilities>
		</cpt>
		<!-- create node "song #25" -->
		<cpt id="song_#25" >
			<!-- setting names of outcomes -->
			<state id="recommended" />
			<state id="notRecommended" />
			<!-- add arcs -->
			<parents>clusterPredict </parents>
			<!-- setting probabilities -->
			<probabilities>0.0819053479444 0.918094652056 0.214865623799 0.785134376201 0.128635707017 0.871364292983 0.135870044921 0.864129955079 0.16665079338 0.83334920662 0.102973226797 0.897026773203 0.0937032157903 0.90629678421 0.0753960403512 0.924603959649 </probabilities>
		</cpt>
		<!-- create node "song #26Dead slow day" -->
		<cpt id="song_#26Dead_slow_day" >
			<!-- setting names of outcomes -->
			<state id="recommended" />
			<state id="notRecommended" />
			<!-- add arcs -->
			<parents>clusterPredict </parents>
			<!-- setting probabilities -->
			<probabilities>0.104816985908 0.895183014092 0.142872621594 0.857127378406 0.156167269358 0.843832730642 0.104977563315 0.895022436685 0.114206257191 0.885793742809 0.097505238656 0.902494761344 0.129132520732 0.870867479268 0.150321543247 0.849678456753 </probabilities>
		</cpt>
		<!-- create node "song #27Hotter Than That" -->
		<cpt id="song_#27Hotter_Than_That" >
			<!-- setting names of outcomes -->
			<state id="recommended" />
			<state id="notRecommended" />
			<!-- add arcs -->
			<parents>clusterPredict </parents>
			<!-- setting probabilities -->
			<probabilities>0.11496792771 0.88503207229 0.10365869997 0.89634130003 0.116115925676 0.883884074324 0.116325709221 0.883674290779 0.0894205499143 0.910579450086 0.286495948433 0.713504051567 0.0826214217804 0.91737857822 0.090393817295 0.909606182705 </probabilities>
		</cpt>
		<!-- create node "song #28Matchbox" -->
		<cpt id="song_#28Matchbox" >
			<!-- setting names of outcomes -->
			<state id="recommended" />
			<state id="notRecommended" />
			<!-- add arcs -->
			<parents>clusterPredict </parents>
			<!-- setting probabilities -->
			<probabilities>0.0852028376281 0.914797162372 0.137473841965 0.862526158035 0.119809774414 0.880190225586 0.139321703973 0.860678296027 0.222659190449 0.777340809551 0.106139752046 0.893860247954 0.0941658142393 0.905834185761 0.0952270852856 0.904772914714 </probabilities>
		</cpt>
		<!-- create node "song #29Break My Mind" -->
		<cpt id="song_#29Break_My_Mind" >
			<!-- setting names of outcomes -->
			<state id="recommended" />
			<state id="notRecommended" />
			<!-- add arcs -->
			<parents>clusterPredict </parents>
			<!-- setting probabilities -->
			<probabilities>0.0890173286298 0.91098267137 0.126981927247 0.873018072753 0.173463045438 0.826536954562 0.113911049747 0.886088950253 0.184970147971 0.815029852029 0.102005052536 0.897994947464 0.110704167605 0.889295832395 0.0989472808261 0.901052719174 </probabilities>
		</cpt>
		<!-- create node "song #30Chandra" -->
		<cpt id="song_#30Chandra" >
			<!-- setting names of outcomes -->
			<state id="recommended" />
			<state id="notRecommended" />
			<!-- add arcs -->
			<parents>clusterPredict </parents>
			<!-- setting probabilities -->
			<probabilities>0.0924031320497 0.90759686795 0.122429972749 0.877570027251 0.21059492812 0.78940507188 0.101247304286 0.898752695714 0.0953625934831 0.904637406517 0.100243326125 0.899756673875 0.0977881754486 0.902211824551 0.179930567739 0.820069432261 </probabilities>
		</cpt>
		<!-- create node "song #31King Harvest (Has Surely Come) (2000 Digital Remaster)" -->
		<cpt id="song_#31King_Harvest_(Has_Surely_Come)_(2000_Digital_Remaster)" >
			<!-- setting names of outcomes -->
			<state id="recommended" />
			<state id="notRecommended" />
			<!-- add arcs -->
			<parents>clusterPredict </parents>
			<!-- setting probabilities -->
			<probabilities>0.076508482949 0.923491517051 0.136365906253 0.863634093747 0.276031885408 0.723968114592 0.131644688096 0.868355311904 0.0919922410295 0.908007758971 0.0991108832007 0.900889116799 0.0857385421824 0.914261457818 0.102607370881 0.897392629119 </probabilities>
		</cpt>
		<!-- create node "song #32Blue Monday" -->
		<cpt id="song_#32Blue_Monday" >
			<!-- setting names of outcomes -->
			<state id="recommended" />
			<state id="notRecommended" />
			<!-- add arcs -->
			<parents>clusterPredict </parents>
			<!-- setting probabilities -->
			<probabilities>0.0970171793091 0.902982820691 0.253464546412 0.746535453588 0.0899951045152 0.910004895485 0.117697661269 0.882302338731 0.122952978514 0.877047021486 0.0839995510952 0.916000448905 0.164495377714 0.835504622286 0.0703776011713 0.929622398829 </probabilities>
		</cpt>
		<!-- create node "song #33Mine Tonite" -->
		<cpt id="song_#33Mine_Tonite" >
			<!-- setting names of outcomes -->
			<state id="recommended" />
			<state id="notRecommended" />
			<!-- add arcs -->
			<parents>clusterPredict </parents>
			<!-- setting probabilities -->
			<probabilities>0.115233221214 0.884766778786 0.118980070931 0.881019929069 0.139633284647 0.860366715353 0.105288874466 0.894711125534 0.172224427635 0.827775572365 0.113272795872 0.886727204128 0.143937254008 0.856062745992 0.0914300712265 0.908569928773 </probabilities>
		</cpt>
		<!-- create node "song #34What's Wrong with my foot:" -->
		<cpt id="song_#34What's_Wrong_with_my_foot:" >
			<!-- setting names of outcomes -->
			<state id="recommended" />
			<state id="notRecommended" />
			<!-- add arcs -->
			<parents>clusterPredict </parents>
			<!-- setting probabilities -->
			<probabilities>0.0832028739944 0.916797126006 0.109105729705 0.890894270295 0.249520788362 0.750479211638 0.135778760656 0.864221239344 0.113064198696 0.886935801304 0.115757544994 0.884242455006 0.0919561974567 0.908043802543 0.101613906136 0.898386093864 </probabilities>
		</cpt>
		<!-- create node "song #35Torn" -->
		<cpt id="song_#35Torn" >
			<!-- setting names of outcomes -->
			<state id="recommended" />
			<state id="notRecommended" />
			<!-- add arcs -->
			<parents>clusterPredict </parents>
			<!-- setting probabilities -->
			<probabilities>0.0791201603921 0.920879839608 0.13500347625 0.86499652375 0.0988382602493 0.901161739751 0.316674775063 0.683325224937 0.0977421214698 0.90225787853 0.0939491794479 0.906050820552 0.0947822854043 0.905217714596 0.0838897417236 0.916110258276 </probabilities>
		</cpt>
		<!-- create node "song #36Jerry Was A Race Car Driver" -->
		<cpt id="song_#36Jerry_Was_A_Race_Car_Driver" >
			<!-- setting names of outcomes -->
			<state id="recommended" />
			<state id="notRecommended" />
			<!-- add arcs -->
			<parents>clusterPredict </parents>
			<!-- setting probabilities -->
			<probabilities>0.056362131365 0.943637868635 0.0949935723437 0.905006427656 0.0783596513076 0.921640348692 0.478288576796 0.521711423204 0.0854496748354 0.914550325165 0.0706991512654 0.929300848735 0.0677346518015 0.932265348198 0.0681125902857 0.931887409714 </probabilities>
		</cpt>
		<!-- create node "song #37Tiny Dancer" -->
		<cpt id="song_#37Tiny_Dancer" >
			<!-- setting names of outcomes -->
			<state id="recommended" />
			<state id="notRecommended" />
			<!-- add arcs -->
			<parents>clusterPredict </parents>
			<!-- setting probabilities -->
			<probabilities>0.1004066906 0.8995933094 0.201903981985 0.798096018015 0.105126629907 0.894873370093 0.13348734876 0.86651265124 0.143976514827 0.856023485173 0.102160738147 0.897839261853 0.111566097883 0.888433902117 0.101371997892 0.898628002108 </probabilities>
		</cpt>
		<!-- create node "song #38I Just Want To Have Something To Do" -->
		<cpt id="song_#38I_Just_Want_To_Have_Something_To_Do" >
			<!-- setting names of outcomes -->
			<state id="recommended" />
			<state id="notRecommended" />
			<!-- add arcs -->
			<parents>clusterPredict </parents>
			<!-- setting probabilities -->
			<probabilities>0.113037600374 0.886962399626 0.123847298038 0.876152701962 0.119795256703 0.880204743297 0.139690258582 0.860309741418 0.138440359699 0.861559640301 0.111118583017 0.888881416983 0.165771547482 0.834228452518 0.0882990961056 0.911700903894 </probabilities>
		</cpt>
		<!-- create node "song #39All Possibilities" -->
		<cpt id="song_#39All_Possibilities" >
			<!-- setting names of outcomes -->
			<state id="recommended" />
			<state id="notRecommended" />
			<!-- add arcs -->
			<parents>clusterPredict </parents>
			<!-- setting probabilities -->
			<probabilities>0.0738736007864 0.926126399214 0.15791810369 0.84208189631 0.150063833975 0.849936166025 0.163017892075 0.836982107925 0.188907596958 0.811092403042 0.0919734048392 0.908026595161 0.0958670208616 0.904132979138 0.0783785468141 0.921621453186 </probabilities>
		</cpt>
		<!-- create node "song #40Dirty Deeds Done Dirt Cheap" -->
		<cpt id="song_#40Dirty_Deeds_Done_Dirt_Cheap" >
			<!-- setting names of outcomes -->
			<state id="recommended" />
			<state id="notRecommended" />
			<!-- add arcs -->
			<parents>clusterPredict </parents>
			<!-- setting probabilities -->
			<probabilities>0.0734510978852 0.926548902115 0.125199959062 0.874800040938 0.0983365061417 0.901663493858 0.311076792869 0.688923207131 0.134790766477 0.865209233523 0.0962071676749 0.903792832325 0.0862440201123 0.913755979888 0.0746936897788 0.925306310221 </probabilities>
		</cpt>
		<!-- create node "song #41Answering Machine" -->
		<cpt id="song_#41Answering_Machine" >
			<!-- setting names of outcomes -->
			<state id="recommended" />
			<state id="notRecommended" />
			<!-- add arcs -->
			<parents>clusterPredict </parents>
			<!-- setting probabilities -->
			<probabilities>0.0957815311779 0.904218468822 0.190555415051 0.809444584949 0.124268187349 0.875731812651 0.120161838648 0.879838161352 0.171387342147 0.828612657853 0.105580150491 0.894419849509 0.119702867548 0.880297132452 0.0725626675891 0.927437332411 </probabilities>
		</cpt>
		<!-- create node "song #42Nova Express: I'm Alive" -->
		<cpt id="song_#42Nova_Express:_I'm_Alive" >
			<!-- setting names of outcomes -->
			<state id="recommended" />
			<state id="notRecommended" />
			<!-- add arcs -->
			<parents>clusterPredict </parents>
			<!-- setting probabilities -->
			<probabilities>0.101784716811 0.898215283189 0.115031623552 0.884968376448 0.159224132876 0.840775867124 0.110145526738 0.889854473262 0.187809680015 0.812190319985 0.119333725852 0.880666274148 0.115888384834 0.884111615166 0.0907822093229 0.909217790677 </probabilities>
		</cpt>
		<!-- create node "song #43Say You Love Me" -->
		<cpt id="song_#43Say_You_Love_Me" >
			<!-- setting names of outcomes -->
			<state id="recommended" />
			<state id="notRecommended" />
			<!-- add arcs -->
			<parents>clusterPredict </parents>
			<!-- setting probabilities -->
			<probabilities>0.381964713974 0.618035286026 0.0923860265193 0.907613973481 0.0718261743591 0.928173825641 0.0762778671807 0.923722132819 0.0746669244514 0.925333075549 0.108658759029 0.891341240971 0.11874477062 0.88125522938 0.0754747638658 0.924525236134 </probabilities>
		</cpt>
		<!-- create node "song #44Baggy Trousers" -->
		<cpt id="song_#44Baggy_Trousers" >
			<!-- setting names of outcomes -->
			<state id="recommended" />
			<state id="notRecommended" />
			<!-- add arcs -->
			<parents>clusterPredict </parents>
			<!-- setting probabilities -->
			<probabilities>0.117209234065 0.882790765935 0.110841176991 0.889158823009 0.102318611009 0.897681388991 0.141451932421 0.858548067579 0.115974809527 0.884025190473 0.231553366957 0.768446633043 0.0891836173095 0.910816382691 0.0914672517198 0.90853274828 </probabilities>
		</cpt>
		<!-- create node "song #45Police & Thieves" -->
		<cpt id="song_#45Police_&_Thieves" >
			<!-- setting names of outcomes -->
			<state id="recommended" />
			<state id="notRecommended" />
			<!-- add arcs -->
			<parents>clusterPredict </parents>
			<!-- setting probabilities -->
			<probabilities>0.0856496674181 0.914350332582 0.122522255344 0.877477744656 0.115152458813 0.884847541187 0.242790208064 0.757209791936 0.124811912685 0.875188087315 0.0964030674312 0.903596932569 0.124429930093 0.875570069907 0.0882405001514 0.911759499849 </probabilities>
		</cpt>
		<!-- create node "song #46ON THE ROAD AGAIN (Lp Version)" -->
		<cpt id="song_#46ON_THE_ROAD_AGAIN_(Lp_Version)" >
			<!-- setting names of outcomes -->
			<state id="recommended" />
			<state id="notRecommended" />
			<!-- add arcs -->
			<parents>clusterPredict </parents>
			<!-- setting probabilities -->
			<probabilities>0.0770224096829 0.922977590317 0.125440030128 0.874559969872 0.102265611727 0.897734388273 0.294289523157 0.705710476843 0.117957373603 0.882042626397 0.0976953039614 0.902304696039 0.0866435188062 0.913356481194 0.0986862289345 0.901313771066 </probabilities>
		</cpt>
		<!-- create node "song #47Cigarettes And Chocolate Milk" -->
		<cpt id="song_#47Cigarettes_And_Chocolate_Milk" >
			<!-- setting names of outcomes -->
			<state id="recommended" />
			<state id="notRecommended" />
			<!-- add arcs -->
			<parents>clusterPredict </parents>
			<!-- setting probabilities -->
			<probabilities>0.0712845908872 0.928715409113 0.124715802138 0.875284197862 0.108165223924 0.891834776076 0.342240433887 0.657759566113 0.0919138284413 0.908086171559 0.0929139262555 0.907086073745 0.0807415598172 0.919258440183 0.0880246346498 0.91197536535 </probabilities>
		</cpt>
		<!-- create node "song #48World In My Eyes (7" Version)" -->
		<cpt id="song_#48World_In_My_Eyes_(7"_Version)" >
			<!-- setting names of outcomes -->
			<state id="recommended" />
			<state id="notRecommended" />
			<!-- add arcs -->
			<parents>clusterPredict </parents>
			<!-- setting probabilities -->
			<probabilities>0.10944440189 0.89055559811 0.143154791121 0.856845208879 0.14771983383 0.85228016617 0.114617286472 0.885382713528 0.125967517269 0.874032482731 0.104674377695 0.895325622305 0.172315164886 0.827684835114 0.0821066268374 0.917893373163 </probabilities>
		</cpt>
		<!-- create node "song #49Artificial Sweetener" -->
		<cpt id="song_#49Artificial_Sweetener" >
			<!-- setting names of outcomes -->
			<state id="recommended" />
			<state id="notRecommended" />
			<!-- add arcs -->
			<parents>clusterPredict </parents>
			<!-- setting probabilities -->
			<probabilities>0.0886193252025 0.911380674797 0.141517741409 0.858482258591 0.140916014364 0.859083985636 0.207579883445 0.792420116555 0.111500664551 0.888499335449 0.117145497615 0.882854502385 0.0988276133905 0.90117238661 0.0938932600229 0.906106739977 </probabilities>
		</cpt>
		<!-- create node "song #50Prince Charming" -->
		<cpt id="song_#50Prince_Charming" >
			<!-- setting names of outcomes -->
			<state id="recommended" />
			<state id="notRecommended" />
			<!-- add arcs -->
			<parents>clusterPredict </parents>
			<!-- setting probabilities -->
			<probabilities>0.0729319221394 0.927068077861 0.162624243979 0.837375756021 0.11682458732 0.88317541268 0.168110928672 0.831889071328 0.218437828467 0.781562171533 0.0856897294128 0.914310270587 0.0973843791693 0.902615620831 0.07799638084 0.92200361916 </probabilities>
		</cpt>
		<!-- create node "song #51Wave" -->
		<cpt id="song_#51Wave" >
			<!-- setting names of outcomes -->
			<state id="recommended" />
			<state id="notRecommended" />
			<!-- add arcs -->
			<parents>clusterPredict </parents>
			<!-- setting probabilities -->
			<probabilities>0.199728895652 0.800271104348 0.1114099317 0.8885900683 0.0971566261227 0.902843373877 0.100843553858 0.899156446142 0.101089026072 0.898910973928 0.127754159912 0.872245840088 0.131833812486 0.868166187514 0.130183994197 0.869816005803 </probabilities>
		</cpt>
		<!-- create node "song #52Skunk Werks" -->
		<cpt id="song_#52Skunk_Werks" >
			<!-- setting names of outcomes -->
			<state id="recommended" />
			<state id="notRecommended" />
			<!-- add arcs -->
			<parents>clusterPredict </parents>
			<!-- setting probabilities -->
			<probabilities>0.0849233879 0.9150766121 0.111085944075 0.888914055925 0.166967531818 0.833032468182 0.136392822683 0.863607177317 0.114720287499 0.885279712501 0.10131511086 0.89868488914 0.0958601274644 0.904139872536 0.188734787701 0.811265212299 </probabilities>
		</cpt>
		<!-- create node "song #53Suzanne" -->
		<cpt id="song_#53Suzanne" >
			<!-- setting names of outcomes -->
			<state id="recommended" />
			<state id="notRecommended" />
			<!-- add arcs -->
			<parents>clusterPredict </parents>
			<!-- setting probabilities -->
			<probabilities>0.101408508908 0.898591491092 0.126009160656 0.873990839344 0.108808997967 0.891191002033 0.167664614482 0.832335385518 0.112450691964 0.887549308036 0.105146800795 0.894853199205 0.113474323925 0.886525676075 0.165036901302 0.834963098698 </probabilities>
		</cpt>
		<!-- create node "song #54Effervescing Elephant" -->
		<cpt id="song_#54Effervescing_Elephant" >
			<!-- setting names of outcomes -->
			<state id="recommended" />
			<state id="notRecommended" />
			<!-- add arcs -->
			<parents>clusterPredict </parents>
			<!-- setting probabilities -->
			<probabilities>0.179747847578 0.820252152422 0.115206589217 0.884793410783 0.102572453491 0.897427546509 0.101571829017 0.898428170983 0.112643285739 0.887356714261 0.127113694892 0.872886305108 0.133347617207 0.866652382793 0.127796682858 0.872203317142 </probabilities>
		</cpt>
		<!-- create node "song #55God Bless The Child" -->
		<cpt id="song_#55God_Bless_The_Child" >
			<!-- setting names of outcomes -->
			<state id="recommended" />
			<state id="notRecommended" />
			<!-- add arcs -->
			<parents>clusterPredict </parents>
			<!-- setting probabilities -->
			<probabilities>0.111762513038 0.888237486962 0.186545640033 0.813454359967 0.106030957265 0.893969042735 0.139849465441 0.860150534559 0.116324978077 0.883675021923 0.123132942956 0.876867057044 0.102388776386 0.897611223614 0.113964726803 0.886035273197 </probabilities>
		</cpt>
		<!-- create node "song #56Highway Chile" -->
		<cpt id="song_#56Highway_Chile" >
			<!-- setting names of outcomes -->
			<state id="recommended" />
			<state id="notRecommended" />
			<!-- add arcs -->
			<parents>clusterPredict </parents>
			<!-- setting probabilities -->
			<probabilities>0.127614936384 0.872385063616 0.113238676161 0.886761323839 0.110233859378 0.889766140622 0.129800285989 0.870199714011 0.141475907051 0.858524092949 0.185019665952 0.814980334048 0.10769166513 0.89230833487 0.0849250039549 0.915074996045 </probabilities>
		</cpt>
		<!-- create node "song #57No Rain" -->
		<cpt id="song_#57No_Rain" >
			<!-- setting names of outcomes -->
			<state id="recommended" />
			<state id="notRecommended" />
			<!-- add arcs -->
			<parents>clusterPredict </parents>
			<!-- setting probabilities -->
			<probabilities>0.126159520282 0.873840479718 0.134615226952 0.865384773048 0.0956534823908 0.904346517609 0.100390629302 0.899609370698 0.12992922128 0.87007077872 0.0922503201956 0.907749679804 0.24015140328 0.75984859672 0.0808501963172 0.919149803683 </probabilities>
		</cpt>
		<!-- create node "song #58Da Funk" -->
		<cpt id="song_#58Da_Funk" >
			<!-- setting names of outcomes -->
			<state id="recommended" />
			<state id="notRecommended" />
			<!-- add arcs -->
			<parents>clusterPredict </parents>
			<!-- setting probabilities -->
			<probabilities>0.0841510798847 0.915848920115 0.142498485869 0.857501514131 0.113414789145 0.886585210855 0.24935911535 0.75064088465 0.122719765708 0.877280234292 0.109244648284 0.890755351716 0.0963707267524 0.903629273248 0.0822413890076 0.917758610992 </probabilities>
		</cpt>
		<!-- create node "song #59 Thela Hun Ginjeet" -->
		<cpt id="song_#59_Thela_Hun_Ginjeet" >
			<!-- setting names of outcomes -->
			<state id="recommended" />
			<state id="notRecommended" />
			<!-- add arcs -->
			<parents>clusterPredict </parents>
			<!-- setting probabilities -->
			<probabilities>0.0869449393675 0.913055060632 0.0956062614694 0.904393738531 0.0766418375562 0.923358162444 0.07820662764 0.92179337236 0.0832213152769 0.916778684723 0.0648423493091 0.935157650691 0.451768434617 0.548231565383 0.0627682347636 0.937231765236 </probabilities>
		</cpt>
		<!-- create node "song #60Buddy Holly" -->
		<cpt id="song_#60Buddy_Holly" >
			<!-- setting names of outcomes -->
			<state id="recommended" />
			<state id="notRecommended" />
			<!-- add arcs -->
			<parents>clusterPredict </parents>
			<!-- setting probabilities -->
			<probabilities>0.0873672677162 0.912632732284 0.143638419114 0.856361580886 0.112496230054 0.887503769946 0.226949652574 0.773050347426 0.13507131656 0.86492868344 0.112675821566 0.887324178434 0.0995770380297 0.90042296197 0.0822242543864 0.917775745614 </probabilities>
		</cpt>
		<!-- create node "song #61River Deep Mountain High" -->
		<cpt id="song_#61River_Deep_Mountain_High" >
			<!-- setting names of outcomes -->
			<state id="recommended" />
			<state id="notRecommended" />
			<!-- add arcs -->
			<parents>clusterPredict </parents>
			<!-- setting probabilities -->
			<probabilities>0.123643883288 0.876356116712 0.250660911512 0.749339088488 0.106670613971 0.893329386029 0.112992375734 0.887007624266 0.0861491292638 0.913850870736 0.107001255399 0.892998744601 0.125844808253 0.874155191747 0.0870370225788 0.912962977421 </probabilities>
		</cpt>
		<!-- create node "song #62Knysnamushrooms (Mr Gelatine)" -->
		<cpt id="song_#62Knysnamushrooms_(Mr_Gelatine)" >
			<!-- setting names of outcomes -->
			<state id="recommended" />
			<state id="notRecommended" />
			<!-- add arcs -->
			<parents>clusterPredict </parents>
			<!-- setting probabilities -->
			<probabilities>0.0818894805895 0.918110519411 0.105499960126 0.894500039874 0.214971683796 0.785028316204 0.138634328391 0.861365671609 0.149600390871 0.850399609129 0.115070470967 0.884929529033 0.0925503939146 0.907449606085 0.101783291345 0.898216708655 </probabilities>
		</cpt>
		<!-- create node "song #63" -->
		<cpt id="song_#63" >
			<!-- setting names of outcomes -->
			<state id="recommended" />
			<state id="notRecommended" />
			<!-- add arcs -->
			<parents>clusterPredict </parents>
			<!-- setting probabilities -->
			<probabilities>0.0928281670274 0.907171832973 0.207276938372 0.792723061628 0.125786467999 0.874213532001 0.114579848527 0.885420151473 0.159449587364 0.840550412636 0.0980873425175 0.901912657482 0.109329794627 0.890670205373 0.0926618535664 0.907338146434 </probabilities>
		</cpt>
		<!-- create node "song #64Thursday Group- Like White on Rice" -->
		<cpt id="song_#64Thursday_Group-_Like_White_on_Rice" >
			<!-- setting names of outcomes -->
			<state id="recommended" />
			<state id="notRecommended" />
			<!-- add arcs -->
			<parents>clusterPredict </parents>
			<!-- setting probabilities -->
			<probabilities>0.100108572224 0.899891427776 0.13861085827 0.86138914173 0.189042988818 0.810957011182 0.112894818112 0.887105181888 0.0936753409477 0.906324659052 0.109472798217 0.890527201783 0.102483487619 0.897516512381 0.153711135794 0.846288864206 </probabilities>
		</cpt>
		<!-- create node "song #65Wonderful" -->
		<cpt id="song_#65Wonderful" >
			<!-- setting names of outcomes -->
			<state id="recommended" />
			<state id="notRecommended" />
			<!-- add arcs -->
			<parents>clusterPredict </parents>
			<!-- setting probabilities -->
			<probabilities>0.0973678875979 0.902632112402 0.238499903487 0.761500096513 0.128059899615 0.871940100385 0.115720495655 0.884279504345 0.0973094372417 0.902690562758 0.0895433817844 0.910456618216 0.153367050976 0.846632949024 0.0801319436425 0.919868056357 </probabilities>
		</cpt>
		<!-- create node "song #66Best Of All Possible Worlds" -->
		<cpt id="song_#66Best_Of_All_Possible_Worlds" >
			<!-- setting names of outcomes -->
			<state id="recommended" />
			<state id="notRecommended" />
			<!-- add arcs -->
			<parents>clusterPredict </parents>
			<!-- setting probabilities -->
			<probabilities>0.0981888635898 0.90181113641 0.198459513319 0.801540486681 0.155186142453 0.844813857547 0.112116044711 0.887883955289 0.0946313998623 0.905368600138 0.0894807283339 0.910519271666 0.149317999781 0.850682000219 0.10261930795 0.89738069205 </probabilities>
		</cpt>
		<!-- create node "song #67China Grove" -->
		<cpt id="song_#67China_Grove" >
			<!-- setting names of outcomes -->
			<state id="recommended" />
			<state id="notRecommended" />
			<!-- add arcs -->
			<parents>clusterPredict </parents>
			<!-- setting probabilities -->
			<probabilities>0.221663650163 0.778336349837 0.108922205945 0.891077794055 0.0888253754402 0.91117462456 0.103979259018 0.896020740982 0.0999613227559 0.900038677244 0.165023330686 0.834976669314 0.113284104812 0.886715895188 0.0983407511794 0.901659248821 </probabilities>
		</cpt>
		<!-- create node "song #68Pride and Joy" -->
		<cpt id="song_#68Pride_and_Joy" >
			<!-- setting names of outcomes -->
			<state id="recommended" />
			<state id="notRecommended" />
			<!-- add arcs -->
			<parents>clusterPredict </parents>
			<!-- setting probabilities -->
			<probabilities>0.202656500405 0.797343499595 0.134599637866 0.865400362134 0.09996354787 0.90003645213 0.107993631437 0.892006368563 0.0864971157934 0.913502884207 0.133394959295 0.866605040705 0.131736336963 0.868263663037 0.10315827037 0.89684172963 </probabilities>
		</cpt>
		<!-- create node "song #69Alf Leyla Wa Leyla" -->
		<cpt id="song_#69Alf_Leyla_Wa_Leyla" >
			<!-- setting names of outcomes -->
			<state id="recommended" />
			<state id="notRecommended" />
			<!-- add arcs -->
			<parents>clusterPredict </parents>
			<!-- setting probabilities -->
			<probabilities>0.0876671577338 0.912332842266 0.10711624975 0.89288375025 0.201801930149 0.798198069851 0.142776739696 0.857223260304 0.123185527758 0.876814472242 0.152206838577 0.847793161423 0.0859125921266 0.914087407873 0.0993329642101 0.90066703579 </probabilities>
		</cpt>
		<!-- create node "song #70" -->
		<cpt id="song_#70" >
			<!-- setting names of outcomes -->
			<state id="recommended" />
			<state id="notRecommended" />
			<!-- add arcs -->
			<parents>clusterPredict </parents>
			<!-- setting probabilities -->
			<probabilities>0.106792195747 0.893207804253 0.159298378235 0.840701621765 0.143983667314 0.856016332686 0.136689810508 0.863310189492 0.111530579722 0.888469420278 0.109371261208 0.890628738792 0.14520545511 0.85479454489 0.0871286521565 0.912871347844 </probabilities>
		</cpt>
		<!-- create node "song #71Words Of Love" -->
		<cpt id="song_#71Words_Of_Love" >
			<!-- setting names of outcomes -->
			<state id="recommended" />
			<state id="notRecommended" />
			<!-- add arcs -->
			<parents>clusterPredict </parents>
			<!-- setting probabilities -->
			<probabilities>0.0670436716295 0.932956328371 0.108627947856 0.891372052144 0.109279028342 0.890720971658 0.361879604971 0.638120395029 0.093662782965 0.906337217035 0.0853689579853 0.914631042015 0.0803155995208 0.919684400479 0.0938224067312 0.906177593269 </probabilities>
		</cpt>
		<!-- create node "song #72CATCH THE WIND (Original Hickory 45 Vers" -->
		<cpt id="song_#72CATCH_THE_WIND_(Original_Hickory_45_Vers" >
			<!-- setting names of outcomes -->
			<state id="recommended" />
			<state id="notRecommended" />
			<!-- add arcs -->
			<parents>clusterPredict </parents>
			<!-- setting probabilities -->
			<probabilities>0.190378945279 0.809621054721 0.125485369993 0.874514630007 0.100539054604 0.899460945396 0.097627227692 0.902372772308 0.119341900526 0.880658099474 0.135197358652 0.864802641348 0.125810732427 0.874189267573 0.105619410827 0.894380589173 </probabilities>
		</cpt>
		<!-- create node "song #73The Concept" -->
		<cpt id="song_#73The_Concept" >
			<!-- setting names of outcomes -->
			<state id="recommended" />
			<state id="notRecommended" />
			<!-- add arcs -->
			<parents>clusterPredict </parents>
			<!-- setting probabilities -->
			<probabilities>0.0887015259024 0.911298474098 0.286131119657 0.713868880343 0.107783101803 0.892216898197 0.116144077454 0.883855922546 0.098543673072 0.901456326928 0.0818894137017 0.918110586298 0.149820361577 0.850179638423 0.0709867268323 0.929013273168 </probabilities>
		</cpt>
		<!-- create node "song #74Bonita Applebum" -->
		<cpt id="song_#74Bonita_Applebum" >
			<!-- setting names of outcomes -->
			<state id="recommended" />
			<state id="notRecommended" />
			<!-- add arcs -->
			<parents>clusterPredict </parents>
			<!-- setting probabilities -->
			<probabilities>0.0969310153659 0.903068984634 0.137417140647 0.862582859353 0.116410770947 0.883589229053 0.211857155507 0.788142844493 0.10555934327 0.89444065673 0.102163473089 0.897836526911 0.136767998405 0.863232001595 0.0928931027686 0.907106897231 </probabilities>
		</cpt>
		<!-- create node "song #75El Cuarto de Tula" -->
		<cpt id="song_#75El_Cuarto_de_Tula" >
			<!-- setting names of outcomes -->
			<state id="recommended" />
			<state id="notRecommended" />
			<!-- add arcs -->
			<parents>clusterPredict </parents>
			<!-- setting probabilities -->
			<probabilities>0.136386376245 0.863613623755 0.120658638339 0.879341361661 0.100310412553 0.899689587447 0.107429894029 0.892570105971 0.16556439793 0.83443560207 0.110497080897 0.889502919103 0.172192065081 0.827807934919 0.0869611349261 0.913038865074 </probabilities>
		</cpt>
		<!-- create node "song #76" -->
		<cpt id="song_#76" >
			<!-- setting names of outcomes -->
			<state id="recommended" />
			<state id="notRecommended" />
			<!-- add arcs -->
			<parents>clusterPredict </parents>
			<!-- setting probabilities -->
			<probabilities>0.0853550567745 0.914644943226 0.115827503582 0.884172496418 0.16894034172 0.83105965828 0.12208256069 0.87791743931 0.0950103700273 0.904989629973 0.0956368993998 0.9043631006 0.0954445663401 0.90455543366 0.221702701467 0.778297298533 </probabilities>
		</cpt>
		<!-- create node "song #77Ain't Talkin' 'Bout Love" -->
		<cpt id="song_#77Ain't_Talkin'_'Bout_Love" >
			<!-- setting names of outcomes -->
			<state id="recommended" />
			<state id="notRecommended" />
			<!-- add arcs -->
			<parents>clusterPredict </parents>
			<!-- setting probabilities -->
			<probabilities>0.0861919080914 0.913808091909 0.111588509503 0.888411490497 0.208365611192 0.791634388808 0.1421536325 0.8578463675 0.141941427312 0.858058572688 0.117236007734 0.882763992266 0.101761075217 0.898238924783 0.0907618284506 0.909238171549 </probabilities>
		</cpt>
		<!-- create node "song #78Badlands" -->
		<cpt id="song_#78Badlands" >
			<!-- setting names of outcomes -->
			<state id="recommended" />
			<state id="notRecommended" />
			<!-- add arcs -->
			<parents>clusterPredict </parents>
			<!-- setting probabilities -->
			<probabilities>0.0839220130423 0.916077986958 0.355427496517 0.644572503483 0.08608863614 0.91391136386 0.1010587563 0.8989412437 0.0986871978854 0.901312802115 0.0737797699866 0.926220230013 0.136864239801 0.863135760199 0.0641718903283 0.935828109672 </probabilities>
		</cpt>
		<!-- create node "song #79Take California" -->
		<cpt id="song_#79Take_California" >
			<!-- setting names of outcomes -->
			<state id="recommended" />
			<state id="notRecommended" />
			<!-- add arcs -->
			<parents>clusterPredict </parents>
			<!-- setting probabilities -->
			<probabilities>0.0986252377835 0.901374762217 0.117227600753 0.882772399247 0.119913830531 0.880086169469 0.130824287092 0.869175712908 0.214946911488 0.785053088512 0.122048045647 0.877951954353 0.105613393422 0.894386606578 0.0908006932838 0.909199306716 </probabilities>
		</cpt>
		<!-- create node "song #80" -->
		<cpt id="song_#80" >
			<!-- setting names of outcomes -->
			<state id="recommended" />
			<state id="notRecommended" />
			<!-- add arcs -->
			<parents>clusterPredict </parents>
			<!-- setting probabilities -->
			<probabilities>0.10989939265 0.89010060735 0.138334999927 0.861665000073 0.0914556254432 0.908544374557 0.102616938104 0.897383061896 0.131193377973 0.868806622027 0.0858049211261 0.914195078874 0.269038157503 0.730961842497 0.0716565872723 0.928343412728 </probabilities>
		</cpt>
		<!-- create node "song #81No Excuses" -->
		<cpt id="song_#81No_Excuses" >
			<!-- setting names of outcomes -->
			<state id="recommended" />
			<state id="notRecommended" />
			<!-- add arcs -->
			<parents>clusterPredict </parents>
			<!-- setting probabilities -->
			<probabilities>0.145038688972 0.854961311028 0.139689437628 0.860310562372 0.101121179464 0.898878820536 0.124849121638 0.875150878362 0.10720087615 0.89279912385 0.195786327983 0.804213672017 0.101687890137 0.898312109863 0.0846264780276 0.915373521972 </probabilities>
		</cpt>
		<!-- create node "song #82Before And After" -->
		<cpt id="song_#82Before_And_After" >
			<!-- setting names of outcomes -->
			<state id="recommended" />
			<state id="notRecommended" />
			<!-- add arcs -->
			<parents>clusterPredict </parents>
			<!-- setting probabilities -->
			<probabilities>0.0883025206327 0.911697479367 0.132670685507 0.867329314493 0.146058422802 0.853941577198 0.113838351522 0.886161648478 0.0904936246346 0.909506375365 0.0951962363224 0.904803763678 0.0931903964042 0.906809603596 0.240249762175 0.759750237825 </probabilities>
		</cpt>
		<!-- create node "song #83Rotgut" -->
		<cpt id="song_#83Rotgut" >
			<!-- setting names of outcomes -->
			<state id="recommended" />
			<state id="notRecommended" />
			<!-- add arcs -->
			<parents>clusterPredict </parents>
			<!-- setting probabilities -->
			<probabilities>0.0793779514886 0.920622048511 0.119112133236 0.880887866764 0.272781858771 0.727218141229 0.107763153552 0.892236846448 0.141511677618 0.858488322382 0.107411724145 0.892588275855 0.0882058236668 0.911794176333 0.0838356775232 0.916164322477 </probabilities>
		</cpt>
		<!-- create node "song #84The Darkness - 04 - I Believe In A Thing Called Love" -->
		<cpt id="song_#84The_Darkness_-_04_-_I_Believe_In_A_Thing_Called_Love" >
			<!-- setting names of outcomes -->
			<state id="recommended" />
			<state id="notRecommended" />
			<!-- add arcs -->
			<parents>clusterPredict </parents>
			<!-- setting probabilities -->
			<probabilities>0.0892598162696 0.91074018373 0.140899465619 0.859100534381 0.119541288418 0.880458711582 0.203673656775 0.796326343225 0.145974856897 0.854025143103 0.116805924181 0.883194075819 0.102392487546 0.897607512454 0.0814525042948 0.918547495705 </probabilities>
		</cpt>
		<!-- create node "song #85 Lost in the Supermarket" -->
		<cpt id="song_#85_Lost_in_the_Supermarket" >
			<!-- setting names of outcomes -->
			<state id="recommended" />
			<state id="notRecommended" />
			<!-- add arcs -->
			<parents>clusterPredict </parents>
			<!-- setting probabilities -->
			<probabilities>0.166775983808 0.833224016192 0.121344569708 0.878655430292 0.0923161963814 0.907683803619 0.117118936076 0.882881063924 0.109709452982 0.890290547018 0.194715545858 0.805284454142 0.101119120249 0.898880879751 0.0969001949373 0.903099805063 </probabilities>
		</cpt>
		<!-- create node "song #86The Man Comes Around" -->
		<cpt id="song_#86The_Man_Comes_Around" >
			<!-- setting names of outcomes -->
			<state id="recommended" />
			<state id="notRecommended" />
			<!-- add arcs -->
			<parents>clusterPredict </parents>
			<!-- setting probabilities -->
			<probabilities>0.0994771628166 0.900522837183 0.148202666485 0.851797333515 0.108289895075 0.891710104925 0.115522844539 0.884477155461 0.229062602892 0.770937397108 0.109182733565 0.890817266435 0.109056193078 0.890943806922 0.0812059015493 0.918794098451 </probabilities>
		</cpt>
		<!-- create node "song #87Morning Glory (LP Version)" -->
		<cpt id="song_#87Morning_Glory_(LP_Version)" >
			<!-- setting names of outcomes -->
			<state id="recommended" />
			<state id="notRecommended" />
			<!-- add arcs -->
			<parents>clusterPredict </parents>
			<!-- setting probabilities -->
			<probabilities>0.154383845887 0.845616154113 0.124317739342 0.875682260658 0.121401960741 0.878598039259 0.096932685254 0.903067314746 0.0902422147636 0.909757785236 0.103566700116 0.896433299884 0.170979133351 0.829020866649 0.138175720546 0.861824279454 </probabilities>
		</cpt>
		<!-- create node "song #88Teenage Shutdown (From 'Recharged From The Vaults')" -->
		<cpt id="song_#88Teenage_Shutdown_(From_'Recharged_From_The_Vaults')" >
			<!-- setting names of outcomes -->
			<state id="recommended" />
			<state id="notRecommended" />
			<!-- add arcs -->
			<parents>clusterPredict </parents>
			<!-- setting probabilities -->
			<probabilities>0.0859958952366 0.914004104763 0.121137700476 0.878862299524 0.155307375469 0.844692624531 0.115950813583 0.884049186417 0.229723380877 0.770276619123 0.116697866588 0.883302133412 0.0931538036641 0.906846196336 0.0820331641055 0.917966835894 </probabilities>
		</cpt>
		<!-- create node "song #89Genie In A Bottle" -->
		<cpt id="song_#89Genie_In_A_Bottle" >
			<!-- setting names of outcomes -->
			<state id="recommended" />
			<state id="notRecommended" />
			<!-- add arcs -->
			<parents>clusterPredict </parents>
			<!-- setting probabilities -->
			<probabilities>0.0945633371723 0.905436662828 0.159415566002 0.840584433998 0.104333116925 0.895666883075 0.120016615636 0.879983384364 0.233451098329 0.766548901671 0.104711411407 0.895288588593 0.108892854492 0.891107145508 0.0746160000373 0.925383999963 </probabilities>
		</cpt>
		<!-- create node "song #90Livin' On A Prayer" -->
		<cpt id="song_#90Livin'_On_A_Prayer" >
			<!-- setting names of outcomes -->
			<state id="recommended" />
			<state id="notRecommended" />
			<!-- add arcs -->
			<parents>clusterPredict </parents>
			<!-- setting probabilities -->
			<probabilities>0.094924765356 0.905075234644 0.129469926136 0.870530073864 0.0940661289222 0.905933871078 0.264630778791 0.735369221209 0.113191812454 0.886808187546 0.116732635086 0.883267364914 0.101791556778 0.898208443222 0.0851923964771 0.914807603523 </probabilities>
		</cpt>
		<!-- create node "song #91Teen Age Riot" -->
		<cpt id="song_#91Teen_Age_Riot" >
			<!-- setting names of outcomes -->
			<state id="recommended" />
			<state id="notRecommended" />
			<!-- add arcs -->
			<parents>clusterPredict </parents>
			<!-- setting probabilities -->
			<probabilities>0.108817835131 0.891182164869 0.1569767478 0.8430232522 0.0943333063 0.9056666937 0.108937639184 0.891062360816 0.16300684446 0.83699315554 0.0899686181231 0.910031381877 0.20394668455 0.79605331545 0.0740123244515 0.925987675548 </probabilities>
		</cpt>
		<!-- create node "song #92SHA-LA-LA (Make Me Happy)" -->
		<cpt id="song_#92SHA-LA-LA_(Make_Me_Happy)" >
			<!-- setting names of outcomes -->
			<state id="recommended" />
			<state id="notRecommended" />
			<!-- add arcs -->
			<parents>clusterPredict </parents>
			<!-- setting probabilities -->
			<probabilities>0.146154208825 0.853845791175 0.125982615891 0.874017384109 0.140695769159 0.859304230841 0.0991405741334 0.900859425867 0.0998449621921 0.900155037808 0.176105380417 0.823894619583 0.100355761242 0.899644238758 0.11172072814 0.88827927186 </probabilities>
		</cpt>
		<!-- create node "song #93For You And I" -->
		<cpt id="song_#93For_You_And_I" >
			<!-- setting names of outcomes -->
			<state id="recommended" />
			<state id="notRecommended" />
			<!-- add arcs -->
			<parents>clusterPredict </parents>
			<!-- setting probabilities -->
			<probabilities>0.0903629913359 0.909637008664 0.125488179501 0.874511820499 0.121500725885 0.878499274115 0.126214236872 0.873785763128 0.0851442278178 0.914855772182 0.0954872316104 0.90451276839 0.0940832126905 0.905916787309 0.261719194286 0.738280805714 </probabilities>
		</cpt>
		<!-- create node "song #94Love My Way" -->
		<cpt id="song_#94Love_My_Way" >
			<!-- setting names of outcomes -->
			<state id="recommended" />
			<state id="notRecommended" />
			<!-- add arcs -->
			<parents>clusterPredict </parents>
			<!-- setting probabilities -->
			<probabilities>0.130646243908 0.869353756092 0.125465328878 0.874534671122 0.099862590945 0.900137409055 0.124246945419 0.875753054581 0.104826873816 0.895173126184 0.241095307397 0.758904692603 0.0906854687865 0.909314531213 0.0831712408503 0.91682875915 </probabilities>
		</cpt>
		<!-- create node "song #95Just Like A Baby" -->
		<cpt id="song_#95Just_Like_A_Baby" >
			<!-- setting names of outcomes -->
			<state id="recommended" />
			<state id="notRecommended" />
			<!-- add arcs -->
			<parents>clusterPredict </parents>
			<!-- setting probabilities -->
			<probabilities>0.154532130986 0.845467869014 0.123816965643 0.876183034357 0.101032425305 0.898967574695 0.103488931725 0.896511068275 0.0873879621054 0.912612037895 0.0971685840752 0.902831415925 0.20377462019 0.79622537981 0.128798379971 0.871201620029 </probabilities>
		</cpt>
		<!-- create node "song #96" -->
		<cpt id="song_#96" >
			<!-- setting names of outcomes -->
			<state id="recommended" />
			<state id="notRecommended" />
			<!-- add arcs -->
			<parents>clusterPredict </parents>
			<!-- setting probabilities -->
			<probabilities>0.25354044275 0.74645955725 0.103094570021 0.896905429979 0.0948721495328 0.905127850467 0.0875095428818 0.912490457118 0.0928746174828 0.907125382517 0.145992379374 0.854007620626 0.112957471582 0.887042528418 0.109158826374 0.890841173626 </probabilities>
		</cpt>
		<!-- create node "song #97Baby Got Back" -->
		<cpt id="song_#97Baby_Got_Back" >
			<!-- setting names of outcomes -->
			<state id="recommended" />
			<state id="notRecommended" />
			<!-- add arcs -->
			<parents>clusterPredict </parents>
			<!-- setting probabilities -->
			<probabilities>0.0793941071467 0.920605892853 0.142489131399 0.857510868601 0.120293778277 0.879706221723 0.257425513669 0.742574486331 0.103420887855 0.896579112145 0.0931775214758 0.906822478524 0.0972528662099 0.90274713379 0.106546193968 0.893453806032 </probabilities>
		</cpt>
		<!-- create node "song #98TBD" -->
		<cpt id="song_#98TBD" >
			<!-- setting names of outcomes -->
			<state id="recommended" />
			<state id="notRecommended" />
			<!-- add arcs -->
			<parents>clusterPredict </parents>
			<!-- setting probabilities -->
			<probabilities>0.0813914454483 0.918608554552 0.102619863944 0.897380136056 0.23602057343 0.76397942657 0.13550817248 0.86449182752 0.112238741558 0.887761258442 0.108095359509 0.891904640491 0.0912443422161 0.908755657784 0.132881501414 0.867118498586 </probabilities>
		</cpt>
		<!-- create node "song #99Bay City Rollers _ Saturday Night" -->
		<cpt id="song_#99Bay_City_Rollers___Saturday_Night" >
			<!-- setting names of outcomes -->
			<state id="recommended" />
			<state id="notRecommended" />
			<!-- add arcs -->
			<parents>clusterPredict </parents>
			<!-- setting probabilities -->
			<probabilities>0.228227279928 0.771772720072 0.115835787625 0.884164212375 0.0939019668584 0.906098033142 0.0914213608749 0.908578639125 0.0988815923134 0.901118407687 0.186131032208 0.813868967792 0.110478726083 0.889521273917 0.0751222541106 0.924877745889 </probabilities>
		</cpt>
		<!-- create node "song #100Just Like Heaven" -->
		<cpt id="song_#100Just_Like_Heaven" >
			<!-- setting names of outcomes -->
			<state id="recommended" />
			<state id="notRecommended" />
			<!-- add arcs -->
			<parents>clusterPredict </parents>
			<!-- setting probabilities -->
			<probabilities>0.122004685384 0.877995314616 0.135342715052 0.864657284948 0.0908398069069 0.909160193093 0.101563535205 0.898436464795 0.124676905894 0.875323094106 0.0885437582398 0.91145624176 0.257466899277 0.742533100723 0.0795616940421 0.920438305958 </probabilities>
		</cpt>
		<!-- create node "song #101" -->
		<cpt id="song_#101" >
			<!-- setting names of outcomes -->
			<state id="recommended" />
			<state id="notRecommended" />
			<!-- add arcs -->
			<parents>clusterPredict </parents>
			<!-- setting probabilities -->
			<probabilities>0.0994423210027 0.900557678997 0.122816758234 0.877183241766 0.105953839082 0.894046160918 0.158134440102 0.841865559898 0.186741905567 0.813258094433 0.105964389114 0.894035610886 0.139290413494 0.860709586506 0.0816559334037 0.918344066596 </probabilities>
		</cpt>
		<!-- create node "song #102Melissa" -->
		<cpt id="song_#102Melissa" >
			<!-- setting names of outcomes -->
			<state id="recommended" />
			<state id="notRecommended" />
			<!-- add arcs -->
			<parents>clusterPredict </parents>
			<!-- setting probabilities -->
			<probabilities>0.16849635838 0.83150364162 0.126591671981 0.873408328019 0.0994885888343 0.900511411166 0.12378146598 0.87621853402 0.0860536945061 0.913946305494 0.163709563105 0.836290436895 0.104943502767 0.895056497233 0.126935154447 0.873064845553 </probabilities>
		</cpt>
		<!-- create node "song #103And She Was" -->
		<cpt id="song_#103And_She_Was" >
			<!-- setting names of outcomes -->
			<state id="recommended" />
			<state id="notRecommended" />
			<!-- add arcs -->
			<parents>clusterPredict </parents>
			<!-- setting probabilities -->
			<probabilities>0.103921558382 0.896078441618 0.113407314432 0.886592685568 0.0807445163827 0.919255483617 0.0847204293624 0.915279570638 0.0908863585948 0.909113641405 0.0730811997154 0.926918800285 0.38504993269 0.61495006731 0.0681886904413 0.931811309559 </probabilities>
		</cpt>
		<!-- create node "song #104Legend" -->
		<cpt id="song_#104Legend" >
			<!-- setting names of outcomes -->
			<state id="recommended" />
			<state id="notRecommended" />
			<!-- add arcs -->
			<parents>clusterPredict </parents>
			<!-- setting probabilities -->
			<probabilities>0.122580607342 0.877419392658 0.138256411573 0.861743588427 0.171119661856 0.828880338144 0.112081608151 0.887918391849 0.100709457814 0.899290542186 0.12715399452 0.87284600548 0.12497735283 0.87502264717 0.103120905914 0.896879094086 </probabilities>
		</cpt>
		<!-- create node "song #105Garden (Vocal Full Track)" -->
		<cpt id="song_#105Garden_(Vocal_Full_Track)" >
			<!-- setting names of outcomes -->
			<state id="recommended" />
			<state id="notRecommended" />
			<!-- add arcs -->
			<parents>clusterPredict </parents>
			<!-- setting probabilities -->
			<probabilities>0.0911927723969 0.908807227603 0.115282395491 0.884717604509 0.186537000084 0.813462999916 0.112051106488 0.887948893512 0.173060413693 0.826939586307 0.119351411633 0.880648588367 0.0953659962156 0.904634003784 0.107158903998 0.892841096002 </probabilities>
		</cpt>
		<!-- create node "song #106" -->
		<cpt id="song_#106" >
			<!-- setting names of outcomes -->
			<state id="recommended" />
			<state id="notRecommended" />
			<!-- add arcs -->
			<parents>clusterPredict </parents>
			<!-- setting probabilities -->
			<probabilities>0.115051722219 0.884948277781 0.105653043664 0.894346956336 0.147368392017 0.852631607983 0.121407885114 0.878592114886 0.0945162139937 0.905483786006 0.192222028133 0.807777971867 0.0901738858404 0.90982611416 0.13360682902 0.86639317098 </probabilities>
		</cpt>
		<!-- create node "song #107" -->
		<cpt id="song_#107" >
			<!-- setting names of outcomes -->
			<state id="recommended" />
			<state id="notRecommended" />
			<!-- add arcs -->
			<parents>clusterPredict </parents>
			<!-- setting probabilities -->
			<probabilities>0.115589128458 0.884410871542 0.179690381255 0.820309618745 0.103531133731 0.896468866269 0.11232666776 0.88767333224 0.0989889377276 0.901011062272 0.0905032698943 0.909496730106 0.218610528359 0.781389471641 0.080759952815 0.919240047185 </probabilities>
		</cpt>
		<!-- create node "song #108" -->
		<cpt id="song_#108" >
			<!-- setting names of outcomes -->
			<state id="recommended" />
			<state id="notRecommended" />
			<!-- add arcs -->
			<parents>clusterPredict </parents>
			<!-- setting probabilities -->
			<probabilities>0.0972613854418 0.902738614558 0.221549089421 0.778450910579 0.120573090478 0.879426909522 0.143082807502 0.856917192498 0.115580937784 0.884419062216 0.108387318354 0.891612681646 0.110141698779 0.889858301221 0.0834236722409 0.916576327759 </probabilities>
		</cpt>
		<!-- create node "song #109Big Me" -->
		<cpt id="song_#109Big_Me" >
			<!-- setting names of outcomes -->
			<state id="recommended" />
			<state id="notRecommended" />
			<!-- add arcs -->
			<parents>clusterPredict </parents>
			<!-- setting probabilities -->
			<probabilities>0.118835917789 0.881164082211 0.22589622259 0.77410377741 0.104452892024 0.895547107976 0.128548123003 0.871451876997 0.0979768803315 0.902023119668 0.114825280014 0.885174719986 0.111834908311 0.888165091689 0.0976297759366 0.902370224063 </probabilities>
		</cpt>
		<!-- create node "song #110Bound To Fall" -->
		<cpt id="song_#110Bound_To_Fall" >
			<!-- setting names of outcomes -->
			<state id="recommended" />
			<state id="notRecommended" />
			<!-- add arcs -->
			<parents>clusterPredict </parents>
			<!-- setting probabilities -->
			<probabilities>0.105219952998 0.894780047002 0.136008217432 0.863991782568 0.211704854107 0.788295145893 0.104136050612 0.895863949388 0.0978099990632 0.902190000937 0.131229190422 0.868770809578 0.0951031780764 0.904896821924 0.11878855729 0.88121144271 </probabilities>
		</cpt>
		<!-- create node "song #111Goodbye on a beautiful day" -->
		<cpt id="song_#111Goodbye_on_a_beautiful_day" >
			<!-- setting names of outcomes -->
			<state id="recommended" />
			<state id="notRecommended" />
			<!-- add arcs -->
			<parents>clusterPredict </parents>
			<!-- setting probabilities -->
			<probabilities>0.0767621395403 0.92323786046 0.105156291212 0.894843708788 0.254327181548 0.745672818452 0.147684540062 0.852315459938 0.107443705061 0.892556294939 0.107987927997 0.892012072003 0.0850953020824 0.914904697918 0.115542912498 0.884457087502 </probabilities>
		</cpt>
		<!-- create node "song #112WHAT'S THE UGLIEST PART OF YOUR BODY?" -->
		<cpt id="song_#112WHAT'S_THE_UGLIEST_PART_OF_YOUR_BODY?" >
			<!-- setting names of outcomes -->
			<state id="recommended" />
			<state id="notRecommended" />
			<!-- add arcs -->
			<parents>clusterPredict </parents>
			<!-- setting probabilities -->
			<probabilities>0.0879150523519 0.912084947648 0.186226844045 0.813773155955 0.140961035411 0.859038964589 0.138093350253 0.861906649747 0.0996490295202 0.90035097048 0.082422794299 0.917577205701 0.156197559985 0.843802440015 0.108534334136 0.891465665864 </probabilities>
		</cpt>
		<!-- create node "song #113" -->
		<cpt id="song_#113" >
			<!-- setting names of outcomes -->
			<state id="recommended" />
			<state id="notRecommended" />
			<!-- add arcs -->
			<parents>clusterPredict </parents>
			<!-- setting probabilities -->
			<probabilities>0.102392018945 0.897607981055 0.110462979257 0.889537020743 0.184761093466 0.815238906534 0.128563361486 0.871436638514 0.108815053985 0.891184946015 0.110533050401 0.889466949599 0.130318720799 0.869681279201 0.124153721663 0.875846278337 </probabilities>
		</cpt>
		<!-- create node "song #114Had To Cry Today" -->
		<cpt id="song_#114Had_To_Cry_Today" >
			<!-- setting names of outcomes -->
			<state id="recommended" />
			<state id="notRecommended" />
			<!-- add arcs -->
			<parents>clusterPredict </parents>
			<!-- setting probabilities -->
			<probabilities>0.156659637476 0.843340362524 0.109525792755 0.890474207245 0.0966993704447 0.903300629555 0.107262217713 0.892737782287 0.115140051048 0.884859948952 0.223035363272 0.776964636728 0.0956364116014 0.904363588399 0.0960411556904 0.90395884431 </probabilities>
		</cpt>
		<!-- create node "song #115I'm Ready" -->
		<cpt id="song_#115I'm_Ready" >
			<!-- setting names of outcomes -->
			<state id="recommended" />
			<state id="notRecommended" />
			<!-- add arcs -->
			<parents>clusterPredict </parents>
			<!-- setting probabilities -->
			<probabilities>0.0810484743081 0.918951525692 0.120841236287 0.879158763713 0.110294922079 0.889705077921 0.268404056693 0.731595943307 0.107671056511 0.892328943489 0.0947765607043 0.905223439296 0.0987127810663 0.901287218934 0.118250912352 0.881749087648 </probabilities>
		</cpt>
		<!-- create node "song #116Deuce" -->
		<cpt id="song_#116Deuce" >
			<!-- setting names of outcomes -->
			<state id="recommended" />
			<state id="notRecommended" />
			<!-- add arcs -->
			<parents>clusterPredict </parents>
			<!-- setting probabilities -->
			<probabilities>0.330699472957 0.669300527043 0.106911959026 0.893088040974 0.0763228004283 0.923677199572 0.0841020118472 0.915897988153 0.0810809054245 0.918919094576 0.141948241835 0.858051758165 0.10623771306 0.89376228694 0.072696895423 0.927303104577 </probabilities>
		</cpt>
		<!-- create node "song #117ALICE'S RESTAURANT MASSACREE (Live)/(CONTENT!)" -->
		<cpt id="song_#117ALICE'S_RESTAURANT_MASSACREE_(Live)/(CONTENT!)" >
			<!-- setting names of outcomes -->
			<state id="recommended" />
			<state id="notRecommended" />
			<!-- add arcs -->
			<parents>clusterPredict </parents>
			<!-- setting probabilities -->
			<probabilities>0.117037341563 0.882962658437 0.124588596143 0.875411403857 0.136234218479 0.863765781521 0.110812637774 0.889187362226 0.153380626713 0.846619373287 0.130135412851 0.869864587149 0.114358907563 0.885641092437 0.113452258915 0.886547741085 </probabilities>
		</cpt>
		<!-- create node "song #118Billie Jean" -->
		<cpt id="song_#118Billie_Jean" >
			<!-- setting names of outcomes -->
			<state id="recommended" />
			<state id="notRecommended" />
			<!-- add arcs -->
			<parents>clusterPredict </parents>
			<!-- setting probabilities -->
			<probabilities>0.0943697021026 0.905630297897 0.219107488493 0.780892511507 0.105321200275 0.894678799725 0.157714007231 0.842285992769 0.129392867053 0.870607132947 0.102963448988 0.897036551012 0.115113900442 0.884886099558 0.076017385415 0.923982614585 </probabilities>
		</cpt>
		<!-- create node "song #119Let's Make Love (Album Version)" -->
		<cpt id="song_#119Let's_Make_Love_(Album_Version)" >
			<!-- setting names of outcomes -->
			<state id="recommended" />
			<state id="notRecommended" />
			<!-- add arcs -->
			<parents>clusterPredict </parents>
			<!-- setting probabilities -->
			<probabilities>0.097535602735 0.902464397265 0.12107537933 0.87892462067 0.209322419012 0.790677580988 0.126255601153 0.873744398847 0.0954687069036 0.904531293096 0.135806591432 0.864193408568 0.092773695836 0.907226304164 0.121762003598 0.878237996402 </probabilities>
		</cpt>
		<!-- create node "song #120Quiet Nights Of Quiet Stars (Corcovado)" -->
		<cpt id="song_#120Quiet_Nights_Of_Quiet_Stars_(Corcovado)" >
			<!-- setting names of outcomes -->
			<state id="recommended" />
			<state id="notRecommended" />
			<!-- add arcs -->
			<parents>clusterPredict </parents>
			<!-- setting probabilities -->
			<probabilities>0.094165484983 0.905834515017 0.116421868232 0.883578131768 0.138757477681 0.861242522319 0.141893258897 0.858106741103 0.0982226552509 0.901777344749 0.0943646183839 0.905635381616 0.123623875654 0.876376124346 0.192550760918 0.807449239082 </probabilities>
		</cpt>
		<!-- create node "song #121$1000 WEDDING" -->
		<cpt id="song_#121$1000_WEDDING" >
			<!-- setting names of outcomes -->
			<state id="recommended" />
			<state id="notRecommended" />
			<!-- add arcs -->
			<parents>clusterPredict </parents>
			<!-- setting probabilities -->
			<probabilities>0.120256991307 0.879743008693 0.181656737657 0.818343262343 0.126767667811 0.873232332189 0.109539391194 0.890460608806 0.0987885127624 0.901211487238 0.104081496393 0.895918503607 0.126041595229 0.873958404771 0.132867607646 0.867132392354 </probabilities>
		</cpt>
		<!-- create node "song #122Where You'll Find Me Now" -->
		<cpt id="song_#122Where_You'll_Find_Me_Now" >
			<!-- setting names of outcomes -->
			<state id="recommended" />
			<state id="notRecommended" />
			<!-- add arcs -->
			<parents>clusterPredict </parents>
			<!-- setting probabilities -->
			<probabilities>0.0939248275507 0.906075172449 0.181617780721 0.818382219279 0.113279183305 0.886720816695 0.16964753035 0.83035246965 0.0972991045427 0.902700895457 0.0995930843032 0.900406915697 0.103357002613 0.896642997387 0.141281486614 0.858718513386 </probabilities>
		</cpt>
		<!-- create node "song #123Country Grammar (Hot...)" -->
		<cpt id="song_#123Country_Grammar_(Hot...)" >
			<!-- setting names of outcomes -->
			<state id="recommended" />
			<state id="notRecommended" />
			<!-- add arcs -->
			<parents>clusterPredict </parents>
			<!-- setting probabilities -->
			<probabilities>0.0906354555692 0.909364544431 0.171741429323 0.828258570677 0.109029099068 0.890970900932 0.11373672044 0.88626327956 0.234101155392 0.765898844608 0.0995029789555 0.900497021044 0.111415819385 0.888584180615 0.069837341867 0.930162658133 </probabilities>
		</cpt>
		<!-- create node "song #124My Fault" -->
		<cpt id="song_#124My_Fault" >
			<!-- setting names of outcomes -->
			<state id="recommended" />
			<state id="notRecommended" />
			<!-- add arcs -->
			<parents>clusterPredict </parents>
			<!-- setting probabilities -->
			<probabilities>0.0873732161982 0.912626783802 0.14063937337 0.85936062663 0.126689184796 0.873310815204 0.134442758414 0.865557241586 0.208288396664 0.791711603336 0.0955454642674 0.904454535733 0.114632253542 0.885367746458 0.092389352748 0.907610647252 </probabilities>
		</cpt>
		<!-- create node "song #125Travelin' Band" -->
		<cpt id="song_#125Travelin'_Band" >
			<!-- setting names of outcomes -->
			<state id="recommended" />
			<state id="notRecommended" />
			<!-- add arcs -->
			<parents>clusterPredict </parents>
			<!-- setting probabilities -->
			<probabilities>0.0815407175965 0.918459282404 0.142420890793 0.857579109207 0.10177177237 0.89822822763 0.154494394284 0.845505605716 0.247128542723 0.752871457277 0.100135671007 0.899864328993 0.0941278137927 0.905872186207 0.0783801974334 0.921619802567 </probabilities>
		</cpt>
		<!-- create node "song #126Spanish Banks" -->
		<cpt id="song_#126Spanish_Banks" >
			<!-- setting names of outcomes -->
			<state id="recommended" />
			<state id="notRecommended" />
			<!-- add arcs -->
			<parents>clusterPredict </parents>
			<!-- setting probabilities -->
			<probabilities>0.0862031564082 0.913796843592 0.121980498778 0.878019501222 0.262411329734 0.737588670266 0.100616025215 0.899383974785 0.11372788096 0.88627211904 0.105355287441 0.894644712559 0.0903628057665 0.909637194233 0.119343015697 0.880656984303 </probabilities>
		</cpt>
		<!-- create node "song #127Behind Closed Doors" -->
		<cpt id="song_#127Behind_Closed_Doors" >
			<!-- setting names of outcomes -->
			<state id="recommended" />
			<state id="notRecommended" />
			<!-- add arcs -->
			<parents>clusterPredict </parents>
			<!-- setting probabilities -->
			<probabilities>0.114667739794 0.885332260206 0.195027675116 0.804972324884 0.119232589574 0.880767410426 0.11226510568 0.88773489432 0.0934747911509 0.906525208849 0.0968417457823 0.903158254218 0.12948738599 0.87051261401 0.139002966913 0.860997033087 </probabilities>
		</cpt>
		<!-- create node "song #128Pressure" -->
		<cpt id="song_#128Pressure" >
			<!-- setting names of outcomes -->
			<state id="recommended" />
			<state id="notRecommended" />
			<!-- add arcs -->
			<parents>clusterPredict </parents>
			<!-- setting probabilities -->
			<probabilities>0.0930940482663 0.906905951734 0.115181688027 0.884818311973 0.237336703089 0.762663296911 0.112493648409 0.887506351591 0.122009367862 0.877990632138 0.105207953233 0.894792046767 0.122850764373 0.877149235627 0.0918258267401 0.90817417326 </probabilities>
		</cpt>
		<!-- create node "song #129James Taylor-Greatest Hits-03-Fire and Rain" -->
		<cpt id="song_#129James_Taylor-Greatest_Hits-03-Fire_and_Rain" >
			<!-- setting names of outcomes -->
			<state id="recommended" />
			<state id="notRecommended" />
			<!-- add arcs -->
			<parents>clusterPredict </parents>
			<!-- setting probabilities -->
			<probabilities>0.108446583596 0.891553416404 0.162033474722 0.837966525278 0.110236584308 0.889763415692 0.130372654451 0.869627345549 0.137417027023 0.862582972977 0.10687176831 0.89312823169 0.115825880899 0.884174119101 0.128796026691 0.871203973309 </probabilities>
		</cpt>
		<!-- create node "song #130Glowworm" -->
		<cpt id="song_#130Glowworm" >
			<!-- setting names of outcomes -->
			<state id="recommended" />
			<state id="notRecommended" />
			<!-- add arcs -->
			<parents>clusterPredict </parents>
			<!-- setting probabilities -->
			<probabilities>0.164836481276 0.835163518724 0.111027020969 0.888972979031 0.093952850137 0.906047149863 0.0897898881923 0.910210111808 0.0878890742445 0.912110925756 0.287697242734 0.712302757266 0.0843779131559 0.915622086844 0.080429529291 0.919570470709 </probabilities>
		</cpt>
		<!-- create node "song #131Lovefool" -->
		<cpt id="song_#131Lovefool" >
			<!-- setting names of outcomes -->
			<state id="recommended" />
			<state id="notRecommended" />
			<!-- add arcs -->
			<parents>clusterPredict </parents>
			<!-- setting probabilities -->
			<probabilities>0.0865212147128 0.913478785287 0.282661244894 0.717338755106 0.0952905961719 0.904709403828 0.151552776127 0.848447223873 0.108772153839 0.891227846161 0.0884918580563 0.911508141944 0.11573536922 0.88426463078 0.0709747869799 0.92902521302 </probabilities>
		</cpt>
		<!-- create node "song #132Yedi tekrar" -->
		<cpt id="song_#132Yedi_tekrar" >
			<!-- setting names of outcomes -->
			<state id="recommended" />
			<state id="notRecommended" />
			<!-- add arcs -->
			<parents>clusterPredict </parents>
			<!-- setting probabilities -->
			<probabilities>0.118081093822 0.881918906178 0.102268843929 0.897731156071 0.135420805867 0.864579194133 0.11489795947 0.88510204053 0.126280658907 0.873719341093 0.185096797891 0.814903202109 0.0948159464028 0.905184053597 0.123137893712 0.876862106288 </probabilities>
		</cpt>
		<!-- create node "song #133 All Mine" -->
		<cpt id="song_#133_All_Mine" >
			<!-- setting names of outcomes -->
			<state id="recommended" />
			<state id="notRecommended" />
			<!-- add arcs -->
			<parents>clusterPredict </parents>
			<!-- setting probabilities -->
			<probabilities>0.137591605196 0.862408394804 0.135800089962 0.864199910038 0.114670477548 0.885329522452 0.139562561134 0.860437438866 0.101934434993 0.898065565007 0.155458586586 0.844541413414 0.115792598069 0.884207401931 0.0991896465113 0.900810353489 </probabilities>
		</cpt>
		<!-- create node "song #134Rocket" -->
		<cpt id="song_#134Rocket" >
			<!-- setting names of outcomes -->
			<state id="recommended" />
			<state id="notRecommended" />
			<!-- add arcs -->
			<parents>clusterPredict </parents>
			<!-- setting probabilities -->
			<probabilities>0.0910292787464 0.908970721254 0.246334801444 0.753665198556 0.111545065741 0.888454934259 0.156080682797 0.843919317203 0.0945075420329 0.905492457967 0.0967579167909 0.903242083209 0.102414092531 0.897585907469 0.101330619917 0.898669380083 </probabilities>
		</cpt>
		<!-- create node "song #135I Love My Leather Jacket" -->
		<cpt id="song_#135I_Love_My_Leather_Jacket" >
			<!-- setting names of outcomes -->
			<state id="recommended" />
			<state id="notRecommended" />
			<!-- add arcs -->
			<parents>clusterPredict </parents>
			<!-- setting probabilities -->
			<probabilities>0.0785053446082 0.921494655392 0.123587837955 0.876412162045 0.15938429065 0.84061570935 0.199081550993 0.800918449007 0.149147271108 0.850852728892 0.117394189043 0.882605810957 0.0877749702996 0.9122250297 0.0851245453439 0.914875454656 </probabilities>
		</cpt>
		<!-- create node "song #136Sometimes In Winter" -->
		<cpt id="song_#136Sometimes_In_Winter" >
			<!-- setting names of outcomes -->
			<state id="recommended" />
			<state id="notRecommended" />
			<!-- add arcs -->
			<parents>clusterPredict </parents>
			<!-- setting probabilities -->
			<probabilities>0.152715785387 0.847284214613 0.111952169788 0.888047830212 0.104810734762 0.895189265238 0.109370499939 0.890629500061 0.0943990101153 0.905600989885 0.181276615552 0.818723384448 0.0944892699048 0.905510730095 0.150985914552 0.849014085448 </probabilities>
		</cpt>
		<!-- create node "song #137" -->
		<cpt id="song_#137" >
			<!-- setting names of outcomes -->
			<state id="recommended" />
			<state id="notRecommended" />
			<!-- add arcs -->
			<parents>clusterPredict </parents>
			<!-- setting probabilities -->
			<probabilities>0.0718465027397 0.92815349726 0.180097910691 0.819902089309 0.105499601296 0.894500398704 0.275571443872 0.724428556128 0.111118474084 0.888881525916 0.0889093193326 0.911090680667 0.0859257391486 0.914074260851 0.0810310088365 0.918968991164 </probabilities>
		</cpt>
		<!-- create node "song #138Black Hole Sun" -->
		<cpt id="song_#138Black_Hole_Sun" >
			<!-- setting names of outcomes -->
			<state id="recommended" />
			<state id="notRecommended" />
			<!-- add arcs -->
			<parents>clusterPredict </parents>
			<!-- setting probabilities -->
			<probabilities>0.0880285044483 0.911971495552 0.273656075711 0.726343924289 0.0955466793237 0.904453320676 0.159351043971 0.840648956029 0.104951340286 0.895048659714 0.0902136352564 0.909786364744 0.113116751587 0.886883248413 0.0751359694169 0.924864030583 </probabilities>
		</cpt>
		<!-- create node "song #139Perhaps, Perhaps, Perhaps" -->
		<cpt id="song_#139Perhaps,_Perhaps,_Perhaps" >
			<!-- setting names of outcomes -->
			<state id="recommended" />
			<state id="notRecommended" />
			<!-- add arcs -->
			<parents>clusterPredict </parents>
			<!-- setting probabilities -->
			<probabilities>0.15662807937 0.84337192063 0.143760781326 0.856239218674 0.100573572785 0.899426427215 0.113535704715 0.886464295285 0.099057143264 0.900942856736 0.198891948792 0.801108051208 0.0978053760429 0.902194623957 0.0897473937052 0.910252606295 </probabilities>
		</cpt>
		<!-- create node "song #140Cumbanchero" -->
		<cpt id="song_#140Cumbanchero" >
			<!-- setting names of outcomes -->
			<state id="recommended" />
			<state id="notRecommended" />
			<!-- add arcs -->
			<parents>clusterPredict </parents>
			<!-- setting probabilities -->
			<probabilities>0.109942706843 0.890057293157 0.190216535041 0.809783464959 0.146482469224 0.853517530776 0.0988282880745 0.901171711926 0.129333206918 0.870666793082 0.102856592461 0.897143407539 0.128990203656 0.871009796344 0.0933499977829 0.906650002217 </probabilities>
		</cpt>
		<!-- create node "song #141I Think We're Alone Now" -->
		<cpt id="song_#141I_Think_We're_Alone_Now" >
			<!-- setting names of outcomes -->
			<state id="recommended" />
			<state id="notRecommended" />
			<!-- add arcs -->
			<parents>clusterPredict </parents>
			<!-- setting probabilities -->
			<probabilities>0.138942158441 0.861057841559 0.100867939612 0.899132060388 0.103056224294 0.896943775706 0.126193272566 0.873806727434 0.0999586964447 0.900041303555 0.239947029326 0.760052970674 0.0980630381402 0.90193696186 0.0929716411768 0.907028358823 </probabilities>
		</cpt>
		<!-- create node "song #142I'm Crying" -->
		<cpt id="song_#142I'm_Crying" >
			<!-- setting names of outcomes -->
			<state id="recommended" />
			<state id="notRecommended" />
			<!-- add arcs -->
			<parents>clusterPredict </parents>
			<!-- setting probabilities -->
			<probabilities>0.0838533619578 0.916146638042 0.37553623682 0.62446376318 0.10019059416 0.89980940584 0.0938853220791 0.906114677921 0.0912356372897 0.90876436271 0.0789116766925 0.921088323308 0.103927652117 0.896072347883 0.0724595188839 0.927540481116 </probabilities>
		</cpt>
		<!-- create node "song #143Semi-charmed Life" -->
		<cpt id="song_#143Semi-charmed_Life" >
			<!-- setting names of outcomes -->
			<state id="recommended" />
			<state id="notRecommended" />
			<!-- add arcs -->
			<parents>clusterPredict </parents>
			<!-- setting probabilities -->
			<probabilities>0.0819226502249 0.918077349775 0.15965117093 0.84034882907 0.111391107501 0.888608892499 0.256294695802 0.743705304198 0.11064803403 0.88935196597 0.103638412209 0.896361587791 0.0939723950642 0.906027604936 0.0824815342393 0.917518465761 </probabilities>
		</cpt>
		<!-- create node "song #144Crime for a Crime" -->
		<cpt id="song_#144Crime_for_a_Crime" >
			<!-- setting names of outcomes -->
			<state id="recommended" />
			<state id="notRecommended" />
			<!-- add arcs -->
			<parents>clusterPredict </parents>
			<!-- setting probabilities -->
			<probabilities>0.1068863553 0.8931136447 0.118810757167 0.881189242833 0.187071549673 0.812928450327 0.0996665670804 0.90033343292 0.142035032329 0.857964967671 0.107122192664 0.892877807336 0.133172409108 0.866827590892 0.105235136679 0.894764863321 </probabilities>
		</cpt>
		<!-- create node "song #145Song For Bob Dylan (1999 Digital Remaster)" -->
		<cpt id="song_#145Song_For_Bob_Dylan_(1999_Digital_Remaster)" >
			<!-- setting names of outcomes -->
			<state id="recommended" />
			<state id="notRecommended" />
			<!-- add arcs -->
			<parents>clusterPredict </parents>
			<!-- setting probabilities -->
			<probabilities>0.141285779151 0.858714220849 0.10648125264 0.89351874736 0.14233887434 0.85766112566 0.0945262315951 0.905473768405 0.103898643351 0.896101356649 0.215875981607 0.784124018393 0.0956539687756 0.904346031224 0.0999392685394 0.900060731461 </probabilities>
		</cpt>
		<!-- create node "song #146I Would Hurt A Fly (Live) (Album Version)" -->
		<cpt id="song_#146I_Would_Hurt_A_Fly_(Live)_(Album_Version)" >
			<!-- setting names of outcomes -->
			<state id="recommended" />
			<state id="notRecommended" />
			<!-- add arcs -->
			<parents>clusterPredict </parents>
			<!-- setting probabilities -->
			<probabilities>0.087789456254 0.912210543746 0.145665711892 0.854334288108 0.211529719113 0.788470280887 0.114248887265 0.885751112735 0.14441160032 0.85558839968 0.115473336062 0.884526663938 0.095276131909 0.904723868091 0.0856051571852 0.914394842815 </probabilities>
		</cpt>
		<!-- create node "song #147Barely Breathing" -->
		<cpt id="song_#147Barely_Breathing" >
			<!-- setting names of outcomes -->
			<state id="recommended" />
			<state id="notRecommended" />
			<!-- add arcs -->
			<parents>clusterPredict </parents>
			<!-- setting probabilities -->
			<probabilities>0.080070292144 0.919929707856 0.241361403015 0.758638596985 0.128612592252 0.871387407748 0.136382440101 0.863617559899 0.140355107918 0.859644892082 0.089267337156 0.910732662844 0.103755633385 0.896244366615 0.0801951940294 0.919804805971 </probabilities>
		</cpt>
		<!-- create node "song #148Since I Lost My Baby -Single Version (Mono)" -->
		<cpt id="song_#148Since_I_Lost_My_Baby_-Single_Version_(Mono)" >
			<!-- setting names of outcomes -->
			<state id="recommended" />
			<state id="notRecommended" />
			<!-- add arcs -->
			<parents>clusterPredict </parents>
			<!-- setting probabilities -->
			<probabilities>0.085872665462 0.914127334538 0.125778218968 0.874221781032 0.279370615086 0.720629384914 0.113902400934 0.886097599066 0.0954432180512 0.904556781949 0.0986358192209 0.901364180779 0.106848084776 0.893151915224 0.0941489775019 0.905851022498 </probabilities>
		</cpt>
		<!-- create node "song #149" -->
		<cpt id="song_#149" >
			<!-- setting names of outcomes -->
			<state id="recommended" />
			<state id="notRecommended" />
			<!-- add arcs -->
			<parents>clusterPredict </parents>
			<!-- setting probabilities -->
			<probabilities>0.119192673962 0.880807326038 0.169424881578 0.830575118422 0.104480551398 0.895519448602 0.116137498618 0.883862501382 0.0925562017003 0.9074437983 0.0908534084128 0.909146591587 0.216157343175 0.783842656825 0.0911974411547 0.908802558845 </probabilities>
		</cpt>
		<!-- create node "song #150Don't Believe A Word" -->
		<cpt id="song_#150Don't_Believe_A_Word" >
			<!-- setting names of outcomes -->
			<state id="recommended" />
			<state id="notRecommended" />
			<!-- add arcs -->
			<parents>clusterPredict </parents>
			<!-- setting probabilities -->
			<probabilities>0.102267621612 0.897732378388 0.121397160537 0.878602839463 0.113849391543 0.886150608457 0.161550321593 0.838449678407 0.143192605591 0.856807394409 0.102704013911 0.897295986089 0.166642395565 0.833357604435 0.0883964896485 0.911603510352 </probabilities>
		</cpt>
		<!-- create node "song #151When You Sleep" -->
		<cpt id="song_#151When_You_Sleep" >
			<!-- setting names of outcomes -->
			<state id="recommended" />
			<state id="notRecommended" />
			<!-- add arcs -->
			<parents>clusterPredict </parents>
			<!-- setting probabilities -->
			<probabilities>0.105249655445 0.894750344555 0.1796012058 0.8203987942 0.0865678933639 0.913432106636 0.105841503893 0.894158496107 0.107735346916 0.892264653084 0.0794709433285 0.920529056672 0.259298986118 0.740701013882 0.0762344651358 0.923765534864 </probabilities>
		</cpt>
		<!-- create node "song #152Thank U" -->
		<cpt id="song_#152Thank_U" >
			<!-- setting names of outcomes -->
			<state id="recommended" />
			<state id="notRecommended" />
			<!-- add arcs -->
			<parents>clusterPredict </parents>
			<!-- setting probabilities -->
			<probabilities>0.100638520707 0.899361479293 0.222297667047 0.777702332953 0.125260528121 0.874739471879 0.121609378322 0.878390621678 0.113966227041 0.886033772959 0.0982722188067 0.901727781193 0.122124126508 0.877875873492 0.0958313334482 0.904168666552 </probabilities>
		</cpt>
		<!-- create node "song #153Lazy Sunday - Original" -->
		<cpt id="song_#153Lazy_Sunday_-_Original" >
			<!-- setting names of outcomes -->
			<state id="recommended" />
			<state id="notRecommended" />
			<!-- add arcs -->
			<parents>clusterPredict </parents>
			<!-- setting probabilities -->
			<probabilities>0.198312064063 0.801687935937 0.117095478449 0.882904521551 0.113339406972 0.886660593028 0.0896048905116 0.910395109488 0.0971980365541 0.902801963446 0.160647881292 0.839352118708 0.105889500855 0.894110499145 0.117912741304 0.882087258696 </probabilities>
		</cpt>
		<!-- create node "song #154One Last Love Song" -->
		<cpt id="song_#154One_Last_Love_Song" >
			<!-- setting names of outcomes -->
			<state id="recommended" />
			<state id="notRecommended" />
			<!-- add arcs -->
			<parents>clusterPredict </parents>
			<!-- setting probabilities -->
			<probabilities>0.155680604185 0.844319395815 0.132643252028 0.867356747972 0.109527467668 0.890472532332 0.0941252871254 0.905874712875 0.133171900927 0.866828099073 0.109112519514 0.890887480486 0.167364417034 0.832635582966 0.0983745515176 0.901625448482 </probabilities>
		</cpt>
		<!-- create node "song #155" -->
		<cpt id="song_#155" >
			<!-- setting names of outcomes -->
			<state id="recommended" />
			<state id="notRecommended" />
			<!-- add arcs -->
			<parents>clusterPredict </parents>
			<!-- setting probabilities -->
			<probabilities>0.0936707237623 0.906329276238 0.13552830063 0.86447169937 0.113113926473 0.886886073527 0.111590693164 0.888409306836 0.256437077559 0.743562922441 0.109060332932 0.890939667068 0.102278543639 0.897721456361 0.07832040184 0.92167959816 </probabilities>
		</cpt>
		<!-- create node "song #156Sweet Thang" -->
		<cpt id="song_#156Sweet_Thang" >
			<!-- setting names of outcomes -->
			<state id="recommended" />
			<state id="notRecommended" />
			<!-- add arcs -->
			<parents>clusterPredict </parents>
			<!-- setting probabilities -->
			<probabilities>0.0974776617245 0.902522338276 0.202210826923 0.797789173077 0.134164113611 0.865835886389 0.112528579956 0.887471420044 0.140045790739 0.859954209261 0.103982989688 0.896017010312 0.105586059418 0.894413940582 0.104003977941 0.895996022059 </probabilities>
		</cpt>
		<!-- create node "song #157Caravan" -->
		<cpt id="song_#157Caravan" >
			<!-- setting names of outcomes -->
			<state id="recommended" />
			<state id="notRecommended" />
			<!-- add arcs -->
			<parents>clusterPredict </parents>
			<!-- setting probabilities -->
			<probabilities>0.0992402936919 0.900759706308 0.134228098732 0.865771901268 0.184176126005 0.815823873995 0.104321098971 0.895678901029 0.0987603795801 0.90123962042 0.106258178299 0.893741821701 0.100429464009 0.899570535991 0.172586360711 0.827413639289 </probabilities>
		</cpt>
		<!-- create node "song #158Under the Milky Way" -->
		<cpt id="song_#158Under_the_Milky_Way" >
			<!-- setting names of outcomes -->
			<state id="recommended" />
			<state id="notRecommended" />
			<!-- add arcs -->
			<parents>clusterPredict </parents>
			<!-- setting probabilities -->
			<probabilities>0.0901570043497 0.90984299565 0.124829834085 0.875170165915 0.104142792112 0.895857207888 0.229364052177 0.770635947823 0.13266995335 0.86733004665 0.0969836299539 0.903016370046 0.126281248059 0.873718751941 0.0955714859128 0.904428514087 </probabilities>
		</cpt>
		<!-- create node "song #159" -->
		<cpt id="song_#159" >
			<!-- setting names of outcomes -->
			<state id="recommended" />
			<state id="notRecommended" />
			<!-- add arcs -->
			<parents>clusterPredict </parents>
			<!-- setting probabilities -->
			<probabilities>0.0856835096209 0.914316490379 0.114138886014 0.885861113986 0.209641980656 0.790358019344 0.139845425417 0.860154574583 0.101677403112 0.898322596888 0.0987196690341 0.901280330966 0.105952439303 0.894047560697 0.144340686843 0.855659313157 </probabilities>
		</cpt>
		<!-- create node "song #160Day After Day" -->
		<cpt id="song_#160Day_After_Day" >
			<!-- setting names of outcomes -->
			<state id="recommended" />
			<state id="notRecommended" />
			<!-- add arcs -->
			<parents>clusterPredict </parents>
			<!-- setting probabilities -->
			<probabilities>0.0835071036904 0.91649289631 0.195628825917 0.804371174083 0.155719590654 0.844280409346 0.126634604802 0.873365395198 0.148146978607 0.851853021393 0.0995250948262 0.900474905174 0.0973096422332 0.902690357767 0.0935281592702 0.90647184073 </probabilities>
		</cpt>
		<!-- create node "song #161" -->
		<cpt id="song_#161" >
			<!-- setting names of outcomes -->
			<state id="recommended" />
			<state id="notRecommended" />
			<!-- add arcs -->
			<parents>clusterPredict </parents>
			<!-- setting probabilities -->
			<probabilities>0.159145910364 0.840854089636 0.126824077689 0.873175922311 0.105048088526 0.894951911474 0.0999193275088 0.900080672491 0.0890215197721 0.910978480228 0.0988587292652 0.901141270735 0.194620596329 0.805379403671 0.126561750546 0.873438249454 </probabilities>
		</cpt>
		<!-- create node "song #162ANEURYSM (Live)/(LYRICS!) *SAFE HARBOR*" -->
		<cpt id="song_#162ANEURYSM_(Live)/(LYRICS!)_*SAFE_HARBOR*" >
			<!-- setting names of outcomes -->
			<state id="recommended" />
			<state id="notRecommended" />
			<!-- add arcs -->
			<parents>clusterPredict </parents>
			<!-- setting probabilities -->
			<probabilities>0.103634247639 0.896365752361 0.190587338283 0.809412661717 0.116229944502 0.883770055498 0.114097482629 0.885902517371 0.152171954756 0.847828045244 0.0997779911735 0.900222008826 0.151345756766 0.848654243234 0.0721552842514 0.927844715749 </probabilities>
		</cpt>
		<!-- create node "song #163" -->
		<cpt id="song_#163" >
			<!-- setting names of outcomes -->
			<state id="recommended" />
			<state id="notRecommended" />
			<!-- add arcs -->
			<parents>clusterPredict </parents>
			<!-- setting probabilities -->
			<probabilities>0.119312381235 0.880687618765 0.141627553424 0.858372446576 0.0914460463693 0.908553953631 0.102463611485 0.897536388515 0.0891676589302 0.91083234107 0.0827073993039 0.917292600696 0.285437541703 0.714562458297 0.0878378075488 0.912162192451 </probabilities>
		</cpt>
		<!-- create node "song #164Higher education" -->
		<cpt id="song_#164Higher_education" >
			<!-- setting names of outcomes -->
			<state id="recommended" />
			<state id="notRecommended" />
			<!-- add arcs -->
			<parents>clusterPredict </parents>
			<!-- setting probabilities -->
			<probabilities>0.133150105539 0.866849894461 0.121774481362 0.878225518638 0.148912748637 0.851087251363 0.104260761463 0.895739238537 0.102755607519 0.897244392481 0.186479301608 0.813520698392 0.0984847679309 0.901515232069 0.104182225941 0.895817774059 </probabilities>
		</cpt>
		<!-- create node "song #165For Once In My Life" -->
		<cpt id="song_#165For_Once_In_My_Life" >
			<!-- setting names of outcomes -->
			<state id="recommended" />
			<state id="notRecommended" />
			<!-- add arcs -->
			<parents>clusterPredict </parents>
			<!-- setting probabilities -->
			<probabilities>0.102449012654 0.897550987346 0.185493382137 0.814506617863 0.101456034334 0.898543965666 0.149289172065 0.850710827935 0.0991881395217 0.900811860478 0.0880506070191 0.911949392981 0.163322952563 0.836677047437 0.110750699705 0.889249300295 </probabilities>
		</cpt>
		<!-- create node "song #166Speedway" -->
		<cpt id="song_#166Speedway" >
			<!-- setting names of outcomes -->
			<state id="recommended" />
			<state id="notRecommended" />
			<!-- add arcs -->
			<parents>clusterPredict </parents>
			<!-- setting probabilities -->
			<probabilities>0.102341319835 0.897658680165 0.206794777447 0.793205222553 0.125040179803 0.874959820197 0.102036004262 0.897963995738 0.155165349051 0.844834650949 0.0984332059991 0.901566794001 0.124304191728 0.875695808272 0.0858849718748 0.914115028125 </probabilities>
		</cpt>
		<!-- create node "song #167Gonna Make You Sweat (Everybody Dance Now)" -->
		<cpt id="song_#167Gonna_Make_You_Sweat_(Everybody_Dance_Now)" >
			<!-- setting names of outcomes -->
			<state id="recommended" />
			<state id="notRecommended" />
			<!-- add arcs -->
			<parents>clusterPredict </parents>
			<!-- setting probabilities -->
			<probabilities>0.0761197275573 0.923880272443 0.178365943403 0.821634056597 0.110111014938 0.889888985062 0.144661339787 0.855338660213 0.221373156204 0.778626843796 0.0826521295029 0.917347870497 0.108898646779 0.891101353221 0.0778180418288 0.922181958171 </probabilities>
		</cpt>
		<!-- create node "song #168September" -->
		<cpt id="song_#168September" >
			<!-- setting names of outcomes -->
			<state id="recommended" />
			<state id="notRecommended" />
			<!-- add arcs -->
			<parents>clusterPredict </parents>
			<!-- setting probabilities -->
			<probabilities>0.318607526153 0.681392473847 0.103330645757 0.896669354243 0.0776414928132 0.922358507187 0.0873634258187 0.912636574181 0.0832494938557 0.916750506144 0.120787164842 0.879212835158 0.130513485102 0.869486514898 0.0785067656584 0.921493234342 </probabilities>
		</cpt>
		<!-- create node "song #169November Rain" -->
		<cpt id="song_#169November_Rain" >
			<!-- setting names of outcomes -->
			<state id="recommended" />
			<state id="notRecommended" />
			<!-- add arcs -->
			<parents>clusterPredict </parents>
			<!-- setting probabilities -->
			<probabilities>0.138314924033 0.861685075967 0.123947386613 0.876052613387 0.102654831194 0.897345168806 0.107570644339 0.892429355661 0.120668615105 0.879331384895 0.100457407365 0.899542592635 0.203990619869 0.796009380131 0.102395571483 0.897604428517 </probabilities>
		</cpt>
		<!-- create node "song #170How Will I Know" -->
		<cpt id="song_#170How_Will_I_Know" >
			<!-- setting names of outcomes -->
			<state id="recommended" />
			<state id="notRecommended" />
			<!-- add arcs -->
			<parents>clusterPredict </parents>
			<!-- setting probabilities -->
			<probabilities>0.0985208298323 0.901479170168 0.1676908787 0.8323091213 0.0874390048181 0.912560995182 0.0929717433571 0.907028256643 0.0936256932252 0.906374306775 0.0741149957472 0.925885004253 0.317480487826 0.682519512174 0.0681563664938 0.931843633506 </probabilities>
		</cpt>
		<!-- create node "song #171Venus" -->
		<cpt id="song_#171Venus" >
			<!-- setting names of outcomes -->
			<state id="recommended" />
			<state id="notRecommended" />
			<!-- add arcs -->
			<parents>clusterPredict </parents>
			<!-- setting probabilities -->
			<probabilities>0.0832196966123 0.916780303388 0.332451849473 0.667548150527 0.101778259256 0.898221740744 0.117864363236 0.882135636764 0.0998495696684 0.900150430332 0.0869989630754 0.913001036925 0.0939446503647 0.906055349635 0.0838926483143 0.916107351686 </probabilities>
		</cpt>
		<!-- create node "song #172Clocks (Radio Edit)" -->
		<cpt id="song_#172Clocks_(Radio_Edit)" >
			<!-- setting names of outcomes -->
			<state id="recommended" />
			<state id="notRecommended" />
			<!-- add arcs -->
			<parents>clusterPredict </parents>
			<!-- setting probabilities -->
			<probabilities>0.1158058025 0.8841941975 0.20254567428 0.79745432572 0.0965677572734 0.903432242727 0.113386828225 0.886613171775 0.127827413245 0.872172586755 0.095032362566 0.904967637434 0.17173306512 0.82826693488 0.0771010967907 0.922898903209 </probabilities>
		</cpt>
		<!-- create node "song #173How Soon Is Now?" -->
		<cpt id="song_#173How_Soon_Is_Now?" >
			<!-- setting names of outcomes -->
			<state id="recommended" />
			<state id="notRecommended" />
			<!-- add arcs -->
			<parents>clusterPredict </parents>
			<!-- setting probabilities -->
			<probabilities>0.127596126044 0.872403873956 0.163633281127 0.836366718873 0.0988980945061 0.901101905494 0.107858967979 0.892141032021 0.102186363023 0.897813636977 0.0926476082712 0.907352391729 0.221810262723 0.778189737277 0.0853692963274 0.914630703673 </probabilities>
		</cpt>
		<!-- create node "song #174BURNIN' FOR YOU" -->
		<cpt id="song_#174BURNIN'_FOR_YOU" >
			<!-- setting names of outcomes -->
			<state id="recommended" />
			<state id="notRecommended" />
			<!-- add arcs -->
			<parents>clusterPredict </parents>
			<!-- setting probabilities -->
			<probabilities>0.0912007242911 0.908799275709 0.274185682081 0.725814317919 0.103651946017 0.896348053983 0.119655996959 0.880344003041 0.129574429169 0.870425570831 0.0947098495502 0.90529015045 0.102980013334 0.897019986666 0.084041358599 0.915958641401 </probabilities>
		</cpt>
		<!-- create node "song #175Cybele's Reverie" -->
		<cpt id="song_#175Cybele's_Reverie" >
			<!-- setting names of outcomes -->
			<state id="recommended" />
			<state id="notRecommended" />
			<!-- add arcs -->
			<parents>clusterPredict </parents>
			<!-- setting probabilities -->
