<?xml version="1.0" encoding="ISO-8859-1"?>
<smile version="1.0" id="SongRecommender" numsamples="1000" discsamples="10000">
	<nodes>
		<!-- create node "clusterPredict" -->
		<cpt id="clusterPredict" >
			<!-- setting names of outcomes -->
			<state id="c1" />
			<state id="c2" />
			<state id="c3" />
			<state id="c4" />
			<state id="c5" />
			<state id="c6" />
			<state id="c7" />
			<state id="c8" />
			<!-- setting probabilities -->
			<probabilities>0.125 0.125 0.125 0.125 0.125 0.125 0.125 0.125 </probabilities>
		</cpt>
		<!-- create node "song #1Hotel Yorba (Album Version)" -->
		<cpt id="song_#1Hotel_Yorba_(Album_Version)" >
			<!-- setting names of outcomes -->
			<state id="recommended" />
			<state id="notRecommended" />
			<!-- add arcs -->
			<parents>clusterPredict </parents>
			<!-- setting probabilities -->
			<probabilities>0.207973862572 0.792026137428 0.10859546226 0.89140453774 0.112890865136 0.887109134864 0.101340509066 0.898659490934 0.129893802339 0.870106197661 0.1410402503 0.8589597497 0.110781771596 0.889218228404 0.0874834767297 0.91251652327 </probabilities>
		</cpt>
		<!-- create node "song #2Dream Police" -->
		<cpt id="song_#2Dream_Police" >
			<!-- setting names of outcomes -->
			<state id="recommended" />
			<state id="notRecommended" />
			<!-- add arcs -->
			<parents>clusterPredict </parents>
			<!-- setting probabilities -->
			<probabilities>0.200525039737 0.799474960263 0.101596932383 0.898403067617 0.127917586317 0.872082413683 0.0845396475814 0.915460352419 0.0981959328776 0.901804067122 0.210594539997 0.789405460003 0.100054577372 0.899945422628 0.076575743736 0.923424256264 </probabilities>
		</cpt>
		<!-- create node "song #3ANTS MARCHING (Live Acoustic)" -->
		<cpt id="song_#3ANTS_MARCHING_(Live_Acoustic)" >
			<!-- setting names of outcomes -->
			<state id="recommended" />
			<state id="notRecommended" />
			<!-- add arcs -->
			<parents>clusterPredict </parents>
			<!-- setting probabilities -->
			<probabilities>0.0930065262701 0.90699347373 0.314452350553 0.685547649447 0.0954705476212 0.904529452379 0.0972513243013 0.902748675699 0.0830123405832 0.916987659417 0.127840846057 0.872159153943 0.100313323859 0.899686676141 0.0886527407559 0.911347259244 </probabilities>
		</cpt>
		<!-- create node "song #4Adive From the Angel of Thresholds" -->
		<cpt id="song_#4Adive_From_the_Angel_of_Thresholds" >
			<!-- setting names of outcomes -->
			<state id="recommended" />
			<state id="notRecommended" />
			<!-- add arcs -->
			<parents>clusterPredict </parents>
			<!-- setting probabilities -->
			<probabilities>0.110618327783 0.889381672217 0.133497913771 0.866502086229 0.0922682612688 0.907731738731 0.145391896902 0.854608103098 0.144889221149 0.855110778851 0.105352823596 0.894647176404 0.116471071045 0.883528928955 0.151510484485 0.848489515515 </probabilities>
		</cpt>
		<!-- create node "song #5Stoned Out Of My Mind" -->
		<cpt id="song_#5Stoned_Out_Of_My_Mind" >
			<!-- setting names of outcomes -->
			<state id="recommended" />
			<state id="notRecommended" />
			<!-- add arcs -->
			<parents>clusterPredict </parents>
			<!-- setting probabilities -->
			<probabilities>0.154964616153 0.845035383847 0.139190266413 0.860809733587 0.0980229594097 0.90197704059 0.0905217503225 0.909478249678 0.0936461497269 0.906353850273 0.223990300018 0.776009699982 0.118006746632 0.881993253368 0.0816572113248 0.918342788675 </probabilities>
		</cpt>
		<!-- create node "song #6Clair de Lune" -->
		<cpt id="song_#6Clair_de_Lune" >
			<!-- setting names of outcomes -->
			<state id="recommended" />
			<state id="notRecommended" />
			<!-- add arcs -->
			<parents>clusterPredict </parents>
			<!-- setting probabilities -->
			<probabilities>0.0927287194705 0.90727128053 0.109296020564 0.890703979436 0.0871386388803 0.91286136112 0.115687952838 0.884312047162 0.0978314688032 0.902168531197 0.130704217973 0.869295782027 0.130252749155 0.869747250845 0.236360232316 0.763639767684 </probabilities>
		</cpt>
		<!-- create node "song #7" -->
		<cpt id="song_#7" >
			<!-- setting names of outcomes -->
			<state id="recommended" />
			<state id="notRecommended" />
			<!-- add arcs -->
			<parents>clusterPredict </parents>
			<!-- setting probabilities -->
			<probabilities>0.105856888513 0.894143111487 0.0969393138343 0.903060686166 0.159765815795 0.840234184205 0.0989353224676 0.901064677532 0.0829326777487 0.917067322251 0.209342955879 0.790657044121 0.160186422337 0.839813577663 0.086040603426 0.913959396574 </probabilities>
		</cpt>
		<!-- create node "song #8Guinnevere" -->
		<cpt id="song_#8Guinnevere" >
			<!-- setting names of outcomes -->
			<state id="recommended" />
			<state id="notRecommended" />
			<!-- add arcs -->
			<parents>clusterPredict </parents>
			<!-- setting probabilities -->
			<probabilities>0.14495791118 0.85504208882 0.116673251051 0.883326748949 0.112698674315 0.887301325685 0.0958861204612 0.904113879539 0.10504388183 0.89495611817 0.118356409165 0.881643590835 0.138520369902 0.861479630098 0.167863382096 0.832136617904 </probabilities>
		</cpt>
		<!-- create node "song #9Heaven's the Place" -->
		<cpt id="song_#9Heaven's_the_Place" >
			<!-- setting names of outcomes -->
			<state id="recommended" />
			<state id="notRecommended" />
			<!-- add arcs -->
			<parents>clusterPredict </parents>
			<!-- setting probabilities -->
			<probabilities>0.117067343365 0.882932656635 0.241979817258 0.758020182742 0.132171182533 0.867828817467 0.101750333946 0.898249666054 0.0957502106298 0.90424978937 0.120538066671 0.879461933329 0.103986443896 0.896013556104 0.0867566017027 0.913243398297 </probabilities>
		</cpt>
		<!-- create node "song #10Maps" -->
		<cpt id="song_#10Maps" >
			<!-- setting names of outcomes -->
			<state id="recommended" />
			<state id="notRecommended" />
			<!-- add arcs -->
			<parents>clusterPredict </parents>
			<!-- setting probabilities -->
			<probabilities>0.221378860545 0.778621139455 0.0956880764709 0.904311923529 0.120843375018 0.879156624982 0.0922576717457 0.907742328254 0.106040297272 0.893959702728 0.164310719203 0.835689280797 0.123817378732 0.876182621268 0.0756636210122 0.924336378988 </probabilities>
		</cpt>
		<!-- create node "song #11Good Times Roll" -->
		<cpt id="song_#11Good_Times_Roll" >
			<!-- setting names of outcomes -->
			<state id="recommended" />
			<state id="notRecommended" />
			<!-- add arcs -->
			<parents>clusterPredict </parents>
			<!-- setting probabilities -->
			<probabilities>0.249836736144 0.750163263856 0.0961304460135 0.903869553986 0.0949056083993 0.905094391601 0.08379908682 0.91620091318 0.109026371164 0.890973628836 0.191274741794 0.808725258206 0.0964726508166 0.903527349183 0.0785543588489 0.921445641151 </probabilities>
		</cpt>
		<!-- create node "song #12d:b:l" -->
		<cpt id="song_#12d:b:l" >
			<!-- setting names of outcomes -->
			<state id="recommended" />
			<state id="notRecommended" />
			<!-- add arcs -->
			<parents>clusterPredict </parents>
			<!-- setting probabilities -->
			<probabilities>0.0875705220824 0.912429477918 0.252521051416 0.747478948584 0.109132277636 0.890867722364 0.112446805613 0.887553194387 0.0822535983792 0.917746401621 0.110154008066 0.889845991934 0.139342848432 0.860657151568 0.106578888376 0.893421111624 </probabilities>
		</cpt>
		<!-- create node "song #13You Set The Scene" -->
		<cpt id="song_#13You_Set_The_Scene" >
			<!-- setting names of outcomes -->
			<state id="recommended" />
			<state id="notRecommended" />
			<!-- add arcs -->
			<parents>clusterPredict </parents>
			<!-- setting probabilities -->
			<probabilities>0.0906114033232 0.909388596677 0.125157830017 0.874842169983 0.16530542641 0.83469457359 0.103456693096 0.896543306904 0.0764824944672 0.923517505533 0.183622226647 0.816377773353 0.164466637411 0.835533362589 0.0908972886279 0.909102711372 </probabilities>
		</cpt>
		<!-- create node "song #14The Black Crowes - 03 - Thorn In My Pride" -->
		<cpt id="song_#14The_Black_Crowes_-_03_-_Thorn_In_My_Pride" >
			<!-- setting names of outcomes -->
			<state id="recommended" />
			<state id="notRecommended" />
			<!-- add arcs -->
			<parents>clusterPredict </parents>
			<!-- setting probabilities -->
			<probabilities>0.130730526171 0.869269473829 0.214722380111 0.785277619889 0.0999403742823 0.900059625718 0.091385810192 0.908614189808 0.0950581706982 0.904941829302 0.143014150152 0.856985849848 0.108847415684 0.891152584316 0.116301172709 0.883698827291 </probabilities>
		</cpt>
		<!-- create node "song #15Ziggy Stardust" -->
		<cpt id="song_#15Ziggy_Stardust" >
			<!-- setting names of outcomes -->
			<state id="recommended" />
			<state id="notRecommended" />
			<!-- add arcs -->
			<parents>clusterPredict </parents>
			<!-- setting probabilities -->
			<probabilities>0.137884465088 0.862115534912 0.0989444171695 0.901055582831 0.0909472577896 0.90905274221 0.144443402565 0.855556597435 0.209904363076 0.790095636924 0.127897995725 0.872102004275 0.103794120619 0.896205879381 0.0861839779683 0.913816022032 </probabilities>
		</cpt>
		<!-- create node "song #16Tales Of Brave Ulysses" -->
		<cpt id="song_#16Tales_Of_Brave_Ulysses" >
			<!-- setting names of outcomes -->
			<state id="recommended" />
			<state id="notRecommended" />
			<!-- add arcs -->
			<parents>clusterPredict </parents>
			<!-- setting probabilities -->
			<probabilities>0.102166094439 0.897833905561 0.104996140106 0.895003859894 0.0946729139148 0.905327086085 0.0941724038531 0.905827596147 0.0812960855316 0.918703914468 0.231210441837 0.768789558163 0.178765296696 0.821234703304 0.112720623623 0.887279376377 </probabilities>
		</cpt>
		<!-- create node "song #17Time Is Tight" -->
		<cpt id="song_#17Time_Is_Tight" >
			<!-- setting names of outcomes -->
			<state id="recommended" />
			<state id="notRecommended" />
			<!-- add arcs -->
			<parents>clusterPredict </parents>
			<!-- setting probabilities -->
			<probabilities>0.108783069282 0.891216930718 0.118486960181 0.881513039819 0.139160369928 0.860839630072 0.110413537513 0.889586462487 0.100010312223 0.899989687777 0.164258368107 0.835741631893 0.121140222331 0.878859777669 0.137747160436 0.862252839564 </probabilities>
		</cpt>
		<!-- create node "song #18Kyo Rei" -->
		<cpt id="song_#18Kyo_Rei" >
			<!-- setting names of outcomes -->
			<state id="recommended" />
			<state id="notRecommended" />
			<!-- add arcs -->
			<parents>clusterPredict </parents>
			<!-- setting probabilities -->
			<probabilities>0.110844613441 0.889155386559 0.125214510381 0.874785489619 0.0942573405882 0.905742659412 0.129379338404 0.870620661596 0.132119511897 0.867880488103 0.120024090546 0.879975909454 0.113304582816 0.886695417184 0.174856011927 0.825143988073 </probabilities>
		</cpt>
		<!-- create node "song #19Echoes (1992 Digital Remaster)" -->
		<cpt id="song_#19Echoes_(1992_Digital_Remaster)" >
			<!-- setting names of outcomes -->
			<state id="recommended" />
			<state id="notRecommended" />
			<!-- add arcs -->
			<parents>clusterPredict </parents>
			<!-- setting probabilities -->
			<probabilities>0.0929616566722 0.907038343328 0.145052569349 0.854947430651 0.112446744603 0.887553255397 0.105116634418 0.894883365582 0.089238193707 0.910761806293 0.105954909727 0.894045090273 0.125573608745 0.874426391255 0.223655682779 0.776344317221 </probabilities>
		</cpt>
		<!-- create node "song #20Too Slow" -->
		<cpt id="song_#20Too_Slow" >
			<!-- setting names of outcomes -->
			<state id="recommended" />
			<state id="notRecommended" />
			<!-- add arcs -->
			<parents>clusterPredict </parents>
			<!-- setting probabilities -->
			<probabilities>0.0987310278733 0.901268972127 0.141943836565 0.858056163435 0.0891727127914 0.910827287209 0.168066178036 0.831933821964 0.140283985929 0.859716014071 0.11918247642 0.88081752358 0.105872168027 0.894127831973 0.136747614359 0.863252385641 </probabilities>
		</cpt>
		<!-- create node "song #21Been Caught Stealing" -->
		<cpt id="song_#21Been_Caught_Stealing" >
			<!-- setting names of outcomes -->
			<state id="recommended" />
			<state id="notRecommended" />
			<!-- add arcs -->
			<parents>clusterPredict </parents>
			<!-- setting probabilities -->
			<probabilities>0.100133589491 0.899866410509 0.104695971921 0.895304028079 0.270842700128 0.729157299872 0.107665158581 0.892334841419 0.0885708598981 0.911429140102 0.125879898987 0.874120101013 0.121217661368 0.878782338632 0.0809941596268 0.919005840373 </probabilities>
		</cpt>
		<!-- create node "song #22" -->
		<cpt id="song_#22" >
			<!-- setting names of outcomes -->
			<state id="recommended" />
			<state id="notRecommended" />
			<!-- add arcs -->
			<parents>clusterPredict </parents>
			<!-- setting probabilities -->
			<probabilities>0.12458917883 0.87541082117 0.1140875859 0.8859124141 0.0962502882548 0.903749711745 0.0993554779593 0.900644522041 0.108451319862 0.891548680138 0.110673743794 0.889326256206 0.126404945814 0.873595054186 0.220187459588 0.779812540412 </probabilities>
		</cpt>
		<!-- create node "song #23Risingson" -->
		<cpt id="song_#23Risingson" >
			<!-- setting names of outcomes -->
			<state id="recommended" />
			<state id="notRecommended" />
			<!-- add arcs -->
			<parents>clusterPredict </parents>
			<!-- setting probabilities -->
			<probabilities>0.116798662965 0.883201337035 0.103194742076 0.896805257924 0.206915601203 0.793084398797 0.103850228058 0.896149771942 0.0893264019861 0.910673598014 0.121905680989 0.878094319011 0.175540277795 0.824459722205 0.0824684049281 0.917531595072 </probabilities>
		</cpt>
		<!-- create node "song #24EPIC" -->
		<cpt id="song_#24EPIC" >
			<!-- setting names of outcomes -->
			<state id="recommended" />
			<state id="notRecommended" />
			<!-- add arcs -->
			<parents>clusterPredict </parents>
			<!-- setting probabilities -->
			<probabilities>0.099800842903 0.900199157097 0.127667169328 0.872332830672 0.236746673946 0.763253326054 0.10360507095 0.89639492905 0.0838274006659 0.916172599334 0.107976932159 0.892023067841 0.147190540827 0.852809459173 0.0931853692213 0.906814630779 </probabilities>
		</cpt>
		<!-- create node "song #25" -->
		<cpt id="song_#25" >
			<!-- setting names of outcomes -->
			<state id="recommended" />
			<state id="notRecommended" />
			<!-- add arcs -->
			<parents>clusterPredict </parents>
			<!-- setting probabilities -->
			<probabilities>0.0975875952117 0.902412404788 0.12626882946 0.87373117054 0.155350362814 0.844649637186 0.103139505665 0.896860494335 0.0797685328357 0.920231467164 0.226068160363 0.773931839637 0.135757107577 0.864242892423 0.0760599060739 0.923940093926 </probabilities>
		</cpt>
		<!-- create node "song #26Dead slow day" -->
		<cpt id="song_#26Dead_slow_day" >
			<!-- setting names of outcomes -->
			<state id="recommended" />
			<state id="notRecommended" />
			<!-- add arcs -->
			<parents>clusterPredict </parents>
			<!-- setting probabilities -->
			<probabilities>0.126203222411 0.873796777589 0.15684674108 0.84315325892 0.112566818585 0.887433181415 0.0984899835462 0.901510016454 0.105065456795 0.894934543205 0.146805345133 0.853194654867 0.103521675136 0.896478324864 0.150500757313 0.849499242687 </probabilities>
		</cpt>
		<!-- create node "song #27Hotter Than That" -->
		<cpt id="song_#27Hotter_Than_That" >
			<!-- setting names of outcomes -->
			<state id="recommended" />
			<state id="notRecommended" />
			<!-- add arcs -->
			<parents>clusterPredict </parents>
			<!-- setting probabilities -->
			<probabilities>0.0853893294117 0.914610670588 0.117451675082 0.882548324918 0.0909906950731 0.909009304927 0.272114199997 0.727885800003 0.117989158505 0.882010841495 0.106094186465 0.893905813535 0.119814338416 0.880185661584 0.0901564170489 0.909843582951 </probabilities>
		</cpt>
		<!-- create node "song #28Matchbox" -->
		<cpt id="song_#28Matchbox" >
			<!-- setting names of outcomes -->
			<state id="recommended" />
			<state id="notRecommended" />
			<!-- add arcs -->
			<parents>clusterPredict </parents>
			<!-- setting probabilities -->
			<probabilities>0.0938015414399 0.90619845856 0.120580358249 0.879419641751 0.208281645759 0.791718354241 0.108584861672 0.891415138328 0.0836271995054 0.916372800495 0.14650666328 0.85349333672 0.136921059984 0.863078940016 0.10169667011 0.89830332989 </probabilities>
		</cpt>
		<!-- create node "song #29Break My Mind" -->
		<cpt id="song_#29Break_My_Mind" >
			<!-- setting names of outcomes -->
			<state id="recommended" />
			<state id="notRecommended" />
			<!-- add arcs -->
			<parents>clusterPredict </parents>
			<!-- setting probabilities -->
			<probabilities>0.107520216467 0.892479783533 0.174514535656 0.825485464344 0.180576455707 0.819423544293 0.101001392991 0.898998607009 0.0891365169435 0.910863483057 0.13059178336 0.86940821664 0.113520907802 0.886479092198 0.103138191073 0.896861808927 </probabilities>
		</cpt>
		<!-- create node "song #30Chandra" -->
		<cpt id="song_#30Chandra" >
			<!-- setting names of outcomes -->
			<state id="recommended" />
			<state id="notRecommended" />
			<!-- add arcs -->
			<parents>clusterPredict </parents>
			<!-- setting probabilities -->
			<probabilities>0.10018119005 0.89981880995 0.217062289112 0.782937710888 0.095024129912 0.904975870088 0.102375388441 0.897624611559 0.0956975741231 0.904302425877 0.128163668319 0.871836331681 0.102038267041 0.897961732959 0.159457493002 0.840542506998 </probabilities>
		</cpt>
		<!-- create node "song #31King Harvest (Has Surely Come) (2000 Digital Remaster)" -->
		<cpt id="song_#31King_Harvest_(Has_Surely_Come)_(2000_Digital_Remaster)" >
			<!-- setting names of outcomes -->
			<state id="recommended" />
			<state id="notRecommended" />
			<!-- add arcs -->
			<parents>clusterPredict </parents>
			<!-- setting probabilities -->
			<probabilities>0.0890463201923 0.910953679808 0.270919209789 0.729080790211 0.0900952993126 0.909904700687 0.0989924827182 0.901007517282 0.0776846660734 0.922315333927 0.139376986265 0.860623013735 0.133188495201 0.866811504799 0.100696540449 0.899303459551 </probabilities>
		</cpt>
		<!-- create node "song #32Blue Monday" -->
		<cpt id="song_#32Blue_Monday" >
			<!-- setting names of outcomes -->
			<state id="recommended" />
			<state id="notRecommended" />
			<!-- add arcs -->
			<parents>clusterPredict </parents>
			<!-- setting probabilities -->
			<probabilities>0.184494465831 0.815505534169 0.0892657083189 0.910734291681 0.124321054528 0.875678945472 0.0856657986639 0.914334201336 0.0937972503306 0.906202749669 0.229680711453 0.770319288547 0.118938541845 0.881061458155 0.0738364690301 0.92616353097 </probabilities>
		</cpt>
		<!-- create node "song #33Mine Tonite" -->
		<cpt id="song_#33Mine_Tonite" >
			<!-- setting names of outcomes -->
			<state id="recommended" />
			<state id="notRecommended" />
			<!-- add arcs -->
			<parents>clusterPredict </parents>
			<!-- setting probabilities -->
			<probabilities>0.140481701218 0.859518298782 0.139298226143 0.860701773857 0.176458995719 0.823541004281 0.109883575285 0.890116424715 0.117315336249 0.882684663751 0.117636305325 0.882363694675 0.106401651841 0.893598348159 0.0925242082193 0.907475791781 </probabilities>
		</cpt>
		<!-- create node "song #34What's Wrong with my foot:" -->
		<cpt id="song_#34What's_Wrong_with_my_foot:" >
			<!-- setting names of outcomes -->
			<state id="recommended" />
			<state id="notRecommended" />
			<!-- add arcs -->
			<parents>clusterPredict </parents>
			<!-- setting probabilities -->
			<probabilities>0.0926667971074 0.907333202893 0.248328021647 0.751671978353 0.111654682258 0.888345317742 0.111738151455 0.888261848545 0.0850014207593 0.914998579241 0.10995352535 0.89004647465 0.138819316153 0.861180683847 0.10183808527 0.89816191473 </probabilities>
		</cpt>
		<!-- create node "song #35Torn" -->
		<cpt id="song_#35Torn" >
			<!-- setting names of outcomes -->
			<state id="recommended" />
			<state id="notRecommended" />
			<!-- add arcs -->
			<parents>clusterPredict </parents>
			<!-- setting probabilities -->
			<probabilities>0.0952687309586 0.904731269041 0.0966055471819 0.903394452818 0.0957999751924 0.904200024808 0.0940657446843 0.905934255316 0.0764049073881 0.923595092612 0.13177763651 0.86822236349 0.321138530704 0.678861469296 0.0889389273806 0.911061072619 </probabilities>
		</cpt>
		<!-- create node "song #36Jerry Was A Race Car Driver" -->
		<cpt id="song_#36Jerry_Was_A_Race_Car_Driver" >
			<!-- setting names of outcomes -->
			<state id="recommended" />
			<state id="notRecommended" />
			<!-- add arcs -->
			<parents>clusterPredict </parents>
			<!-- setting probabilities -->
			<probabilities>0.0734219583263 0.926578041674 0.0853562556147 0.914643744385 0.0925999952215 0.907400004778 0.0787363530038 0.921263646996 0.0603394413908 0.939660558609 0.106106591908 0.893893408092 0.419795485915 0.580204514085 0.0836439186197 0.91635608138 </probabilities>
		</cpt>
		<!-- create node "song #37Tiny Dancer" -->
		<cpt id="song_#37Tiny_Dancer" >
			<!-- setting names of outcomes -->
			<state id="recommended" />
			<state id="notRecommended" />
			<!-- add arcs -->
			<parents>clusterPredict </parents>
			<!-- setting probabilities -->
			<probabilities>0.112182330989 0.887817669011 0.103119616682 0.896880383318 0.137557133587 0.862442866413 0.104594662379 0.895405337621 0.094828495882 0.905171504118 0.215066181443 0.784933818557 0.128167742062 0.871832257938 0.104483836977 0.895516163023 </probabilities>
		</cpt>
		<!-- create node "song #38I Just Want To Have Something To Do" -->
		<cpt id="song_#38I_Just_Want_To_Have_Something_To_Do" >
			<!-- setting names of outcomes -->
			<state id="recommended" />
			<state id="notRecommended" />
			<!-- add arcs -->
			<parents>clusterPredict </parents>
			<!-- setting probabilities -->
			<probabilities>0.160767923638 0.839232076362 0.118708327975 0.881291672025 0.142985272749 0.857014727251 0.108386296345 0.891613703655 0.113334392361 0.886665607639 0.119730066106 0.880269933894 0.143547069936 0.856452930064 0.0925406508905 0.907459349109 </probabilities>
		</cpt>
		<!-- create node "song #39All Possibilities" -->
		<cpt id="song_#39All_Possibilities" >
			<!-- setting names of outcomes -->
			<state id="recommended" />
			<state id="notRecommended" />
			<!-- add arcs -->
			<parents>clusterPredict </parents>
			<!-- setting probabilities -->
			<probabilities>0.0990166776438 0.900983322356 0.149212724417 0.850787275583 0.176852336561 0.823147663439 0.0916487720868 0.908351227913 0.0734676977616 0.926532302238 0.161359797403 0.838640202597 0.166891926603 0.833108073397 0.081550067524 0.918449932476 </probabilities>
		</cpt>
		<!-- create node "song #40Dirty Deeds Done Dirt Cheap" -->
		<cpt id="song_#40Dirty_Deeds_Done_Dirt_Cheap" >
			<!-- setting names of outcomes -->
			<state id="recommended" />
			<state id="notRecommended" />
			<!-- add arcs -->
			<parents>clusterPredict </parents>
			<!-- setting probabilities -->
			<probabilities>0.0857300330852 0.914269966915 0.0966099639515 0.903390036048 0.131524964832 0.868475035168 0.0960461110658 0.903953888934 0.0709667328342 0.929033267166 0.125424597418 0.874575402582 0.314092011529 0.685907988471 0.0796055852847 0.920394414715 </probabilities>
		</cpt>
		<!-- create node "song #41Answering Machine" -->
		<cpt id="song_#41Answering_Machine" >
			<!-- setting names of outcomes -->
			<state id="recommended" />
			<state id="notRecommended" />
			<!-- add arcs -->
			<parents>clusterPredict </parents>
			<!-- setting probabilities -->
			<probabilities>0.129031923099 0.870968076901 0.122693292924 0.877306707076 0.168338213088 0.831661786912 0.104714912669 0.895285087331 0.0948006069443 0.905199393056 0.184191275488 0.815808724512 0.122783807152 0.877216192848 0.0734459686361 0.926554031364 </probabilities>
		</cpt>
		<!-- create node "song #42Nova Express: I'm Alive" -->
		<cpt id="song_#42Nova_Express:_I'm_Alive" >
			<!-- setting names of outcomes -->
			<state id="recommended" />
			<state id="notRecommended" />
			<!-- add arcs -->
			<parents>clusterPredict </parents>
			<!-- setting probabilities -->
			<probabilities>0.114838110869 0.885161889131 0.159449304761 0.840550695239 0.188537642053 0.811462357947 0.115019283103 0.884980716897 0.103552329602 0.896447670398 0.115256813263 0.884743186737 0.111692738511 0.888307261489 0.0916537778387 0.908346222161 </probabilities>
		</cpt>
		<!-- create node "song #43Say You Love Me" -->
		<cpt id="song_#43Say_You_Love_Me" >
			<!-- setting names of outcomes -->
			<state id="recommended" />
			<state id="notRecommended" />
			<!-- add arcs -->
			<parents>clusterPredict </parents>
			<!-- setting probabilities -->
			<probabilities>0.122923112924 0.877076887076 0.0761852256945 0.923814774306 0.081322893848 0.918677106152 0.118874495413 0.881125504587 0.341193881392 0.658806118608 0.0966606891938 0.903339310806 0.0813295233276 0.918670476672 0.081510178207 0.918489821793 </probabilities>
		</cpt>
		<!-- create node "song #44Baggy Trousers" -->
		<cpt id="song_#44Baggy_Trousers" >
			<!-- setting names of outcomes -->
			<state id="recommended" />
			<state id="notRecommended" />
			<!-- add arcs -->
			<parents>clusterPredict </parents>
			<!-- setting probabilities -->
			<probabilities>0.0883851786654 0.911614821335 0.101296726822 0.898703273178 0.115703628274 0.884296371726 0.236044414372 0.763955585628 0.113015551199 0.886984448801 0.111735157433 0.888264842567 0.14042534013 0.85957465987 0.0933940031057 0.906605996894 </probabilities>
		</cpt>
		<!-- create node "song #45Police & Thieves" -->
		<cpt id="song_#45Police_&_Thieves" >
			<!-- setting names of outcomes -->
			<state id="recommended" />
			<state id="notRecommended" />
			<!-- add arcs -->
			<parents>clusterPredict </parents>
			<!-- setting probabilities -->
			<probabilities>0.117354001761 0.882645998239 0.112954316067 0.887045683933 0.125780261369 0.874219738631 0.0946807062546 0.905319293745 0.0836667357112 0.916333264289 0.119298454823 0.880701545177 0.24906772758 0.75093227242 0.0971977964344 0.902802203566 </probabilities>
		</cpt>
		<!-- create node "song #46ON THE ROAD AGAIN (Lp Version)" -->
		<cpt id="song_#46ON_THE_ROAD_AGAIN_(Lp_Version)" >
			<!-- setting names of outcomes -->
			<state id="recommended" />
			<state id="notRecommended" />
			<!-- add arcs -->
			<parents>clusterPredict </parents>
			<!-- setting probabilities -->
			<probabilities>0.0872935659217 0.912706434078 0.103591589924 0.896408410076 0.117578761179 0.882421238821 0.101852410279 0.898147589721 0.0761938800071 0.923806119993 0.132044596059 0.867955403941 0.269176822415 0.730823177585 0.112268374214 0.887731625786 </probabilities>
		</cpt>
		<!-- create node "song #47Cigarettes And Chocolate Milk" -->
		<cpt id="song_#47Cigarettes_And_Chocolate_Milk" >
			<!-- setting names of outcomes -->
			<state id="recommended" />
			<state id="notRecommended" />
			<!-- add arcs -->
			<parents>clusterPredict </parents>
			<!-- setting probabilities -->
			<probabilities>0.0821804857066 0.917819514293 0.107396648561 0.892603351439 0.0904697217177 0.909530278282 0.0943953863217 0.905604613678 0.070295308267 0.929704691733 0.126425465804 0.873574534196 0.334759201879 0.665240798121 0.0940777817428 0.905922218257 </probabilities>
		</cpt>
		<!-- create node "song #48World In My Eyes (7" Version)" -->
		<cpt id="song_#48World_In_My_Eyes_(7"_Version)" >
			<!-- setting names of outcomes -->
			<state id="recommended" />
			<state id="notRecommended" />
			<!-- add arcs -->
			<parents>clusterPredict </parents>
			<!-- setting probabilities -->
			<probabilities>0.18196042816 0.81803957184 0.144589192304 0.855410807696 0.126751272031 0.873248727969 0.101072020598 0.898927979402 0.11126773085 0.88873226915 0.135017462439 0.864982537561 0.116898185007 0.883101814993 0.0824437086104 0.91755629139 </probabilities>
		</cpt>
		<!-- create node "song #49Artificial Sweetener" -->
		<cpt id="song_#49Artificial_Sweetener" >
			<!-- setting names of outcomes -->
			<state id="recommended" />
			<state id="notRecommended" />
			<!-- add arcs -->
			<parents>clusterPredict </parents>
			<!-- setting probabilities -->
			<probabilities>0.10127483058 0.89872516942 0.138148528988 0.861851471012 0.108968875537 0.891031124463 0.115445319439 0.884554680561 0.0875767610217 0.912423238978 0.139177380787 0.860822619213 0.214107124009 0.785892875991 0.0953011796378 0.904698820362 </probabilities>
		</cpt>
		<!-- create node "song #50Prince Charming" -->
		<cpt id="song_#50Prince_Charming" >
			<!-- setting names of outcomes -->
			<state id="recommended" />
			<state id="notRecommended" />
			<!-- add arcs -->
			<parents>clusterPredict </parents>
			<!-- setting probabilities -->
			<probabilities>0.0995302011586 0.900469798841 0.116894339986 0.883105660014 0.20305184064 0.79694815936 0.0867860192877 0.913213980712 0.0719287230438 0.928071276956 0.16981351872 0.83018648128 0.168584588362 0.831415411638 0.0834107688026 0.916589231197 </probabilities>
		</cpt>
		<!-- create node "song #51Wave" -->
		<cpt id="song_#51Wave" >
			<!-- setting names of outcomes -->
			<state id="recommended" />
			<state id="notRecommended" />
			<!-- add arcs -->
			<parents>clusterPredict </parents>
			<!-- setting probabilities -->
			<probabilities>0.125936430675 0.874063569325 0.0978966649158 0.902103335084 0.103414154049 0.896585845951 0.132611499948 0.867388500052 0.192429913051 0.807570086949 0.112711928115 0.887288071885 0.100591322844 0.899408677156 0.134408086401 0.865591913599 </probabilities>
		</cpt>
		<!-- create node "song #52Skunk Werks" -->
		<cpt id="song_#52Skunk_Werks" >
			<!-- setting names of outcomes -->
			<state id="recommended" />
			<state id="notRecommended" />
			<!-- add arcs -->
			<parents>clusterPredict </parents>
			<!-- setting probabilities -->
			<probabilities>0.0928096206163 0.907190379384 0.167105218243 0.832894781757 0.111155824084 0.888844175916 0.100350366886 0.899649633114 0.0842665281905 0.915733471809 0.113080265222 0.886919734778 0.132077522306 0.867922477694 0.199154654452 0.800845345548 </probabilities>
		</cpt>
		<!-- create node "song #53Suzanne" -->
		<cpt id="song_#53Suzanne" >
			<!-- setting names of outcomes -->
			<state id="recommended" />
			<state id="notRecommended" />
			<!-- add arcs -->
			<parents>clusterPredict </parents>
			<!-- setting probabilities -->
			<probabilities>0.106267149645 0.893732850355 0.105735175894 0.894264824106 0.108863944291 0.891136055709 0.105068106648 0.894931893352 0.0958647906522 0.904135209348 0.125079109397 0.874920890603 0.155841726688 0.844158273312 0.197279996784 0.802720003216 </probabilities>
		</cpt>
		<!-- create node "song #54Effervescing Elephant" -->
		<cpt id="song_#54Effervescing_Elephant" >
			<!-- setting names of outcomes -->
			<state id="recommended" />
			<state id="notRecommended" />
			<!-- add arcs -->
			<parents>clusterPredict </parents>
			<!-- setting probabilities -->
			<probabilities>0.128047222067 0.871952777933 0.10319874547 0.89680125453 0.114797921752 0.885202078248 0.130667825619 0.869332174381 0.175251346239 0.824748653761 0.116598558882 0.883401441118 0.101199664826 0.898800335174 0.130238715146 0.869761284854 </probabilities>
		</cpt>
		<!-- create node "song #55God Bless The Child" -->
		<cpt id="song_#55God_Bless_The_Child" >
			<!-- setting names of outcomes -->
			<state id="recommended" />
			<state id="notRecommended" />
			<!-- add arcs -->
			<parents>clusterPredict </parents>
			<!-- setting probabilities -->
			<probabilities>0.101926454838 0.898073545162 0.10373465109 0.89626534891 0.112063016941 0.887936983059 0.129359237739 0.870640762261 0.104469403033 0.895530596967 0.199005978154 0.800994021846 0.13294267405 0.86705732595 0.116498584155 0.883501415845 </probabilities>
		</cpt>
		<!-- create node "song #56Highway Chile" -->
		<cpt id="song_#56Highway_Chile" >
			<!-- setting names of outcomes -->
			<state id="recommended" />
			<state id="notRecommended" />
			<!-- add arcs -->
			<parents>clusterPredict </parents>
			<!-- setting probabilities -->
			<probabilities>0.107356571445 0.892643428555 0.110044591032 0.889955408968 0.145498971915 0.854501028085 0.177557402148 0.822442597852 0.126575550465 0.873424449535 0.113066390129 0.886933609871 0.132543082749 0.867456917251 0.0873574401178 0.912642559882 </probabilities>
		</cpt>
		<!-- create node "song #57No Rain" -->
		<cpt id="song_#57No_Rain" >
			<!-- setting names of outcomes -->
			<state id="recommended" />
			<state id="notRecommended" />
			<!-- add arcs -->
			<parents>clusterPredict </parents>
			<!-- setting probabilities -->
			<probabilities>0.237630985447 0.762369014553 0.0953210896968 0.904678910303 0.134659599133 0.865340400867 0.0925863999413 0.907413600059 0.124396768961 0.875603231039 0.129931816418 0.870068183582 0.101341296008 0.898658703992 0.0841320443956 0.915867955604 </probabilities>
		</cpt>
		<!-- create node "song #58Da Funk" -->
		<cpt id="song_#58Da_Funk" >
			<!-- setting names of outcomes -->
			<state id="recommended" />
			<state id="notRecommended" />
			<!-- add arcs -->
			<parents>clusterPredict </parents>
			<!-- setting probabilities -->
			<probabilities>0.0975629660728 0.902437033927 0.110640440949 0.889359559051 0.119349995582 0.880650004418 0.107980415865 0.892019584135 0.0815069137109 0.918493086289 0.139519469006 0.860480530994 0.258574490011 0.741425509989 0.0848653088033 0.915134691197 </probabilities>
		</cpt>
		<!-- create node "song #59 Thela Hun Ginjeet" -->
		<cpt id="song_#59_Thela_Hun_Ginjeet" >
			<!-- setting names of outcomes -->
			<state id="recommended" />
			<state id="notRecommended" />
			<!-- add arcs -->
			<parents>clusterPredict </parents>
			<!-- setting probabilities -->
			<probabilities>0.34349319244 0.65650680756 0.0907627969572 0.909237203043 0.102527149737 0.897472850263 0.07691711291 0.92308288709 0.103974402931 0.896025597069 0.108809065441 0.891190934559 0.0942990526714 0.905700947329 0.0792172269122 0.920782773088 </probabilities>
		</cpt>
		<!-- create node "song #60Buddy Holly" -->
		<cpt id="song_#60Buddy_Holly" >
			<!-- setting names of outcomes -->
			<state id="recommended" />
			<state id="notRecommended" />
			<!-- add arcs -->
			<parents>clusterPredict </parents>
			<!-- setting probabilities -->
			<probabilities>0.101028981305 0.898971018695 0.110245899659 0.889754100341 0.132003784492 0.867996215508 0.111722821702 0.888277178298 0.0847731835885 0.915226816411 0.141291119735 0.858708880265 0.233803899031 0.766196100969 0.0851303104877 0.914869689512 </probabilities>
		</cpt>
		<!-- create node "song #61River Deep Mountain High" -->
		<cpt id="song_#61River_Deep_Mountain_High" >
			<!-- setting names of outcomes -->
			<state id="recommended" />
			<state id="notRecommended" />
			<!-- add arcs -->
			<parents>clusterPredict </parents>
			<!-- setting probabilities -->
			<probabilities>0.140290542301 0.859709457699 0.1059414266 0.8940585734 0.0862210737227 0.913778926277 0.111278103485 0.888721896515 0.121991419644 0.878008580356 0.232866937581 0.767133062419 0.11415708347 0.88584291653 0.0872534131972 0.912746586803 </probabilities>
		</cpt>
		<!-- create node "song #62Knysnamushrooms (Mr Gelatine)" -->
		<cpt id="song_#62Knysnamushrooms_(Mr_Gelatine)" >
			<!-- setting names of outcomes -->
			<state id="recommended" />
			<state id="notRecommended" />
			<!-- add arcs -->
			<parents>clusterPredict </parents>
			<!-- setting probabilities -->
			<probabilities>0.0906669400855 0.909333059915 0.216263217217 0.783736782783 0.146717151233 0.853282848767 0.111042009379 0.888957990621 0.0826994456095 0.91730055439 0.107289708282 0.892710291718 0.139687998695 0.860312001305 0.105633529499 0.894366470501 </probabilities>
		</cpt>
		<!-- create node "song #63" -->
		<cpt id="song_#63" >
			<!-- setting names of outcomes -->
			<state id="recommended" />
			<state id="notRecommended" />
			<!-- add arcs -->
			<parents>clusterPredict </parents>
			<!-- setting probabilities -->
			<probabilities>0.110299763146 0.889700236854 0.123410950507 0.876589049493 0.149846701654 0.850153298346 0.0986830622438 0.901316937756 0.0892760856347 0.910723914365 0.223866374593 0.776133625407 0.111305493279 0.888694506721 0.0933115689426 0.906688431057 </probabilities>
		</cpt>
		<!-- create node "song #64Thursday Group- Like White on Rice" -->
		<cpt id="song_#64Thursday_Group-_Like_White_on_Rice" >
			<!-- setting names of outcomes -->
			<state id="recommended" />
			<state id="notRecommended" />
			<!-- add arcs -->
			<parents>clusterPredict </parents>
			<!-- setting probabilities -->
			<probabilities>0.10742061844 0.89257938156 0.190978436734 0.809021563266 0.0929820313462 0.907017968654 0.111342345456 0.888657654544 0.103110122892 0.896889877108 0.142090444117 0.857909555883 0.113808322334 0.886191677666 0.13826767868 0.86173232132 </probabilities>
		</cpt>
		<!-- create node "song #65Wonderful" -->
		<cpt id="song_#65Wonderful" >
			<!-- setting names of outcomes -->
			<state id="recommended" />
			<state id="notRecommended" />
			<!-- add arcs -->
			<parents>clusterPredict </parents>
			<!-- setting probabilities -->
			<probabilities>0.178994669414 0.821005330586 0.126114608704 0.873885391296 0.0969129937987 0.903087006201 0.0898253940241 0.910174605976 0.0977834014025 0.902216598598 0.211281615448 0.788718384552 0.118088342085 0.881911657915 0.0809989751227 0.919001024877 </probabilities>
		</cpt>
		<!-- create node "song #66Best Of All Possible Worlds" -->
		<cpt id="song_#66Best_Of_All_Possible_Worlds" >
			<!-- setting names of outcomes -->
			<state id="recommended" />
			<state id="notRecommended" />
			<!-- add arcs -->
			<parents>clusterPredict </parents>
			<!-- setting probabilities -->
			<probabilities>0.159363213024 0.840636786976 0.152981203929 0.847018796071 0.0935984440359 0.906401555964 0.089810120058 0.910189879942 0.0988428371846 0.901157162815 0.190229649267 0.809770350733 0.112196609702 0.887803390298 0.102977922799 0.897022077201 </probabilities>
		</cpt>
		<!-- create node "song #67China Grove" -->
		<cpt id="song_#67China_Grove" >
			<!-- setting names of outcomes -->
			<state id="recommended" />
			<state id="notRecommended" />
			<!-- add arcs -->
			<parents>clusterPredict </parents>
			<!-- setting probabilities -->
			<probabilities>0.110469051654 0.889530948346 0.0896525882691 0.910347411731 0.10327597269 0.89672402731 0.176355724782 0.823644275218 0.202062097043 0.797937902957 0.110641022563 0.889358977437 0.104479412807 0.895520587193 0.103064130192 0.896935869808 </probabilities>
		</cpt>
		<!-- create node "song #68Pride and Joy" -->
		<cpt id="song_#68Pride_and_Joy" >
			<!-- setting names of outcomes -->
			<state id="recommended" />
			<state id="notRecommended" />
			<!-- add arcs -->
			<parents>clusterPredict </parents>
			<!-- setting probabilities -->
			<probabilities>0.137696357087 0.862303642913 0.0990118446533 0.900988155347 0.0868593259748 0.913140674025 0.137013096244 0.862986903756 0.19983712805 0.80016287195 0.130348538265 0.869651461735 0.1081871254 0.8918128746 0.101046584326 0.898953415674 </probabilities>
		</cpt>
		<!-- create node "song #69Alf Leyla Wa Leyla" -->
		<cpt id="song_#69Alf_Leyla_Wa_Leyla" >
			<!-- setting names of outcomes -->
			<state id="recommended" />
			<state id="notRecommended" />
			<!-- add arcs -->
			<parents>clusterPredict </parents>
			<!-- setting probabilities -->
			<probabilities>0.0862296649665 0.913770335033 0.202130643555 0.797869356445 0.121924289792 0.878075710208 0.144807468566 0.855192531434 0.0892138430417 0.910786156958 0.109550960724 0.890449039276 0.145560057935 0.854439942065 0.100583071419 0.899416928581 </probabilities>
		</cpt>
		<!-- create node "song #70" -->
		<cpt id="song_#70" >
			<!-- setting names of outcomes -->
			<state id="recommended" />
			<state id="notRecommended" />
			<!-- add arcs -->
			<parents>clusterPredict </parents>
			<!-- setting probabilities -->
			<probabilities>0.156518734468 0.843481265532 0.140817936159 0.859182063841 0.110995896174 0.889004103826 0.106798497491 0.893201502509 0.107564488381 0.892435511619 0.149334830106 0.850665169894 0.14060041716 0.85939958284 0.0873692000605 0.91263079994 </probabilities>
		</cpt>
		<!-- create node "song #71Words Of Love" -->
		<cpt id="song_#71Words_Of_Love" >
			<!-- setting names of outcomes -->
			<state id="recommended" />
			<state id="notRecommended" />
			<!-- add arcs -->
			<parents>clusterPredict </parents>
			<!-- setting probabilities -->
			<probabilities>0.0812996915463 0.918700308454 0.11169711109 0.88830288891 0.0950146892585 0.904985310741 0.0886163394707 0.911383660529 0.0679025970046 0.932097402995 0.113863732229 0.886136267771 0.332297306432 0.667702693568 0.109308532968 0.890691467032 </probabilities>
		</cpt>
		<!-- create node "song #72CATCH THE WIND (Original Hickory 45 Vers" -->
		<cpt id="song_#72CATCH_THE_WIND_(Original_Hickory_45_Vers" >
			<!-- setting names of outcomes -->
			<state id="recommended" />
			<state id="notRecommended" />
			<!-- add arcs -->
			<parents>clusterPredict </parents>
			<!-- setting probabilities -->
			<probabilities>0.125387917309 0.874612082691 0.100944957208 0.899055042792 0.121044865854 0.878955134146 0.140087566084 0.859912433916 0.182203173762 0.817796826238 0.127248989336 0.872751010664 0.0975289138588 0.902471086141 0.105553616588 0.894446383412 </probabilities>
		</cpt>
		<!-- create node "song #73The Concept" -->
		<cpt id="song_#73The_Concept" >
			<!-- setting names of outcomes -->
			<state id="recommended" />
			<state id="notRecommended" />
			<!-- add arcs -->
			<parents>clusterPredict </parents>
			<!-- setting probabilities -->
			<probabilities>0.177795843573 0.822204156427 0.10824081199 0.89175918801 0.10018947211 0.89981052789 0.0840732376836 0.915926762316 0.0894938300044 0.910506169996 0.245034239541 0.754965760459 0.120753206797 0.879246793203 0.0744193583023 0.925580641698 </probabilities>
		</cpt>
		<!-- create node "song #74Bonita Applebum" -->
		<cpt id="song_#74Bonita_Applebum" >
			<!-- setting names of outcomes -->
			<state id="recommended" />
			<state id="notRecommended" />
			<!-- add arcs -->
			<parents>clusterPredict </parents>
			<!-- setting probabilities -->
			<probabilities>0.13579158834 0.86420841166 0.113857699807 0.886142300193 0.105364232469 0.894635767531 0.100632432287 0.899367567713 0.0951385953691 0.904861404631 0.130791894836 0.869208105164 0.219886007125 0.780113992875 0.0985375497665 0.901462450233 </probabilities>
		</cpt>
		<!-- create node "song #75El Cuarto de Tula" -->
		<cpt id="song_#75El_Cuarto_de_Tula" >
			<!-- setting names of outcomes -->
			<state id="recommended" />
			<state id="notRecommended" />
			<!-- add arcs -->
			<parents>clusterPredict </parents>
			<!-- setting probabilities -->
			<probabilities>0.158616070751 0.841383929249 0.100387731272 0.899612268728 0.176907243133 0.823092756867 0.110604127579 0.889395872421 0.133560057372 0.866439942628 0.119743376991 0.880256623009 0.108167446269 0.891832553731 0.0920139466328 0.907986053367 </probabilities>
		</cpt>
		<!-- create node "song #76" -->
		<cpt id="song_#76" >
			<!-- setting names of outcomes -->
			<state id="recommended" />
			<state id="notRecommended" />
			<!-- add arcs -->
			<parents>clusterPredict </parents>
			<!-- setting probabilities -->
			<probabilities>0.0965344445648 0.903465555435 0.17260942585 0.82739057415 0.0944606014975 0.905539398503 0.0975340711239 0.902465928876 0.0871864334978 0.912813566502 0.120199458587 0.879800541413 0.121677295802 0.878322704198 0.209798269077 0.790201730923 </probabilities>
		</cpt>
		<!-- create node "song #77Ain't Talkin' 'Bout Love" -->
		<cpt id="song_#77Ain't_Talkin'_'Bout_Love" >
			<!-- setting names of outcomes -->
			<state id="recommended" />
			<state id="notRecommended" />
			<!-- add arcs -->
			<parents>clusterPredict </parents>
			<!-- setting probabilities -->
			<probabilities>0.101114071152 0.898885928848 0.20684037478 0.79315962522 0.141261895886 0.858738104114 0.112072953314 0.887927046686 0.0875896687484 0.912410331252 0.111466704172 0.888533295828 0.146443669959 0.853556330041 0.093210661988 0.906789338012 </probabilities>
		</cpt>
		<!-- create node "song #78Badlands" -->
		<cpt id="song_#78Badlands" >
			<!-- setting names of outcomes -->
			<state id="recommended" />
			<state id="notRecommended" />
			<!-- add arcs -->
			<parents>clusterPredict </parents>
			<!-- setting probabilities -->
			<probabilities>0.164784038266 0.835215961734 0.0889509636742 0.911049036326 0.102810053105 0.897189946895 0.0785135275126 0.921486472487 0.085313896992 0.914686103008 0.303840159377 0.696159840623 0.106386619039 0.893613380961 0.0694007420345 0.930599257966 </probabilities>
		</cpt>
		<!-- create node "song #79Take California" -->
		<cpt id="song_#79Take_California" >
			<!-- setting names of outcomes -->
			<state id="recommended" />
			<state id="notRecommended" />
			<!-- add arcs -->
			<parents>clusterPredict </parents>
			<!-- setting probabilities -->
			<probabilities>0.104423553063 0.895576446937 0.119780402288 0.880219597712 0.214114700489 0.785885299511 0.120268426552 0.879731573448 0.0974670415501 0.90253295845 0.118487485419 0.881512514581 0.131366852459 0.868633147541 0.0940915381797 0.90590846182 </probabilities>
		</cpt>
		<!-- create node "song #80" -->
		<cpt id="song_#80" >
			<!-- setting names of outcomes -->
			<state id="recommended" />
			<state id="notRecommended" />
			<!-- add arcs -->
			<parents>clusterPredict </parents>
			<!-- setting probabilities -->
			<probabilities>0.268166228934 0.731833771066 0.0907390545998 0.9092609454 0.13700745764 0.86299254236 0.0857237203069 0.914276279693 0.107900878092 0.892099121908 0.131337652969 0.868662347031 0.10396838065 0.89603161935 0.0751566268085 0.924843373191 </probabilities>
		</cpt>
		<!-- create node "song #81No Excuses" -->
		<cpt id="song_#81No_Excuses" >
			<!-- setting names of outcomes -->
			<state id="recommended" />
			<state id="notRecommended" />
			<!-- add arcs -->
			<parents>clusterPredict </parents>
			<!-- setting probabilities -->
			<probabilities>0.104933195132 0.895066804868 0.0995931553266 0.900406844673 0.106600555409 0.893399444591 0.203412772989 0.796587227011 0.138607289611 0.861392710389 0.137682833888 0.862317166112 0.125170351212 0.874829648788 0.0839998464331 0.916000153567 </probabilities>
		</cpt>
		<!-- create node "song #82Before And After" -->
		<cpt id="song_#82Before_And_After" >
			<!-- setting names of outcomes -->
			<state id="recommended" />
			<state id="notRecommended" />
			<!-- add arcs -->
			<parents>clusterPredict </parents>
			<!-- setting probabilities -->
			<probabilities>0.0955190491654 0.904480950835 0.149641272274 0.850358727726 0.0902032068264 0.909796793174 0.0995780851259 0.900421914874 0.0897141390672 0.910285860933 0.141888298208 0.858111701792 0.11312344007 0.88687655993 0.220332509263 0.779667490737 </probabilities>
		</cpt>
		<!-- create node "song #83Rotgut" -->
		<cpt id="song_#83Rotgut" >
			<!-- setting names of outcomes -->
			<state id="recommended" />
			<state id="notRecommended" />
			<!-- add arcs -->
			<parents>clusterPredict </parents>
			<!-- setting probabilities -->
			<probabilities>0.090293279632 0.909706720368 0.272925632592 0.727074367408 0.13642916804 0.86357083196 0.104576329637 0.895423670363 0.0808724886783 0.919127511322 0.121888937154 0.878111062846 0.109649190356 0.890350809644 0.0833649739109 0.916635026089 </probabilities>
		</cpt>
		<!-- create node "song #84The Darkness - 04 - I Believe In A Thing Called Love" -->
		<cpt id="song_#84The_Darkness_-_04_-_I_Believe_In_A_Thing_Called_Love" >
			<!-- setting names of outcomes -->
			<state id="recommended" />
			<state id="notRecommended" />
			<!-- add arcs -->
			<parents>clusterPredict </parents>
			<!-- setting probabilities -->
			<probabilities>0.104038221174 0.895961778826 0.117281187053 0.882718812947 0.143157051512 0.856842948488 0.114806801849 0.885193198151 0.0871685002782 0.912831499722 0.138302189429 0.861697810571 0.21129193028 0.78870806972 0.0839541184257 0.916045881574 </probabilities>
		</cpt>
		<!-- create node "song #85 Lost in the Supermarket" -->
		<cpt id="song_#85_Lost_in_the_Supermarket" >
			<!-- setting names of outcomes -->
			<state id="recommended" />
			<state id="notRecommended" />
			<!-- add arcs -->
			<parents>clusterPredict </parents>
			<!-- setting probabilities -->
			<probabilities>0.0992606803969 0.900739319603 0.0910406624018 0.908959337598 0.109565576518 0.890434423482 0.21326561396 0.78673438604 0.15176133755 0.84823866245 0.122069060835 0.877930939165 0.114623582368 0.885376417632 0.0984134859707 0.901586514029 </probabilities>
		</cpt>
		<!-- create node "song #86The Man Comes Around" -->
		<cpt id="song_#86The_Man_Comes_Around" >
			<!-- setting names of outcomes -->
			<state id="recommended" />
			<state id="notRecommended" />
			<!-- add arcs -->
			<parents>clusterPredict </parents>
			<!-- setting probabilities -->
			<probabilities>0.111739373158 0.888260626842 0.108131062002 0.891868937998 0.221929899807 0.778070100193 0.110374610187 0.889625389813 0.0971967070187 0.902803292981 0.151507236884 0.848492763116 0.115821394746 0.884178605254 0.0832997161964 0.916700283804 </probabilities>
		</cpt>
		<!-- create node "song #87Morning Glory (LP Version)" -->
		<cpt id="song_#87Morning_Glory_(LP_Version)" >
			<!-- setting names of outcomes -->
			<state id="recommended" />
			<state id="notRecommended" />
			<!-- add arcs -->
			<parents>clusterPredict </parents>
			<!-- setting probabilities -->
			<probabilities>0.169502812176 0.830497187824 0.121385606638 0.878614393362 0.0909965598622 0.909003440138 0.104324308523 0.895675691477 0.161594749058 0.838405250942 0.122180236873 0.877819763127 0.0970918188853 0.902908181115 0.132923907984 0.867076092016 </probabilities>
		</cpt>
		<!-- create node "song #88Teenage Shutdown (From 'Recharged From The Vaults')" -->
		<cpt id="song_#88Teenage_Shutdown_(From_'Recharged_From_The_Vaults')" >
			<!-- setting names of outcomes -->
			<state id="recommended" />
			<state id="notRecommended" />
			<!-- add arcs -->
			<parents>clusterPredict </parents>
			<!-- setting probabilities -->
			<probabilities>0.095298684942 0.904701315058 0.157096749539 0.842903250461 0.217668271491 0.782331728509 0.115091184045 0.884908815955 0.0871444705087 0.912855529491 0.125213115303 0.874786884697 0.118601282506 0.881398717494 0.0838862416662 0.916113758334 </probabilities>
		</cpt>
		<!-- create node "song #89Genie In A Bottle" -->
		<cpt id="song_#89Genie_In_A_Bottle" >
			<!-- setting names of outcomes -->
			<state id="recommended" />
			<state id="notRecommended" />
			<!-- add arcs -->
			<parents>clusterPredict </parents>
			<!-- setting probabilities -->
			<probabilities>0.112671821243 0.887328178757 0.103771245069 0.896228754931 0.226907902336 0.773092097664 0.105609290111 0.894390709889 0.092101027346 0.907898972654 0.161320014736 0.838679985264 0.120817498734 0.879182501266 0.0768012004261 0.923198799574 </probabilities>
		</cpt>
		<!-- create node "song #90Livin' On A Prayer" -->
		<cpt id="song_#90Livin'_On_A_Prayer" >
			<!-- setting names of outcomes -->
			<state id="recommended" />
			<state id="notRecommended" />
			<!-- add arcs -->
			<parents>clusterPredict </parents>
			<!-- setting probabilities -->
			<probabilities>0.100515438796 0.899484561204 0.0928362936956 0.907163706304 0.113508752873 0.886491247127 0.118912734779 0.881087265221 0.0910435412961 0.908956458704 0.128414821676 0.871585178324 0.262633039138 0.737366960862 0.0921353777465 0.907864622254 </probabilities>
		</cpt>
		<!-- create node "song #91Teen Age Riot" -->
		<cpt id="song_#91Teen_Age_Riot" >
			<!-- setting names of outcomes -->
			<state id="recommended" />
			<state id="notRecommended" />
			<!-- add arcs -->
			<parents>clusterPredict </parents>
			<!-- setting probabilities -->
			<probabilities>0.204162626535 0.795837373465 0.0932605350892 0.906739464911 0.170092851021 0.829907148979 0.090075085754 0.909924914246 0.105193023547 0.894806976453 0.150389533804 0.849610466196 0.109324788468 0.890675211532 0.0775015557828 0.922498444217 </probabilities>
		</cpt>
		<!-- create node "song #92SHA-LA-LA (Make Me Happy)" -->
		<cpt id="song_#92SHA-LA-LA_(Make_Me_Happy)" >
			<!-- setting names of outcomes -->
			<state id="recommended" />
			<state id="notRecommended" />
			<!-- add arcs -->
			<parents>clusterPredict </parents>
			<!-- setting probabilities -->
			<probabilities>0.103925233812 0.896074766188 0.14042670843 0.85957329157 0.0990583466201 0.90094165338 0.175667116214 0.824332883786 0.15107137617 0.84892862383 0.12729566566 0.87270433434 0.0995898639987 0.900410136001 0.102965689095 0.897034310905 </probabilities>
		</cpt>
		<!-- create node "song #93For You And I" -->
		<cpt id="song_#93For_You_And_I" >
			<!-- setting names of outcomes -->
			<state id="recommended" />
			<state id="notRecommended" />
			<!-- add arcs -->
			<parents>clusterPredict </parents>
			<!-- setting probabilities -->
			<probabilities>0.0951072914646 0.904892708535 0.122475235105 0.877524764895 0.0843871329929 0.915612867007 0.0990669328165 0.900933067183 0.0901762518007 0.909823748199 0.130289225397 0.869710774603 0.123262218199 0.876737781801 0.255235712224 0.744764287776 </probabilities>
		</cpt>
		<!-- create node "song #94Love My Way" -->
		<cpt id="song_#94Love_My_Way" >
			<!-- setting names of outcomes -->
			<state id="recommended" />
			<state id="notRecommended" />
			<!-- add arcs -->
			<parents>clusterPredict </parents>
			<!-- setting probabilities -->
			<probabilities>0.0917386010959 0.908261398904 0.097767065955 0.902232934045 0.103309870674 0.896690129326 0.252898959127 0.747101040873 0.124447468661 0.875552531339 0.124368709256 0.875631290744 0.123377027126 0.876622972874 0.082092298105 0.917907701895 </probabilities>
		</cpt>
		<!-- create node "song #95Just Like A Baby" -->
		<cpt id="song_#95Just_Like_A_Baby" >
			<!-- setting names of outcomes -->
			<state id="recommended" />
			<state id="notRecommended" />
			<!-- add arcs -->
			<parents>clusterPredict </parents>
			<!-- setting probabilities -->
			<probabilities>0.189565411724 0.810434588276 0.101779894316 0.898220105684 0.0895050116633 0.910494988337 0.0998762264009 0.900123773599 0.156135752238 0.843864247762 0.122264292883 0.877735707117 0.104082427422 0.895917572578 0.136790983352 0.863209016648 </probabilities>
		</cpt>
		<!-- create node "song #96" -->
		<cpt id="song_#96" >
			<!-- setting names of outcomes -->
			<state id="recommended" />
			<state id="notRecommended" />
			<!-- add arcs -->
			<parents>clusterPredict </parents>
			<!-- setting probabilities -->
			<probabilities>0.109753747895 0.890246252105 0.0955047767465 0.904495223253 0.0948571160732 0.905142883927 0.151421110171 0.848578889829 0.247887643902 0.752112356098 0.104494048298 0.895505951702 0.087627123378 0.912372876622 0.108454433537 0.891545566463 </probabilities>
		</cpt>
		<!-- create node "song #97Baby Got Back" -->
		<cpt id="song_#97Baby_Got_Back" >
			<!-- setting names of outcomes -->
			<state id="recommended" />
			<state id="notRecommended" />
			<!-- add arcs -->
			<parents>clusterPredict </parents>
			<!-- setting probabilities -->
			<probabilities>0.0987592709064 0.901240729094 0.119245612081 0.880754387919 0.101323820593 0.898676179407 0.0942359393175 0.905764060682 0.0781142116733 0.921885788327 0.143313001451 0.856686998549 0.250675965243 0.749324034757 0.114332178734 0.885667821266 </probabilities>
		</cpt>
		<!-- create node "song #98TBD" -->
		<cpt id="song_#98TBD" >
			<!-- setting names of outcomes -->
			<state id="recommended" />
			<state id="notRecommended" />
			<!-- add arcs -->
			<parents>clusterPredict </parents>
			<!-- setting probabilities -->
			<probabilities>0.0886973988162 0.911302601184 0.238018231766 0.761981768234 0.11015674797 0.88984325203 0.105164474666 0.894835525334 0.082140421002 0.917859578998 0.104085450059 0.895914549941 0.134400162245 0.865599837755 0.137337113475 0.862662886525 </probabilities>
		</cpt>
		<!-- create node "song #99Bay City Rollers _ Saturday Night" -->
		<cpt id="song_#99Bay_City_Rollers___Saturday_Night" >
			<!-- setting names of outcomes -->
			<state id="recommended" />
			<state id="notRecommended" />
			<!-- add arcs -->
			<parents>clusterPredict </parents>
			<!-- setting probabilities -->
			<probabilities>0.113537168534 0.886462831466 0.0933834639539 0.906616536046 0.100797083092 0.899202916908 0.185591042276 0.814408957724 0.225383047776 0.774616952224 0.114009195963 0.885990804037 0.0925758457311 0.907424154269 0.0747231526741 0.925276847326 </probabilities>
		</cpt>
		<!-- create node "song #100Just Like Heaven" -->
		<cpt id="song_#100Just_Like_Heaven" >
			<!-- setting names of outcomes -->
			<state id="recommended" />
			<state id="notRecommended" />
			<!-- add arcs -->
			<parents>clusterPredict </parents>
			<!-- setting probabilities -->
			<probabilities>0.250392403871 0.749607596129 0.0910979360871 0.908902063913 0.13015034426 0.86984965574 0.0898282633827 0.910171736617 0.120050736408 0.879949263592 0.131248049605 0.868751950395 0.103031508882 0.896968491118 0.0842007575034 0.915799242497 </probabilities>
		</cpt>
		<!-- create node "song #101" -->
		<cpt id="song_#101" >
			<!-- setting names of outcomes -->
			<state id="recommended" />
			<state id="notRecommended" />
			<!-- add arcs -->
			<parents>clusterPredict </parents>
			<!-- setting probabilities -->
			<probabilities>0.131775382802 0.868224617198 0.104258117778 0.895741882222 0.196925764776 0.803074235224 0.103665551725 0.896334448275 0.0966553049975 0.903344695003 0.119519278262 0.880480721738 0.16013644607 0.83986355393 0.0870641535884 0.912935846412 </probabilities>
		</cpt>
		<!-- create node "song #102Melissa" -->
		<cpt id="song_#102Melissa" >
			<!-- setting names of outcomes -->
			<state id="recommended" />
			<state id="notRecommended" />
			<!-- add arcs -->
			<parents>clusterPredict </parents>
			<!-- setting probabilities -->
			<probabilities>0.10543355746 0.89456644254 0.0985854448728 0.901414555127 0.0858489427085 0.914151057291 0.17644148815 0.82355851185 0.1600740396 0.8399259604 0.126420848372 0.873579151628 0.121791215914 0.878208784086 0.125404462923 0.874595537077 </probabilities>
		</cpt>
		<!-- create node "song #103And She Was" -->
		<cpt id="song_#103And_She_Was" >
			<!-- setting names of outcomes -->
			<state id="recommended" />
			<state id="notRecommended" />
			<!-- add arcs -->
			<parents>clusterPredict </parents>
			<!-- setting probabilities -->
			<probabilities>0.377451282438 0.622548717562 0.0812377120668 0.918762287933 0.0946959039578 0.905304096042 0.0740564680934 0.925943531907 0.104867554786 0.895132445214 0.108849287388 0.891150712612 0.0867709491855 0.913229050814 0.0720708420843 0.927929157916 </probabilities>
		</cpt>
		<!-- create node "song #104Legend" -->
		<cpt id="song_#104Legend" >
			<!-- setting names of outcomes -->
			<state id="recommended" />
			<state id="notRecommended" />
			<!-- add arcs -->
			<parents>clusterPredict </parents>
			<!-- setting probabilities -->
			<probabilities>0.132197952622 0.867802047378 0.168838246386 0.831161753614 0.100246698273 0.899753301727 0.124052554648 0.875947445352 0.127625068909 0.872374931091 0.134445675376 0.865554324624 0.113920813996 0.886079186004 0.0986729897902 0.90132701021 </probabilities>
		</cpt>
		<!-- create node "song #105Garden (Vocal Full Track)" -->
		<cpt id="song_#105Garden_(Vocal_Full_Track)" >
			<!-- setting names of outcomes -->
			<state id="recommended" />
			<state id="notRecommended" />
			<!-- add arcs -->
			<parents>clusterPredict </parents>
			<!-- setting probabilities -->
			<probabilities>0.0951526016321 0.904847398368 0.189541378501 0.810458621499 0.166502379879 0.833497620121 0.117530630122 0.882469369878 0.0923145043293 0.907685495671 0.119398960392 0.880601039608 0.112403772688 0.887596227312 0.107155772456 0.892844227544 </probabilities>
		</cpt>
		<!-- create node "song #106" -->
		<cpt id="song_#106" >
			<!-- setting names of outcomes -->
			<state id="recommended" />
			<state id="notRecommended" />
			<!-- add arcs -->
			<parents>clusterPredict </parents>
			<!-- setting probabilities -->
			<probabilities>0.0913972879762 0.908602712024 0.148798295165 0.851201704835 0.0951056289948 0.904894371005 0.187938072364 0.812061927636 0.118765366304 0.881234633696 0.108088764301 0.891911235699 0.122929707116 0.877070292884 0.126976877779 0.873023122221 </probabilities>
		</cpt>
		<!-- create node "song #107" -->
		<cpt id="song_#107" >
			<!-- setting names of outcomes -->
			<state id="recommended" />
			<state id="notRecommended" />
			<!-- add arcs -->
			<parents>clusterPredict </parents>
			<!-- setting probabilities -->
			<probabilities>0.264400023712 0.735599976288 0.0979707251307 0.902029274869 0.0955906253785 0.904409374621 0.0870262158472 0.912973784153 0.110153400129 0.889846599871 0.156473887502 0.843526112498 0.10937630233 0.89062369767 0.0790088199709 0.920991180029 </probabilities>
		</cpt>
		<!-- create node "song #108" -->
		<cpt id="song_#108" >
			<!-- setting names of outcomes -->
			<state id="recommended" />
			<state id="notRecommended" />
			<!-- add arcs -->
			<parents>clusterPredict </parents>
			<!-- setting probabilities -->
			<probabilities>0.119718600672 0.880281399328 0.118962877626 0.881037122374 0.113148009419 0.886851990581 0.109676055641 0.890323944359 0.0957172414491 0.904282758551 0.213614659363 0.786385340637 0.145491614425 0.854508385575 0.0836709414044 0.916329058596 </probabilities>
		</cpt>
		<!-- create node "song #109Big Me" -->
		<cpt id="song_#109Big_Me" >
			<!-- setting names of outcomes -->
			<state id="recommended" />
			<state id="notRecommended" />
			<!-- add arcs -->
			<parents>clusterPredict </parents>
			<!-- setting probabilities -->
			<probabilities>0.119992212839 0.880007787161 0.1029942636 0.8970057364 0.0961495356857 0.903850464314 0.119687596895 0.880312403105 0.11405270301 0.88594729699 0.223472060393 0.776527939607 0.127136819589 0.872863180411 0.0965148079879 0.903485192012 </probabilities>
		</cpt>
		<!-- create node "song #110Bound To Fall" -->
		<cpt id="song_#110Bound_To_Fall" >
			<!-- setting names of outcomes -->
			<state id="recommended" />
			<state id="notRecommended" />
			<!-- add arcs -->
			<parents>clusterPredict </parents>
			<!-- setting probabilities -->
			<probabilities>0.0994206074585 0.900579392541 0.211772597491 0.788227402509 0.0963150398786 0.903684960121 0.131195824458 0.868804175542 0.108474079139 0.891525920861 0.13931119245 0.86068880755 0.104953872658 0.895046127342 0.108556786468 0.891443213532 </probabilities>
		</cpt>
		<!-- create node "song #111Goodbye on a beautiful day" -->
		<cpt id="song_#111Goodbye_on_a_beautiful_day" >
			<!-- setting names of outcomes -->
			<state id="recommended" />
			<state id="notRecommended" />
			<!-- add arcs -->
			<parents>clusterPredict </parents>
			<!-- setting probabilities -->
			<probabilities>0.0843422853353 0.915657714665 0.25477880276 0.74522119724 0.10518178093 0.89481821907 0.105309302415 0.894690697585 0.0775406860308 0.922459313969 0.106980630012 0.893019369988 0.14780502517 0.85219497483 0.118061487348 0.881938512652 </probabilities>
		</cpt>
		<!-- create node "song #112WHAT'S THE UGLIEST PART OF YOUR BODY?" -->
		<cpt id="song_#112WHAT'S_THE_UGLIEST_PART_OF_YOUR_BODY?" >
			<!-- setting names of outcomes -->
			<state id="recommended" />
			<state id="notRecommended" />
			<!-- add arcs -->
			<parents>clusterPredict </parents>
			<!-- setting probabilities -->
			<probabilities>0.163417706461 0.836582293539 0.139021648134 0.860978351866 0.0982582310516 0.901741768948 0.082527554806 0.917472445194 0.0874369107928 0.912563089207 0.177875381481 0.822124618519 0.137710762852 0.862289237148 0.113751804421 0.886248195579 </probabilities>
		</cpt>
		<!-- create node "song #113" -->
		<cpt id="song_#113" >
			<!-- setting names of outcomes -->
			<state id="recommended" />
			<state id="notRecommended" />
			<!-- add arcs -->
			<parents>clusterPredict </parents>
			<!-- setting probabilities -->
			<probabilities>0.125365092741 0.874634907259 0.184456306278 0.815543693722 0.109719729042 0.890280270958 0.107332546132 0.892667453868 0.105570610088 0.894429389912 0.109296481501 0.890703518499 0.130419664736 0.869580335264 0.127839569482 0.872160430518 </probabilities>
		</cpt>
		<!-- create node "song #114Had To Cry Today" -->
		<cpt id="song_#114Had_To_Cry_Today" >
			<!-- setting names of outcomes -->
			<state id="recommended" />
			<state id="notRecommended" />
			<!-- add arcs -->
			<parents>clusterPredict </parents>
			<!-- setting probabilities -->
			<probabilities>0.0929904379582 0.907009562042 0.0955567834459 0.904443216554 0.115175063492 0.884824936508 0.236985098237 0.763014901763 0.146693694864 0.853306305136 0.110609100144 0.889390899856 0.105298054432 0.894701945568 0.0966917674255 0.903308232575 </probabilities>
		</cpt>
		<!-- create node "song #115I'm Ready" -->
		<cpt id="song_#115I'm_Ready" >
			<!-- setting names of outcomes -->
			<state id="recommended" />
			<state id="notRecommended" />
			<!-- add arcs -->
			<parents>clusterPredict </parents>
			<!-- setting probabilities -->
			<probabilities>0.0955608584315 0.904439141568 0.110053204024 0.889946795976 0.107114392257 0.892885607743 0.0965277108254 0.903472289175 0.079423342545 0.920576657455 0.123389465658 0.876610534342 0.246083011945 0.753916988055 0.141848014315 0.858151985685 </probabilities>
		</cpt>
		<!-- create node "song #116Deuce" -->
		<cpt id="song_#116Deuce" >
			<!-- setting names of outcomes -->
			<state id="recommended" />
			<state id="notRecommended" />
			<!-- add arcs -->
			<parents>clusterPredict </parents>
			<!-- setting probabilities -->
			<probabilities>0.113466259062 0.886533740938 0.0798933536256 0.920106646374 0.0869003999252 0.913099600075 0.157142255307 0.842857744693 0.286083980491 0.713916019509 0.110700463441 0.889299536559 0.0888680441268 0.911131955873 0.0769452440218 0.923054755978 </probabilities>
		</cpt>
		<!-- create node "song #117ALICE'S RESTAURANT MASSACREE (Live)/(CONTENT!)" -->
		<cpt id="song_#117ALICE'S_RESTAURANT_MASSACREE_(Live)/(CONTENT!)" >
			<!-- setting names of outcomes -->
			<state id="recommended" />
			<state id="notRecommended" />
			<!-- add arcs -->
			<parents>clusterPredict </parents>
			<!-- setting probabilities -->
			<probabilities>0.109482790547 0.890517209453 0.136376937885 0.863623062115 0.153121034381 0.846878965619 0.130411692674 0.869588307326 0.11570677867 0.88429322133 0.128141530757 0.871858469243 0.109463279208 0.890536720792 0.117295955878 0.882704044122 </probabilities>
		</cpt>
		<!-- create node "song #118Billie Jean" -->
		<cpt id="song_#118Billie_Jean" >
			<!-- setting names of outcomes -->
			<state id="recommended" />
			<state id="notRecommended" />
			<!-- add arcs -->
			<parents>clusterPredict </parents>
			<!-- setting probabilities -->
			<probabilities>0.124043191052 0.875956808948 0.103934656846 0.896065343154 0.127632264222 0.872367735778 0.104262378507 0.895737621493 0.0917966117326 0.908203388267 0.20881230471 0.79118769529 0.161389478236 0.838610521764 0.0781291146949 0.921870885305 </probabilities>
		</cpt>
		<!-- create node "song #119Let's Make Love (Album Version)" -->
		<cpt id="song_#119Let's_Make_Love_(Album_Version)" >
			<!-- setting names of outcomes -->
			<state id="recommended" />
			<state id="notRecommended" />
			<!-- add arcs -->
			<parents>clusterPredict </parents>
			<!-- setting probabilities -->
			<probabilities>0.0958296031704 0.90417039683 0.208886077742 0.791113922258 0.0947582461739 0.905241753826 0.133837027865 0.866162972135 0.100489411481 0.899510588519 0.122772339502 0.877227660498 0.128302877634 0.871697122366 0.115124416432 0.884875583568 </probabilities>
		</cpt>
		<!-- create node "song #120Quiet Nights Of Quiet Stars (Corcovado)" -->
		<cpt id="song_#120Quiet_Nights_Of_Quiet_Stars_(Corcovado)" >
			<!-- setting names of outcomes -->
			<state id="recommended" />
			<state id="notRecommended" />
			<!-- add arcs -->
			<parents>clusterPredict </parents>
			<!-- setting probabilities -->
			<probabilities>0.115699667321 0.884300332679 0.13539726256 0.86460273744 0.0954990843388 0.904500915661 0.0922278568476 0.907772143152 0.092199816976 0.907800183024 0.113563251175 0.886436748825 0.136245425751 0.863754574249 0.219167635031 0.780832364969 </probabilities>
		</cpt>
		<!-- create node "song #121$1000 WEDDING" -->
		<cpt id="song_#121$1000_WEDDING" >
			<!-- setting names of outcomes -->
			<state id="recommended" />
			<state id="notRecommended" />
			<!-- add arcs -->
			<parents>clusterPredict </parents>
			<!-- setting probabilities -->
			<probabilities>0.134196370019 0.865803629981 0.126152446824 0.873847553176 0.0971711404598 0.90282885954 0.106751683432 0.893248316568 0.119444495763 0.880555504237 0.182619410064 0.817380589936 0.108513258817 0.891486741183 0.125151194621 0.874848805379 </probabilities>
		</cpt>
		<!-- create node "song #122Where You'll Find Me Now" -->
		<cpt id="song_#122Where_You'll_Find_Me_Now" >
			<!-- setting names of outcomes -->
			<state id="recommended" />
			<state id="notRecommended" />
			<!-- add arcs -->
			<parents>clusterPredict </parents>
			<!-- setting probabilities -->
			<probabilities>0.104392936989 0.895607063011 0.11137464722 0.88862535278 0.0942530020149 0.905746997985 0.102512163491 0.897487836509 0.0902174261893 0.909782573811 0.188270462284 0.811729537716 0.16021327797 0.83978672203 0.148766083842 0.851233916158 </probabilities>
		</cpt>
		<!-- create node "song #123Country Grammar (Hot...)" -->
		<cpt id="song_#123Country_Grammar_(Hot...)" >
			<!-- setting names of outcomes -->
			<state id="recommended" />
			<state id="notRecommended" />
			<!-- add arcs -->
			<parents>clusterPredict </parents>
			<!-- setting probabilities -->
			<probabilities>0.116896880324 0.883103119676 0.10824409024 0.89175590976 0.227681585221 0.772318414779 0.0996588471895 0.900341152811 0.0889100293695 0.91108997063 0.171762775002 0.828237224998 0.115243616314 0.884756383686 0.07160217634 0.92839782366 </probabilities>
		</cpt>
		<!-- create node "song #124My Fault" -->
		<cpt id="song_#124My_Fault" >
			<!-- setting names of outcomes -->
			<state id="recommended" />
			<state id="notRecommended" />
			<!-- add arcs -->
			<parents>clusterPredict </parents>
			<!-- setting probabilities -->
			<probabilities>0.116069254048 0.883930745952 0.126898489217 0.873101510783 0.200404390327 0.799595609673 0.0957357890243 0.904264210976 0.0866297623107 0.913370237689 0.142799986645 0.857200013355 0.13492397392 0.86507602608 0.0965383545084 0.903461645492 </probabilities>
		</cpt>
		<!-- create node "song #125Travelin' Band" -->
		<cpt id="song_#125Travelin'_Band" >
			<!-- setting names of outcomes -->
			<state id="recommended" />
			<state id="notRecommended" />
			<!-- add arcs -->
			<parents>clusterPredict </parents>
			<!-- setting probabilities -->
			<probabilities>0.0946451686004 0.9053548314 0.101940770533 0.898059229467 0.234951625039 0.765048374961 0.102399624993 0.897600375007 0.0794931157394 0.920506884261 0.149336807893 0.850663192107 0.153249759061 0.846750240939 0.0839831281403 0.91601687186 </probabilities>
		</cpt>
		<!-- create node "song #126Spanish Banks" -->
		<cpt id="song_#126Spanish_Banks" >
			<!-- setting names of outcomes -->
			<state id="recommended" />
			<state id="notRecommended" />
			<!-- add arcs -->
			<parents>clusterPredict </parents>
			<!-- setting probabilities -->
			<probabilities>0.09154079795 0.90845920205 0.267602617232 0.732397382768 0.109928427016 0.890071572984 0.104556170886 0.895443829114 0.087529297828 0.912470702172 0.126456153222 0.873543846778 0.100233565366 0.899766434634 0.112152970498 0.887847029502 </probabilities>
		</cpt>
		<!-- create node "song #127Behind Closed Doors" -->
		<cpt id="song_#127Behind_Closed_Doors" >
			<!-- setting names of outcomes -->
			<state id="recommended" />
			<state id="notRecommended" />
			<!-- add arcs -->
			<parents>clusterPredict </parents>
			<!-- setting probabilities -->
			<probabilities>0.136857125168 0.863142874832 0.118337375699 0.881662624301 0.0919002722091 0.908099727791 0.0996076475274 0.900392352473 0.112730589693 0.887269410307 0.196217728476 0.803782271524 0.110399365123 0.889600634877 0.133949896104 0.866050103896 </probabilities>
		</cpt>
		<!-- create node "song #128Pressure" -->
		<cpt id="song_#128Pressure" >
			<!-- setting names of outcomes -->
			<state id="recommended" />
			<state id="notRecommended" />
			<!-- add arcs -->
			<parents>clusterPredict </parents>
			<!-- setting probabilities -->
			<probabilities>0.122209084599 0.877790915401 0.235395160656 0.764604839344 0.122762253189 0.877237746811 0.10141028728 0.89858971272 0.0962904048141 0.903709595186 0.11378591091 0.88621408909 0.115261183362 0.884738816638 0.0928857151886 0.907114284811 </probabilities>
		</cpt>
		<!-- create node "song #129James Taylor-Greatest Hits-03-Fire and Rain" -->
		<cpt id="song_#129James_Taylor-Greatest_Hits-03-Fire_and_Rain" >
			<!-- setting names of outcomes -->
			<state id="recommended" />
			<state id="notRecommended" />
			<!-- add arcs -->
			<parents>clusterPredict </parents>
			<!-- setting probabilities -->
			<probabilities>0.114304302686 0.885695697314 0.109148076237 0.890851923763 0.133190961657 0.866809038343 0.109964074105 0.890035925895 0.103393460853 0.896606539147 0.169355953988 0.830644046012 0.125462217377 0.874537782623 0.135180953097 0.864819046903 </probabilities>
		</cpt>
		<!-- create node "song #130Glowworm" -->
		<cpt id="song_#130Glowworm" >
			<!-- setting names of outcomes -->
			<state id="recommended" />
			<state id="notRecommended" />
			<!-- add arcs -->
			<parents>clusterPredict </parents>
			<!-- setting probabilities -->
			<probabilities>0.0833651634195 0.91663483658 0.0902367384161 0.909763261584 0.0849195454183 0.915080454582 0.316185042035 0.683814957965 0.154479574629 0.845520425371 0.108438016932 0.891561983068 0.086845109756 0.913154890244 0.0755308093931 0.924469190607 </probabilities>
		</cpt>
		<!-- create node "song #131Lovefool" -->
		<cpt id="song_#131Lovefool" >
			<!-- setting names of outcomes -->
			<state id="recommended" />
			<state id="notRecommended" />
			<!-- add arcs -->
			<parents>clusterPredict </parents>
			<!-- setting probabilities -->
			<probabilities>0.128506559391 0.871493440609 0.0953937943384 0.904606205662 0.10926625669 0.89073374331 0.0914850646888 0.908514935311 0.0851852018272 0.914814798173 0.258530246888 0.741469753112 0.156886119971 0.843113880029 0.0747467562058 0.925253243794 </probabilities>
		</cpt>
		<!-- create node "song #132Yedi tekrar" -->
		<cpt id="song_#132Yedi_tekrar" >
			<!-- setting names of outcomes -->
			<state id="recommended" />
			<state id="notRecommended" />
			<!-- add arcs -->
			<parents>clusterPredict </parents>
			<!-- setting probabilities -->
			<probabilities>0.0933538453107 0.906646154689 0.137018728575 0.862981271425 0.127085252599 0.872914747401 0.179509905821 0.820490094179 0.119775175715 0.880224824285 0.105087661856 0.894912338144 0.115293598226 0.884706401774 0.122875831896 0.877124168104 </probabilities>
		</cpt>
		<!-- create node "song #133 All Mine" -->
		<cpt id="song_#133_All_Mine" >
			<!-- setting names of outcomes -->
			<state id="recommended" />
			<state id="notRecommended" />
			<!-- add arcs -->
			<parents>clusterPredict </parents>
			<!-- setting probabilities -->
			<probabilities>0.119845557513 0.880154442487 0.113382851357 0.886617148643 0.101966454089 0.898033545911 0.155737678825 0.844262321175 0.136397451405 0.863602548595 0.132498649311 0.867501350689 0.141432126121 0.858567873879 0.0987392313786 0.901260768621 </probabilities>
		</cpt>
		<!-- create node "song #134Rocket" -->
		<cpt id="song_#134Rocket" >
			<!-- setting names of outcomes -->
			<state id="recommended" />
			<state id="notRecommended" />
			<!-- add arcs -->
			<parents>clusterPredict </parents>
			<!-- setting probabilities -->
			<probabilities>0.107888710092 0.892111289908 0.109375656467 0.890624343533 0.0915821520308 0.908417847969 0.0992121414384 0.900787858562 0.0879295385097 0.91207046149 0.249904612231 0.750095387769 0.152106385556 0.847893614444 0.102000803676 0.897999196324 </probabilities>
		</cpt>
		<!-- create node "song #135I Love My Leather Jacket" -->
		<cpt id="song_#135I_Love_My_Leather_Jacket" >
			<!-- setting names of outcomes -->
			<state id="recommended" />
			<state id="notRecommended" />
			<!-- add arcs -->
			<parents>clusterPredict </parents>
			<!-- setting probabilities -->
			<probabilities>0.088351866895 0.911648133105 0.157439902305 0.842560097695 0.143913030229 0.856086969771 0.114378229718 0.885621770282 0.0779490230432 0.922050976957 0.12495657148 0.87504342852 0.205075227716 0.794924772284 0.087936148614 0.912063851386 </probabilities>
		</cpt>
		<!-- create node "song #136Sometimes In Winter" -->
		<cpt id="song_#136Sometimes_In_Winter" >
			<!-- setting names of outcomes -->
			<state id="recommended" />
			<state id="notRecommended" />
			<!-- add arcs -->
			<parents>clusterPredict </parents>
			<!-- setting probabilities -->
			<probabilities>0.0926433375385 0.907356662462 0.104253190894 0.895746809106 0.093706216384 0.906293783616 0.196440450196 0.803559549804 0.146293792277 0.853706207723 0.114387507594 0.885612492406 0.106758741867 0.893241258133 0.145516763249 0.854483236751 </probabilities>
		</cpt>
		<!-- create node "song #137" -->
		<cpt id="song_#137" >
			<!-- setting names of outcomes -->
			<state id="recommended" />
			<state id="notRecommended" />
			<!-- add arcs -->
			<parents>clusterPredict </parents>
			<!-- setting probabilities -->
			<probabilities>0.0876735138266 0.912326486173 0.104427386057 0.895572613943 0.107828128635 0.892171871365 0.0911178904124 0.908882109588 0.0699027930374 0.930097206963 0.190477454345 0.809522545655 0.261663232372 0.738336767628 0.0869096013146 0.913090398685 </probabilities>
		</cpt>
		<!-- create node "song #138Black Hole Sun" -->
		<cpt id="song_#138Black_Hole_Sun" >
			<!-- setting names of outcomes -->
			<state id="recommended" />
			<state id="notRecommended" />
			<!-- add arcs -->
			<parents>clusterPredict </parents>
			<!-- setting probabilities -->
			<probabilities>0.123943410645 0.876056589355 0.0951809822484 0.904819017752 0.10462319597 0.89537680403 0.0931846590957 0.906815340904 0.0860167897996 0.9139832102 0.255482789572 0.744517210428 0.162818661134 0.837181338866 0.0787495115352 0.921250488465 </probabilities>
		</cpt>
		<!-- create node "song #139Perhaps, Perhaps, Perhaps" -->
		<cpt id="song_#139Perhaps,_Perhaps,_Perhaps" >
			<!-- setting names of outcomes -->
			<state id="recommended" />
			<state id="notRecommended" />
			<!-- add arcs -->
			<parents>clusterPredict </parents>
			<!-- setting probabilities -->
			<probabilities>0.100586112339 0.899413887661 0.0985156689498 0.90148433105 0.0973404754052 0.902659524595 0.21439347785 0.78560652215 0.147570680931 0.852429319069 0.142499247772 0.857500752228 0.112138651905 0.887861348095 0.0869556848476 0.913044315152 </probabilities>
		</cpt>
		<!-- create node "song #140Cumbanchero" -->
		<cpt id="song_#140Cumbanchero" >
			<!-- setting names of outcomes -->
			<state id="recommended" />
			<state id="notRecommended" />
			<!-- add arcs -->
			<parents>clusterPredict </parents>
			<!-- setting probabilities -->
			<probabilities>0.137706026001 0.862293973999 0.144900204495 0.855099795505 0.125670380863 0.874329619137 0.102784105599 0.897215894401 0.109785049 0.890214951 0.190200967475 0.809799032525 0.0984483452306 0.901551654769 0.0905049213369 0.909495078663 </probabilities>
		</cpt>
		<!-- create node "song #141I Think We're Alone Now" -->
		<cpt id="song_#141I_Think_We're_Alone_Now" >
			<!-- setting names of outcomes -->
			<state id="recommended" />
			<state id="notRecommended" />
			<!-- add arcs -->
			<parents>clusterPredict </parents>
			<!-- setting probabilities -->
			<probabilities>0.096662526679 0.903337473321 0.103468647062 0.896531352938 0.102695046485 0.897304953515 0.231861690976 0.768138309024 0.138643324395 0.861356675605 0.101611620813 0.898388379187 0.128338923196 0.871661076804 0.0967182203942 0.903281779606 </probabilities>
		</cpt>
		<!-- create node "song #142I'm Crying" -->
		<cpt id="song_#142I'm_Crying" >
			<!-- setting names of outcomes -->
			<state id="recommended" />
			<state id="notRecommended" />
			<!-- add arcs -->
			<parents>clusterPredict </parents>
			<!-- setting probabilities -->
			<probabilities>0.116592063788 0.883407936212 0.0995902145923 0.900409785408 0.0896338323844 0.910366167616 0.0810862691283 0.918913730872 0.0827915609723 0.917208439028 0.363447419623 0.636552580377 0.094323215154 0.905676784846 0.0725354243577 0.927464575642 </probabilities>
		</cpt>
		<!-- create node "song #143Semi-charmed Life" -->
		<cpt id="song_#143Semi-charmed_Life" >
			<!-- setting names of outcomes -->
			<state id="recommended" />
			<state id="notRecommended" />
			<!-- add arcs -->
			<parents>clusterPredict </parents>
			<!-- setting probabilities -->
			<probabilities>0.0963351698084 0.903664830192 0.108741931676 0.891258068324 0.107309510117 0.892690489883 0.103632585719 0.896367414281 0.0793096538439 0.920690346156 0.156846760243 0.843153239757 0.262851257442 0.737148742558 0.0849731311515 0.915026868849 </probabilities>
		</cpt>
		<!-- create node "song #144Crime for a Crime" -->
		<cpt id="song_#144Crime_for_a_Crime" >
			<!-- setting names of outcomes -->
			<state id="recommended" />
			<state id="notRecommended" />
			<!-- add arcs -->
			<parents>clusterPredict </parents>
			<!-- setting probabilities -->
			<probabilities>0.129835887011 0.870164112989 0.188435354925 0.811564645075 0.142414382273 0.857585617727 0.104672354792 0.895327645208 0.110212594966 0.889787405034 0.119168013921 0.880831986079 0.100402595184 0.899597404816 0.104858816927 0.895141183073 </probabilities>
		</cpt>
		<!-- create node "song #145Song For Bob Dylan (1999 Digital Remaster)" -->
		<cpt id="song_#145Song_For_Bob_Dylan_(1999_Digital_Remaster)" >
			<!-- setting names of outcomes -->
			<state id="recommended" />
			<state id="notRecommended" />
			<!-- add arcs -->
			<parents>clusterPredict </parents>
			<!-- setting probabilities -->
			<probabilities>0.0976786109914 0.902321389009 0.143890496861 0.856109503139 0.105167683818 0.894832316182 0.20241681958 0.79758318042 0.14998947939 0.85001052061 0.108676664894 0.891323335106 0.0964202648235 0.903579735177 0.0957599796421 0.904240020358 </probabilities>
		</cpt>
		<!-- create node "song #146I Would Hurt A Fly (Live) (Album Version)" -->
		<cpt id="song_#146I_Would_Hurt_A_Fly_(Live)_(Album_Version)" >
			<!-- setting names of outcomes -->
			<state id="recommended" />
			<state id="notRecommended" />
			<!-- add arcs -->
			<parents>clusterPredict </parents>
			<!-- setting probabilities -->
			<probabilities>0.0995997233767 0.900400276623 0.210178167284 0.789821832716 0.138699945463 0.861300054537 0.113450825618 0.886549174382 0.0889061352798 0.91109386472 0.148645020726 0.851354979274 0.116181433627 0.883818566373 0.084338748626 0.915661251374 </probabilities>
		</cpt>
		<!-- create node "song #147Barely Breathing" -->
		<cpt id="song_#147Barely_Breathing" >
			<!-- setting names of outcomes -->
			<state id="recommended" />
			<state id="notRecommended" />
			<!-- add arcs -->
			<parents>clusterPredict </parents>
			<!-- setting probabilities -->
			<probabilities>0.11023680187 0.88976319813 0.126441141249 0.873558858751 0.132963610878 0.867036389122 0.0894415654995 0.910558434501 0.0783551909511 0.921644809049 0.245150775901 0.754849224099 0.136356538309 0.863643461691 0.0810543753434 0.918945624657 </probabilities>
		</cpt>
		<!-- create node "song #148Since I Lost My Baby -Single Version (Mono)" -->
		<cpt id="song_#148Since_I_Lost_My_Baby_-Single_Version_(Mono)" >
			<!-- setting names of outcomes -->
			<state id="recommended" />
			<state id="notRecommended" />
			<!-- add arcs -->
			<parents>clusterPredict </parents>
			<!-- setting probabilities -->
			<probabilities>0.111157461903 0.888842538097 0.273052135778 0.726947864222 0.0951713344733 0.904828665527 0.0968668380375 0.903133161962 0.0889149509214 0.911085049079 0.124384798733 0.875615201267 0.117114154616 0.882885845384 0.0933383255371 0.906661674463 </probabilities>
		</cpt>
		<!-- create node "song #149" -->
		<cpt id="song_#149" >
			<!-- setting names of outcomes -->
			<state id="recommended" />
			<state id="notRecommended" />
			<!-- add arcs -->
			<parents>clusterPredict </parents>
			<!-- setting probabilities -->
			<probabilities>0.24745307291 0.75254692709 0.100462445888 0.899537554112 0.0905153429912 0.909484657009 0.0890642153793 0.910935784621 0.115339013461 0.884660986539 0.152205782882 0.847794217118 0.114107131465 0.885892868535 0.0908529950226 0.909147004977 </probabilities>
		</cpt>
		<!-- create node "song #150Don't Believe A Word" -->
		<cpt id="song_#150Don't_Believe_A_Word" >
			<!-- setting names of outcomes -->
			<state id="recommended" />
			<state id="notRecommended" />
			<!-- add arcs -->
			<parents>clusterPredict </parents>
			<!-- setting probabilities -->
			<probabilities>0.153394964885 0.846605035115 0.113161657803 0.886838342197 0.149758489109 0.850241510891 0.101235561254 0.898764438746 0.101578510325 0.898421489675 0.118387190367 0.881612809633 0.16602561118 0.83397438882 0.0964580150773 0.903541984923 </probabilities>
		</cpt>
		<!-- create node "song #151When You Sleep" -->
		<cpt id="song_#151When_You_Sleep" >
			<!-- setting names of outcomes -->
			<state id="recommended" />
			<state id="notRecommended" />
			<!-- add arcs -->
			<parents>clusterPredict </parents>
			<!-- setting probabilities -->
			<probabilities>0.2743595068 0.7256404932 0.0849842433421 0.915015756658 0.108563880418 0.891436119582 0.0799921415892 0.920007858411 0.100560110478 0.899439889522 0.166602413388 0.833397586612 0.104850698805 0.895149301195 0.0800870051787 0.919912994821 </probabilities>
		</cpt>
		<!-- create node "song #152Thank U" -->
		<cpt id="song_#152Thank_U" >
			<!-- setting names of outcomes -->
			<state id="recommended" />
			<state id="notRecommended" />
			<!-- add arcs -->
			<parents>clusterPredict </parents>
			<!-- setting probabilities -->
			<probabilities>0.133306647459 0.866693352541 0.123745433752 0.876254566248 0.110955728467 0.889044271533 0.0994139745054 0.900586025495 0.0991668542392 0.900833145761 0.217477660752 0.782522339248 0.121420579569 0.878579420431 0.0945131212565 0.905486878743 </probabilities>
		</cpt>
		<!-- create node "song #153Lazy Sunday - Original" -->
		<cpt id="song_#153Lazy_Sunday_-_Original" >
			<!-- setting names of outcomes -->
			<state id="recommended" />
			<state id="notRecommended" />
			<!-- add arcs -->
			<parents>clusterPredict </parents>
			<!-- setting probabilities -->
			<probabilities>0.106352962426 0.893647037574 0.113169120972 0.886830879028 0.0969849401607 0.903015059839 0.165260911434 0.834739088566 0.201005675129 0.798994324871 0.118676287637 0.881323712363 0.0890807763105 0.910919223689 0.109469325931 0.890530674069 </probabilities>
		</cpt>
		<!-- create node "song #154One Last Love Song" -->
		<cpt id="song_#154One_Last_Love_Song" >
			<!-- setting names of outcomes -->
			<state id="recommended" />
			<state id="notRecommended" />
			<!-- add arcs -->
			<parents>clusterPredict </parents>
			<!-- setting probabilities -->
			<probabilities>0.163766029023 0.836233970977 0.109640743665 0.890359256335 0.135742404211 0.864257595789 0.11008372813 0.88991627187 0.154941258105 0.845058741895 0.132326741076 0.867673258924 0.0942233926792 0.905776607321 0.0992757031106 0.900724296889 </probabilities>
		</cpt>
		<!-- create node "song #155" -->
		<cpt id="song_#155" >
			<!-- setting names of outcomes -->
			<state id="recommended" />
			<state id="notRecommended" />
			<!-- add arcs -->
			<parents>clusterPredict </parents>
			<!-- setting probabilities -->
			<probabilities>0.10499053271 0.89500946729 0.113697076033 0.886302923967 0.245948536741 0.754051463259 0.109793555609 0.890206444391 0.0928128218681 0.907187178132 0.139299200446 0.860700799554 0.112934189304 0.887065810696 0.0805240872882 0.919475912712 </probabilities>
		</cpt>
		<!-- create node "song #156Sweet Thang" -->
		<cpt id="song_#156Sweet_Thang" >
			<!-- setting names of outcomes -->
			<state id="recommended" />
			<state id="notRecommended" />
			<!-- add arcs -->
			<parents>clusterPredict </parents>
			<!-- setting probabilities -->
			<probabilities>0.107506971968 0.892493028032 0.13182909144 0.86817090856 0.131756840274 0.868243159726 0.105030584911 0.894969415089 0.0941054230038 0.905894576996 0.218783237379 0.781216762621 0.109214816123 0.890785183877 0.101773034901 0.898226965099 </probabilities>
		</cpt>
		<!-- create node "song #157Caravan" -->
		<cpt id="song_#157Caravan" >
			<!-- setting names of outcomes -->
			<state id="recommended" />
			<state id="notRecommended" />
			<!-- add arcs -->
			<parents>clusterPredict </parents>
			<!-- setting probabilities -->
			<probabilities>0.104214714025 0.895785285975 0.18850640636 0.81149359364 0.0980891579383 0.901910842062 0.109131416511 0.890868583489 0.10224221058 0.89775778942 0.140756349719 0.859243650281 0.105005694537 0.894994305463 0.15205405033 0.84794594967 </probabilities>
		</cpt>
		<!-- create node "song #158Under the Milky Way" -->
		<cpt id="song_#158Under_the_Milky_Way" >
			<!-- setting names of outcomes -->
			<state id="recommended" />
			<state id="notRecommended" />
			<!-- add arcs -->
			<parents>clusterPredict </parents>
			<!-- setting probabilities -->
			<probabilities>0.118485022395 0.881514977605 0.103271258047 0.896728741953 0.134980466249 0.865019533751 0.097333249331 0.902666750669 0.087689019148 0.912310980852 0.123987657919 0.876012342081 0.225196100895 0.774803899105 0.109057226017 0.890942773983 </probabilities>
		</cpt>
		<!-- create node "song #159" -->
		<cpt id="song_#159" >
			<!-- setting names of outcomes -->
			<state id="recommended" />
			<state id="notRecommended" />
			<!-- add arcs -->
			<parents>clusterPredict </parents>
			<!-- setting probabilities -->
			<probabilities>0.104745869389 0.895254130611 0.20963688143 0.79036311857 0.100408163827 0.899591836173 0.0972004516622 0.902799548338 0.0869367483524 0.913063251648 0.114218364438 0.885781635562 0.139892121359 0.860107878641 0.146961399542 0.853038600458 </probabilities>
		</cpt>
		<!-- create node "song #160Day After Day" -->
		<cpt id="song_#160Day_After_Day" >
			<!-- setting names of outcomes -->
			<state id="recommended" />
			<state id="notRecommended" />
			<!-- add arcs -->
			<parents>clusterPredict </parents>
			<!-- setting probabilities -->
			<probabilities>0.0980839853755 0.901916014624 0.152884721737 0.847115278263 0.138257626113 0.861742373887 0.0995533412006 0.900446658799 0.0811466776764 0.918853322324 0.212687385522 0.787312614478 0.123259709724 0.876740290276 0.0941265526512 0.905873447349 </probabilities>
		</cpt>
		<!-- create node "song #161" -->
		<cpt id="song_#161" >
			<!-- setting names of outcomes -->
			<state id="recommended" />
			<state id="notRecommended" />
			<!-- add arcs -->
			<parents>clusterPredict </parents>
			<!-- setting probabilities -->
			<probabilities>0.190775195129 0.809224804871 0.105027214803 0.894972785197 0.0901962136134 0.909803786387 0.100519274942 0.899480725058 0.161888451982 0.838111548018 0.123977531044 0.876022468956 0.100029449173 0.899970550827 0.127586669314 0.872413330686 </probabilities>
		</cpt>
		<!-- create node "song #162ANEURYSM (Live)/(LYRICS!) *SAFE HARBOR*" -->
		<cpt id="song_#162ANEURYSM_(Live)/(LYRICS!)_*SAFE_HARBOR*" >
			<!-- setting names of outcomes -->
			<state id="recommended" />
			<state id="notRecommended" />
			<!-- add arcs -->
			<parents>clusterPredict </parents>
			<!-- setting probabilities -->
			<probabilities>0.167500517946 0.832499482054 0.113993559961 0.886006440039 0.152239649945 0.847760350055 0.0983279370044 0.901672062996 0.10211658099 0.89788341901 0.177014842272 0.822985157728 0.115888733641 0.884111266359 0.0729181782413 0.927081821759 </probabilities>
		</cpt>
		<!-- create node "song #163" -->
		<cpt id="song_#163" >
			<!-- setting names of outcomes -->
			<state id="recommended" />
			<state id="notRecommended" />
			<!-- add arcs -->
			<parents>clusterPredict </parents>
			<!-- setting probabilities -->
			<probabilities>0.306109974316 0.693890025684 0.0886014601666 0.911398539833 0.0882331650113 0.911766834989 0.0816380766573 0.918361923343 0.115193657379 0.884806342621 0.130241931779 0.869758068221 0.100538399603 0.899461600397 0.0894433350877 0.910556664912 </probabilities>
		</cpt>
		<!-- create node "song #164Higher education" -->
		<cpt id="song_#164Higher_education" >
			<!-- setting names of outcomes -->
			<state id="recommended" />
			<state id="notRecommended" />
			<!-- add arcs -->
			<parents>clusterPredict </parents>
			<!-- setting probabilities -->
			<probabilities>0.102255049837 0.897744950163 0.148926571953 0.851073428047 0.102465490754 0.897534509246 0.181211789399 0.818788210601 0.138355324808 0.861644675192 0.122880807224 0.877119192776 0.105725076485 0.894274923515 0.0981798895392 0.901820110461 </probabilities>
		</cpt>
		<!-- create node "song #165For Once In My Life" -->
		<cpt id="song_#165For_Once_In_My_Life" >
			<!-- setting names of outcomes -->
			<state id="recommended" />
			<state id="notRecommended" />
			<!-- add arcs -->
			<parents>clusterPredict </parents>
			<!-- setting probabilities -->
			<probabilities>0.160989153496 0.839010846504 0.100410785993 0.899589214007 0.0989993651388 0.901000634861 0.0901328751197 0.90986712488 0.0988968078184 0.901103192182 0.181306753137 0.818693246863 0.145616215048 0.854383784952 0.123648044249 0.876351955751 </probabilities>
		</cpt>
		<!-- create node "song #166Speedway" -->
		<cpt id="song_#166Speedway" >
			<!-- setting names of outcomes -->
			<state id="recommended" />
			<state id="notRecommended" />
			<!-- add arcs -->
			<parents>clusterPredict </parents>
			<!-- setting probabilities -->
			<probabilities>0.130015429494 0.869984570506 0.123407756114 0.876592243886 0.149250849365 0.850749150635 0.0988828075375 0.901117192463 0.0999737167712 0.900026283229 0.212045845492 0.787954154508 0.100973750964 0.899026249036 0.0854498442629 0.914550155737 </probabilities>
		</cpt>
		<!-- create node "song #167Gonna Make You Sweat (Everybody Dance Now)" -->
		<cpt id="song_#167Gonna_Make_You_Sweat_(Everybody_Dance_Now)" >
			<!-- setting names of outcomes -->
			<state id="recommended" />
			<state id="notRecommended" />
			<!-- add arcs -->
			<parents>clusterPredict </parents>
			<!-- setting probabilities -->
			<probabilities>0.111006617481 0.888993382519 0.109794654077 0.890205345923 0.208750541766 0.791249458234 0.0836527985478 0.916347201452 0.0745790821253 0.925420917875 0.184935229136 0.815064770864 0.144220910767 0.855779089233 0.0830601660994 0.916939833901 </probabilities>
		</cpt>
		<!-- create node "song #168September" -->
		<cpt id="song_#168September" >
			<!-- setting names of outcomes -->
			<state id="recommended" />
			<state id="notRecommended" />
			<!-- add arcs -->
			<parents>clusterPredict </parents>
			<!-- setting probabilities -->
			<probabilities>0.133327092797 0.866672907203 0.0804772858228 0.919522714177 0.0888519136222 0.911148086378 0.129146944414 0.870853055586 0.288088003195 0.711911996805 0.105247511008 0.894752488992 0.0913375970509 0.908662402949 0.0835236520902 0.91647634791 </probabilities>
		</cpt>
		<!-- create node "song #169November Rain" -->
		<cpt id="song_#169November_Rain" >
			<!-- setting names of outcomes -->
			<state id="recommended" />
			<state id="notRecommended" />
			<!-- add arcs -->
			<parents>clusterPredict </parents>
			<!-- setting probabilities -->
			<probabilities>0.19226645871 0.80773354129 0.103393994578 0.896606005422 0.124878165076 0.875121834924 0.101764811162 0.898235188838 0.138372976606 0.861627023394 0.122522270257 0.877477729743 0.108795232398 0.891204767602 0.108006091212 0.891993908788 </probabilities>
		</cpt>
		<!-- create node "song #170How Will I Know" -->
		<cpt id="song_#170How_Will_I_Know" >
			<!-- setting names of outcomes -->
			<state id="recommended" />
			<state id="notRecommended" />
			<!-- add arcs -->
			<parents>clusterPredict </parents>
			<!-- setting probabilities -->
			<probabilities>0.430210011526 0.569789988474 0.0735331379903 0.92646686201 0.0808064057264 0.919193594274 0.0634009117436 0.936599088256 0.0826237772618 0.917376222738 0.12940098586 0.87059901414 0.0798692119818 0.920130788018 0.06015555791 0.93984444209 </probabilities>
		</cpt>
		<!-- create node "song #171Venus" -->
		<cpt id="song_#171Venus" >
			<!-- setting names of outcomes -->
			<state id="recommended" />
			<state id="notRecommended" />
			<!-- add arcs -->
			<parents>clusterPredict </parents>
			<!-- setting probabilities -->
			<probabilities>0.0936293341605 0.90637066584 0.0941580465417 0.905841953458 0.0902621675733 0.909737832427 0.0841494181795 0.91585058182 0.0754059136095 0.92459408639 0.374937156276 0.625062843724 0.108371824226 0.891628175774 0.0790861394333 0.920913860567 </probabilities>
		</cpt>
		<!-- create node "song #172Clocks (Radio Edit)" -->
		<cpt id="song_#172Clocks_(Radio_Edit)" >
			<!-- setting names of outcomes -->
			<state id="recommended" />
			<state id="notRecommended" />
			<!-- add arcs -->
			<parents>clusterPredict </parents>
			<!-- setting probabilities -->
			<probabilities>0.193026815069 0.806973184931 0.094636163005 0.905363836995 0.12757082953 0.87242917047 0.0953042947365 0.904695705264 0.110998808449 0.889001191551 0.186905350559 0.813094649441 0.113220542541 0.886779457459 0.0783371961106 0.921662803889 </probabilities>
		</cpt>
		<!-- create node "song #173How Soon Is Now?" -->
		<cpt id="song_#173How_Soon_Is_Now?" >
			<!-- setting names of outcomes -->
			<state id="recommended" />
			<state id="notRecommended" />
			<!-- add arcs -->
			<parents>clusterPredict </parents>
			<!-- setting probabilities -->
			<probabilities>0.254851591331 0.745148408669 0.0948942543012 0.905105745699 0.0999921021967 0.900007897803 0.0904783518668 0.909521648133 0.122060196762 0.877939803238 0.147873102184 0.852126897816 0.105449969577 0.894550030423 0.0844004317814 0.915599568219 </probabilities>
		</cpt>
		<!-- create node "song #174BURNIN' FOR YOU" -->
		<cpt id="song_#174BURNIN'_FOR_YOU" >
			<!-- setting names of outcomes -->
			<state id="recommended" />
			<state id="notRecommended" />
			<!-- add arcs -->
			<parents>clusterPredict </parents>
			<!-- setting probabilities -->
			<probabilities>0.104992739279 0.895007260721 0.0992691551849 0.900730844815 0.120449448711 0.879550551289 0.0944858130504 0.90551418695 0.0849671892093 0.915032810791 0.299301542394 0.700698457606 0.113920958884 0.886079041116 0.0826131532866 0.917386846713 </probabilities>
		</cpt>
		<!-- create node "song #175Cybele's Reverie" -->
		<cpt id="song_#175Cybele's_Reverie" >
			<!-- setting names of outcomes -->
			<state id="recommended" />
			<state id="notRecommended" />
			<!-- add arcs -->
			<parents>clusterPredict </parents>
			<!-- setting probabilities -->
