<?xml version="1.0" encoding="ISO-8859-1"?>
<smile version="1.0" id="SongRecommender" numsamples="1000" discsamples="10000">
	<nodes>
		<!-- create node "clusterPredict" -->
		<cpt id="clusterPredict" >
			<!-- setting names of outcomes -->
			<state id="c1" />
			<state id="c2" />
			<state id="c3" />
			<state id="c4" />
			<state id="c5" />
			<state id="c6" />
			<state id="c7" />
			<state id="c8" />
			<state id="c9" />
			<state id="c10" />
			<state id="c11" />
			<state id="c12" />
			<state id="c13" />
			<!-- setting probabilities -->
			<probabilities>0.0769230769231 0.0769230769231 0.0769230769231 0.0769230769231 0.0769230769231 0.0769230769231 0.0769230769231 0.0769230769231 0.0769230769231 0.0769230769231 0.0769230769231 0.0769230769231 0.0769230769231 </probabilities>
		</cpt>
		<!-- create node "song_1_" -->
		<cpt id="song_1_" >
			<!-- setting names of outcomes -->
			<state id="recommended" />
			<state id="notRecommended" />
			<!-- add arcs -->
			<parents>clusterPredict </parents>
			<!-- setting probabilities -->
			<probabilities>0.102342671654 0.897657328346 0.0745481810025 0.925451818997 0.051576724849 0.948423275151 0.077279415636 0.922720584364 0.0800018895889 0.919998110411 0.0648855124982 0.935114487502 0.0694938766178 0.930506123382 0.0716184066077 0.928381593392 0.139900017584 0.860099982416 0.0771136111468 0.922886388853 0.0661950896494 0.933804910351 0.0573202241179 0.942679775882 0.067724379047 0.932275620953 </probabilities>
		</cpt>
		<!-- create node "song_2_" -->
		<cpt id="song_2_" >
			<!-- setting names of outcomes -->
			<state id="recommended" />
			<state id="notRecommended" />
			<!-- add arcs -->
			<parents>clusterPredict </parents>
			<!-- setting probabilities -->
			<probabilities>0.117446061389 0.882553938611 0.0668262937946 0.933173706205 0.0452827911612 0.954717208839 0.0665342114678 0.933465788532 0.055763172536 0.944236827464 0.0563701326111 0.943629867389 0.0724772970624 0.927522702938 0.0890348313801 0.91096516862 0.133712352281 0.866287647719 0.117730756567 0.882269243433 0.0679924955413 0.932007504459 0.0472897632233 0.952710236777 0.0635398409843 0.936460159016 </probabilities>
		</cpt>
		<!-- create node "song_3_" -->
		<cpt id="song_3_" >
			<!-- setting names of outcomes -->
			<state id="recommended" />
			<state id="notRecommended" />
			<!-- add arcs -->
			<parents>clusterPredict </parents>
			<!-- setting probabilities -->
			<probabilities>0.0896033569821 0.910396643018 0.0560168770861 0.943983122914 0.0528793796217 0.947120620378 0.0518364946884 0.948163505312 0.0567357089212 0.943264291079 0.129014332522 0.870985667478 0.0978605645084 0.902139435492 0.0637548001871 0.936245199813 0.0602734499627 0.939726550037 0.0715812991352 0.928418700865 0.132971907149 0.867028092851 0.0710681146355 0.928931885364 0.0664037146009 0.933596285399 </probabilities>
		</cpt>
		<!-- create node "song_4_" -->
		<cpt id="song_4_" >
			<!-- setting names of outcomes -->
			<state id="recommended" />
			<state id="notRecommended" />
			<!-- add arcs -->
			<parents>clusterPredict </parents>
			<!-- setting probabilities -->
			<probabilities>0.0635712590663 0.936428740934 0.078991763525 0.921008236475 0.0904330722135 0.909566927786 0.07492981493 0.92507018507 0.107372647869 0.892627352131 0.0863508264342 0.913649173566 0.0646131549683 0.935386845032 0.0543196869927 0.945680313007 0.0650071412278 0.934992858772 0.0646057970203 0.93539420298 0.078062605531 0.921937394469 0.103201228463 0.896798771537 0.0685410017584 0.931458998242 </probabilities>
		</cpt>
		<!-- create node "song_5_" -->
		<cpt id="song_5_" >
			<!-- setting names of outcomes -->
			<state id="recommended" />
			<state id="notRecommended" />
			<!-- add arcs -->
			<parents>clusterPredict </parents>
			<!-- setting probabilities -->
			<probabilities>0.189926197692 0.810073802308 0.0598988826355 0.940101117365 0.045784976433 0.954215023567 0.0604523276437 0.939547672356 0.0553679804201 0.94463201958 0.0732675301755 0.926732469825 0.0655371301167 0.934462869883 0.064137469587 0.935862530413 0.0943733259028 0.905626674097 0.0906337725313 0.909366227469 0.0794377340409 0.920562265959 0.0502075798419 0.949792420158 0.0709750929796 0.92902490702 </probabilities>
		</cpt>
		<!-- create node "song_6_" -->
		<cpt id="song_6_" >
			<!-- setting names of outcomes -->
			<state id="recommended" />
			<state id="notRecommended" />
			<!-- add arcs -->
			<parents>clusterPredict </parents>
			<!-- setting probabilities -->
			<probabilities>0.0697074120101 0.93029258799 0.0750090130704 0.92499098693 0.142492201448 0.857507798552 0.0670769286826 0.932923071317 0.0566694456733 0.943330554327 0.0674407801335 0.932559219867 0.0547085710852 0.945291428915 0.0599421376218 0.940057862378 0.0593445832529 0.940655416747 0.113063110225 0.886936889775 0.08531026215 0.91468973785 0.0650808338168 0.934919166183 0.0841547208312 0.915845279169 </probabilities>
		</cpt>
		<!-- create node "song_7_" -->
		<cpt id="song_7_" >
			<!-- setting names of outcomes -->
			<state id="recommended" />
			<state id="notRecommended" />
			<!-- add arcs -->
			<parents>clusterPredict </parents>
			<!-- setting probabilities -->
			<probabilities>0.102945091058 0.897054908942 0.0687461910054 0.931253808995 0.0522925234715 0.947707476529 0.0690661637663 0.930933836234 0.0437465586318 0.956253441368 0.0578452543527 0.942154745647 0.0612527199928 0.938747280007 0.134290707199 0.865709292801 0.0675977121168 0.932402287883 0.128064778657 0.871935221343 0.0597406189404 0.94025938106 0.0495432338639 0.950456766136 0.104868446944 0.895131553056 </probabilities>
		</cpt>
		<!-- create node "song_8_" -->
		<cpt id="song_8_" >
			<!-- setting names of outcomes -->
			<state id="recommended" />
			<state id="notRecommended" />
			<!-- add arcs -->
			<parents>clusterPredict </parents>
			<!-- setting probabilities -->
			<probabilities>0.068234808367 0.931765191633 0.0621662588154 0.937833741185 0.0977256415355 0.902274358464 0.127834865396 0.872165134604 0.0675565470916 0.932443452908 0.0718702456561 0.928129754344 0.0639067549499 0.93609324505 0.0678454370668 0.932154562933 0.0843803757115 0.915619624288 0.079926716874 0.920073283126 0.0724705960249 0.927529403975 0.0562043488876 0.943795651112 0.0798774036235 0.920122596376 </probabilities>
		</cpt>
		<!-- create node "song_9_" -->
		<cpt id="song_9_" >
			<!-- setting names of outcomes -->
			<state id="recommended" />
			<state id="notRecommended" />
			<!-- add arcs -->
			<parents>clusterPredict </parents>
			<!-- setting probabilities -->
			<probabilities>0.0755923340399 0.92440766596 0.0546226424137 0.945377357586 0.0460719930043 0.953928006996 0.0584673324592 0.941532667541 0.0605270441332 0.939472955867 0.107430605726 0.892569394274 0.185267351752 0.814732648248 0.071698425266 0.928301574734 0.0666594783673 0.933340521633 0.0618526795594 0.938147320441 0.0858189423244 0.914181057676 0.0662226847492 0.933777315251 0.0597684862054 0.940231513795 </probabilities>
		</cpt>
		<!-- create node "song_10_" -->
		<cpt id="song_10_" >
			<!-- setting names of outcomes -->
			<state id="recommended" />
			<state id="notRecommended" />
			<!-- add arcs -->
			<parents>clusterPredict </parents>
			<!-- setting probabilities -->
			<probabilities>0.128986864928 0.871013135072 0.0711223422683 0.928877657732 0.0451873968043 0.954812603196 0.084482931905 0.915517068095 0.0588492780017 0.941150721998 0.0584084182863 0.941591581714 0.0616461809136 0.938353819086 0.080662294746 0.919337705254 0.147953319649 0.852046680351 0.0819900922725 0.918009907728 0.056347151884 0.943652848116 0.0486832091291 0.951316790871 0.0756805192128 0.924319480787 </probabilities>
		</cpt>
		<!-- create node "song_11_" -->
		<cpt id="song_11_" >
			<!-- setting names of outcomes -->
			<state id="recommended" />
			<state id="notRecommended" />
			<!-- add arcs -->
			<parents>clusterPredict </parents>
			<!-- setting probabilities -->
			<probabilities>0.128731554618 0.871268445382 0.0666711527883 0.933328847212 0.0458390979027 0.954160902097 0.0622811721068 0.937718827893 0.0627161654505 0.937283834549 0.0542132435559 0.945786756444 0.0587338966687 0.941266103331 0.0644014680565 0.935598531944 0.182532803546 0.817467196454 0.100776459748 0.899223540252 0.0668051195308 0.933194880469 0.046231158179 0.953768841821 0.0600667078486 0.939933292151 </probabilities>
		</cpt>
		<!-- create node "song_12_" -->
		<cpt id="song_12_" >
			<!-- setting names of outcomes -->
			<state id="recommended" />
			<state id="notRecommended" />
			<!-- add arcs -->
			<parents>clusterPredict </parents>
			<!-- setting probabilities -->
			<probabilities>0.0639453726705 0.936054627329 0.0493246012736 0.950675398726 0.0565337185643 0.943466281436 0.0554812766521 0.944518723348 0.0469590249845 0.953040975016 0.25828848269 0.74171151731 0.0774031805736 0.922596819426 0.0596144885118 0.940385511488 0.0471119065413 0.952888093459 0.0553624503834 0.944637549617 0.0776871531846 0.922312846815 0.0736449459553 0.926355054045 0.0786433980146 0.921356601985 </probabilities>
		</cpt>
		<!-- create node "song_13_" -->
		<cpt id="song_13_" >
			<!-- setting names of outcomes -->
			<state id="recommended" />
			<state id="notRecommended" />
			<!-- add arcs -->
			<parents>clusterPredict </parents>
			<!-- setting probabilities -->
			<probabilities>0.0942622328751 0.905737767125 0.0623194028149 0.937680597185 0.0548862610438 0.945113738956 0.0623438877499 0.93765611225 0.0426908923806 0.957309107619 0.0726701935207 0.927329806479 0.073660814611 0.926339185389 0.131914569516 0.868085430484 0.057523342249 0.942476657751 0.109777603311 0.890222396689 0.0710552730399 0.92894472696 0.0558198081079 0.944180191892 0.111075718781 0.888924281219 </probabilities>
		</cpt>
		<!-- create node "song_14_" -->
		<cpt id="song_14_" >
			<!-- setting names of outcomes -->
			<state id="recommended" />
			<state id="notRecommended" />
			<!-- add arcs -->
			<parents>clusterPredict </parents>
			<!-- setting probabilities -->
			<probabilities>0.0880691272132 0.911930872787 0.0537919656996 0.9462080343 0.0614038853029 0.938596114697 0.0589863647579 0.941013635242 0.0641791473218 0.935820852678 0.0980660755594 0.901933924441 0.0821790366344 0.917820963366 0.060832637206 0.939167362794 0.0768155543528 0.923184445647 0.0796970466553 0.920302953345 0.153655670968 0.846344329032 0.0580816080861 0.941918391914 0.0642418802425 0.935758119757 </probabilities>
		</cpt>
		<!-- create node "song_15_" -->
		<cpt id="song_15_" >
			<!-- setting names of outcomes -->
			<state id="recommended" />
			<state id="notRecommended" />
			<!-- add arcs -->
			<parents>clusterPredict </parents>
			<!-- setting probabilities -->
			<probabilities>0.0915097960615 0.908490203939 0.126549726894 0.873450273106 0.053729276625 0.946270723375 0.0683767246412 0.931623275359 0.103226536409 0.896773463591 0.0628865077218 0.937113492278 0.0605135869332 0.939486413067 0.0603078288638 0.939692171136 0.0926418356893 0.907358164311 0.0749336019394 0.925066398061 0.0639089511055 0.936091048895 0.0747519589277 0.925248041072 0.0666636681888 0.933336331811 </probabilities>
		</cpt>
		<!-- create node "song_16_" -->
		<cpt id="song_16_" >
			<!-- setting names of outcomes -->
			<state id="recommended" />
			<state id="notRecommended" />
			<!-- add arcs -->
			<parents>clusterPredict </parents>
			<!-- setting probabilities -->
			<probabilities>0.10791729512 0.89208270488 0.0638029954985 0.936197004502 0.0680731657051 0.931926834295 0.0654039520172 0.934596047983 0.0455725205797 0.95442747942 0.0637341980201 0.93626580198 0.0517871702054 0.948212829795 0.0690013181842 0.930998681816 0.0650054945749 0.934994505425 0.161304073893 0.838695926107 0.0728723209472 0.927127679053 0.0495775535935 0.950422446407 0.115947941662 0.884052058338 </probabilities>
		</cpt>
		<!-- create node "song_17_" -->
		<cpt id="song_17_" >
			<!-- setting names of outcomes -->
			<state id="recommended" />
			<state id="notRecommended" />
			<!-- add arcs -->
			<parents>clusterPredict </parents>
			<!-- setting probabilities -->
			<probabilities>0.0762689694692 0.923731030531 0.0704002195369 0.929599780463 0.0774618661301 0.92253813387 0.06246821446 0.93753178554 0.0527706556283 0.947229344372 0.0623954059793 0.937604594021 0.0720895057833 0.927910494217 0.0938233784647 0.906176621535 0.0659840924465 0.934015907553 0.145685015215 0.854314984785 0.0868044787091 0.913195521291 0.059376759182 0.940623240818 0.0744714389953 0.925528561005 </probabilities>
		</cpt>
		<!-- create node "song_18_" -->
		<cpt id="song_18_" >
			<!-- setting names of outcomes -->
			<state id="recommended" />
			<state id="notRecommended" />
			<!-- add arcs -->
			<parents>clusterPredict </parents>
			<!-- setting probabilities -->
			<probabilities>0.0702155006779 0.929784499322 0.0781927999808 0.921807200019 0.110516872483 0.889483127517 0.0654956885259 0.934504311474 0.0853082309257 0.914691769074 0.0750327006866 0.924967299313 0.0637722005985 0.936227799401 0.0588491042756 0.941150895724 0.067831694207 0.932168305793 0.0798618032538 0.920138196746 0.0921158617963 0.907884138204 0.0832157684215 0.916784231578 0.0695917741672 0.930408225833 </probabilities>
		</cpt>
		<!-- create node "song_19_" -->
		<cpt id="song_19_" >
			<!-- setting names of outcomes -->
			<state id="recommended" />
			<state id="notRecommended" />
			<!-- add arcs -->
			<parents>clusterPredict </parents>
			<!-- setting probabilities -->
			<probabilities>0.0603568879974 0.939643112003 0.0596776822434 0.940322317757 0.135701178709 0.864298821291 0.0751985157534 0.924801484247 0.057462651337 0.942537348663 0.090345408782 0.909654591218 0.0762729935233 0.923727006477 0.0696641491222 0.930335850878 0.0569092060758 0.943090793924 0.076364384372 0.923635615628 0.0917043343423 0.908295665658 0.0719293886407 0.928070611359 0.078413219101 0.921586780899 </probabilities>
		</cpt>
		<!-- create node "song_20_" -->
		<cpt id="song_20_" >
			<!-- setting names of outcomes -->
			<state id="recommended" />
			<state id="notRecommended" />
			<!-- add arcs -->
			<parents>clusterPredict </parents>
			<!-- setting probabilities -->
			<probabilities>0.0702430219369 0.929756978063 0.0853160867913 0.914683913209 0.0800939274529 0.919906072547 0.0555271518814 0.944472848119 0.0863547567804 0.91364524322 0.081559496949 0.918440503051 0.0660210186443 0.933978981356 0.0548492467988 0.945150753201 0.0596725221363 0.940327477864 0.0734512280288 0.926548771971 0.0990772130517 0.900922786948 0.123089979821 0.876910020179 0.0647443497268 0.935255650273 </probabilities>
		</cpt>
		<!-- create node "song_21_" -->
		<cpt id="song_21_" >
			<!-- setting names of outcomes -->
			<state id="recommended" />
			<state id="notRecommended" />
			<!-- add arcs -->
			<parents>clusterPredict </parents>
			<!-- setting probabilities -->
			<probabilities>0.0779170765319 0.922082923468 0.0686681916575 0.931331808342 0.0502291681945 0.949770831805 0.0683931716408 0.931606828359 0.0492578054544 0.950742194546 0.0643512718411 0.935648728159 0.0880605395719 0.911939460428 0.19265777529 0.80734222471 0.0644925026011 0.935507497399 0.0764462576175 0.923553742382 0.0594019139582 0.940598086042 0.0603260941493 0.939673905851 0.0797982314917 0.920201768508 </probabilities>
		</cpt>
		<!-- create node "song_22_" -->
		<cpt id="song_22_" >
			<!-- setting names of outcomes -->
			<state id="recommended" />
			<state id="notRecommended" />
			<!-- add arcs -->
			<parents>clusterPredict </parents>
			<!-- setting probabilities -->
			<probabilities>0.0648946210778 0.935105378922 0.0649615204749 0.935038479525 0.136260474594 0.863739525406 0.100362739657 0.899637260343 0.0733915884715 0.926608411528 0.0724105547424 0.927589445258 0.0600443082638 0.939955691736 0.0600075059866 0.939992494013 0.0751449855547 0.924855014445 0.0785028776574 0.921497122343 0.0771833115559 0.922816688444 0.0611115210838 0.938888478916 0.0757239908804 0.92427600912 </probabilities>
		</cpt>
		<!-- create node "song_23_" -->
		<cpt id="song_23_" >
			<!-- setting names of outcomes -->
			<state id="recommended" />
			<state id="notRecommended" />
			<!-- add arcs -->
			<parents>clusterPredict </parents>
			<!-- setting probabilities -->
			<probabilities>0.081254486645 0.918745513355 0.0674425491122 0.932557450888 0.0511174987754 0.948882501225 0.118481172985 0.881518827015 0.050796525128 0.949203474872 0.0695491053131 0.930450894687 0.072480431046 0.927519568954 0.126922623927 0.873077376073 0.072880003659 0.927119996341 0.0702539061285 0.929746093872 0.0540109185704 0.94598908143 0.056266573089 0.943733426911 0.108544205622 0.891455794378 </probabilities>
		</cpt>
		<!-- create node "song_24_" -->
		<cpt id="song_24_" >
			<!-- setting names of outcomes -->
			<state id="recommended" />
			<state id="notRecommended" />
			<!-- add arcs -->
			<parents>clusterPredict </parents>
			<!-- setting probabilities -->
			<probabilities>0.0681546253547 0.931845374645 0.0616368441682 0.938363155832 0.0577197053663 0.942280294634 0.0997972944519 0.900202705548 0.051504633602 0.948495366398 0.086470100143 0.913529899857 0.0999790223723 0.900020977628 0.12371500564 0.87628499436 0.0625319201696 0.93746807983 0.0683823451989 0.931617654801 0.062803358214 0.937196641786 0.0644746396483 0.935525360352 0.0928305056704 0.90716949433 </probabilities>
		</cpt>
		<!-- create node "song_25_" -->
		<cpt id="song_25_" >
			<!-- setting names of outcomes -->
			<state id="recommended" />
			<state id="notRecommended" />
			<!-- add arcs -->
			<parents>clusterPredict </parents>
			<!-- setting probabilities -->
			<probabilities>0.140521995861 0.859478004139 0.0636661459721 0.936333854028 0.045770598372 0.954229401628 0.0560722564364 0.943927743564 0.0441404304393 0.955859569561 0.0713216780849 0.928678321915 0.078105301541 0.921894698459 0.124194519673 0.875805480327 0.0627621715488 0.937237828451 0.0976429707354 0.902357029265 0.0692702851274 0.930729714873 0.0553400512768 0.944659948723 0.0911915949321 0.908808405068 </probabilities>
		</cpt>
		<!-- create node "song_26_" -->
		<cpt id="song_26_" >
			<!-- setting names of outcomes -->
			<state id="recommended" />
			<state id="notRecommended" />
			<!-- add arcs -->
			<parents>clusterPredict </parents>
			<!-- setting probabilities -->
			<probabilities>0.0718054852082 0.928194514792 0.0609377588155 0.939062241184 0.0732094571352 0.926790542865 0.0607317567843 0.939268243216 0.0632266530798 0.93677334692 0.0708603863303 0.92913961367 0.0830612879787 0.916938712021 0.067837677279 0.932162322721 0.0734786493775 0.926521350623 0.11097299128 0.88902700872 0.144588180584 0.855411819416 0.0587805796898 0.94121942031 0.0605091364579 0.939490863542 </probabilities>
		</cpt>
		<!-- create node "song_27_" -->
		<cpt id="song_27_" >
			<!-- setting names of outcomes -->
			<state id="recommended" />
			<state id="notRecommended" />
			<!-- add arcs -->
			<parents>clusterPredict </parents>
			<!-- setting probabilities -->
			<probabilities>0.0746603844367 0.925339615563 0.102848925054 0.897151074946 0.0597959521071 0.940204047893 0.0631335414557 0.936866458544 0.0687260083509 0.931273991649 0.0863870790936 0.913612920906 0.0652169073035 0.934783092697 0.0613665964552 0.938633403545 0.0567612200833 0.943238779917 0.0650016989191 0.934998301081 0.0661948026178 0.933805197382 0.148138469678 0.851861530322 0.0817684144453 0.918231585555 </probabilities>
		</cpt>
		<!-- create node "song_28_" -->
		<cpt id="song_28_" >
			<!-- setting names of outcomes -->
			<state id="recommended" />
			<state id="notRecommended" />
			<!-- add arcs -->
			<parents>clusterPredict </parents>
			<!-- setting probabilities -->
			<probabilities>0.0762018086842 0.923798191316 0.0650938371978 0.934906162802 0.0606927635061 0.939307236494 0.0650899003576 0.934910099642 0.0458998855087 0.954100114491 0.068588578831 0.931411421169 0.0832014297666 0.916798570233 0.155298154292 0.844701845708 0.0584828243667 0.941517175633 0.101231553419 0.898768446581 0.0714601140733 0.928539885927 0.0598422460885 0.940157753911 0.0889169039091 0.911083096091 </probabilities>
		</cpt>
		<!-- create node "song_29_" -->
		<cpt id="song_29_" >
			<!-- setting names of outcomes -->
			<state id="recommended" />
			<state id="notRecommended" />
			<!-- add arcs -->
			<parents>clusterPredict </parents>
			<!-- setting probabilities -->
			<probabilities>0.0710636875654 0.928936312435 0.0587967032198 0.94120329678 0.0564505254671 0.943549474533 0.0661575370376 0.933842462962 0.0528185720149 0.947181427985 0.0833471518695 0.916652848131 0.142747481002 0.857252518998 0.101529703089 0.898470296911 0.0641116149597 0.93588838504 0.0831624413373 0.916837558663 0.0889656935899 0.91103430641 0.0623001065908 0.937699893409 0.068548782257 0.931451217743 </probabilities>
		</cpt>
		<!-- create node "song_30_" -->
		<cpt id="song_30_" >
			<!-- setting names of outcomes -->
			<state id="recommended" />
			<state id="notRecommended" />
			<!-- add arcs -->
			<parents>clusterPredict </parents>
			<!-- setting probabilities -->
			<probabilities>0.0530514269195 0.94694857308 0.0432270503749 0.956772949625 0.0617030007233 0.938296999277 0.0403386416392 0.959661358361 0.0472146299992 0.952785370001 0.0710453877567 0.928954612243 0.0610742901659 0.938925709834 0.0443493904663 0.955650609534 0.0451913927612 0.954808607239 0.0638528286434 0.936147171357 0.368959842604 0.631040157396 0.0532195914727 0.946780408527 0.0467725264741 0.953227473526 </probabilities>
		</cpt>
		<!-- create node "song_31_" -->
		<cpt id="song_31_" >
			<!-- setting names of outcomes -->
			<state id="recommended" />
			<state id="notRecommended" />
			<!-- add arcs -->
			<parents>clusterPredict </parents>
			<!-- setting probabilities -->
			<probabilities>0.0946443326572 0.905355667343 0.0548286932282 0.945171306772 0.0594996289663 0.940500371034 0.0554941877481 0.944505812252 0.0501502377421 0.949849762258 0.156089840027 0.843910159973 0.0707625573853 0.929237442615 0.0606641842779 0.939335815722 0.0561466403281 0.943853359672 0.0756824374259 0.924317562574 0.113395584898 0.886604415102 0.0655364338008 0.934463566199 0.0871052415147 0.912894758485 </probabilities>
		</cpt>
		<!-- create node "song_32_" -->
		<cpt id="song_32_" >
			<!-- setting names of outcomes -->
			<state id="recommended" />
			<state id="notRecommended" />
			<!-- add arcs -->
			<parents>clusterPredict </parents>
			<!-- setting probabilities -->
			<probabilities>0.140745058056 0.859254941944 0.0697196928141 0.930280307186 0.0447942371954 0.955205762805 0.0741127500722 0.925887249928 0.0507749327885 0.949225067211 0.0533828367708 0.946617163229 0.05929078514 0.94070921486 0.0912595049264 0.908740495074 0.124775799644 0.875224200356 0.113620729437 0.886379270563 0.0573161701428 0.942683829857 0.0450587753291 0.954941224671 0.0751487276839 0.924851272316 </probabilities>
		</cpt>
		<!-- create node "song_33_" -->
		<cpt id="song_33_" >
			<!-- setting names of outcomes -->
			<state id="recommended" />
			<state id="notRecommended" />
			<!-- add arcs -->
			<parents>clusterPredict </parents>
			<!-- setting probabilities -->
			<probabilities>0.0720192479552 0.927980752045 0.0659054671177 0.934094532882 0.0512790585548 0.948720941445 0.0739132060973 0.926086793903 0.073305697216 0.926694302784 0.0761286549259 0.923871345074 0.146100751504 0.853899248496 0.0913940879774 0.908605912023 0.0828882418148 0.917111758185 0.0662128153001 0.9337871847 0.0705033171139 0.929496682886 0.0682632542298 0.93173674577 0.0620862001932 0.937913799807 </probabilities>
		</cpt>
		<!-- create node "song_34_" -->
		<cpt id="song_34_" >
			<!-- setting names of outcomes -->
			<state id="recommended" />
			<state id="notRecommended" />
			<!-- add arcs -->
			<parents>clusterPredict </parents>
			<!-- setting probabilities -->
			<probabilities>0.0643301498588 0.935669850141 0.0490217418718 0.950978258128 0.0526562379651 0.947343762035 0.0576302035511 0.942369796449 0.0484547414333 0.951545258567 0.267744630587 0.732255369413 0.0793594567422 0.920640543258 0.0589427482277 0.941057251772 0.0487658649475 0.951234135052 0.0532946331004 0.9467053669 0.0728117881993 0.927188211801 0.0712726483243 0.928727351676 0.0757151551916 0.924284844808 </probabilities>
		</cpt>
		<!-- create node "song_35_" -->
		<cpt id="song_35_" >
			<!-- setting names of outcomes -->
			<state id="recommended" />
			<state id="notRecommended" />
			<!-- add arcs -->
			<parents>clusterPredict </parents>
			<!-- setting probabilities -->
			<probabilities>0.0936499183438 0.906350081656 0.0616757585449 0.938324241455 0.0588451544683 0.941154845532 0.0853337486759 0.914666251324 0.0456597801492 0.954340219851 0.0710713988111 0.928928601189 0.0512168179439 0.948783182056 0.0690792742492 0.930920725751 0.0620566482374 0.937943351763 0.0762439200209 0.923756079979 0.0563789511758 0.943621048824 0.0516591317813 0.948340868219 0.217129497598 0.782870502402 </probabilities>
		</cpt>
		<!-- create node "song_36_" -->
		<cpt id="song_36_" >
			<!-- setting names of outcomes -->
			<state id="recommended" />
			<state id="notRecommended" />
			<!-- add arcs -->
			<parents>clusterPredict </parents>
			<!-- setting probabilities -->
			<probabilities>0.0711935861976 0.928806413802 0.0537565417588 0.946243458241 0.0594940672961 0.940505932704 0.0821443641169 0.917855635883 0.0389375360586 0.961062463941 0.066600494371 0.933399505629 0.0496823132002 0.9503176868 0.0722674233837 0.927732576616 0.0512860990482 0.948713900952 0.074133843875 0.925866156125 0.0530570037536 0.946942996246 0.047387506776 0.952612493224 0.280059220164 0.719940779836 </probabilities>
		</cpt>
		<!-- create node "song_37_" -->
		<cpt id="song_37_" >
			<!-- setting names of outcomes -->
			<state id="recommended" />
			<state id="notRecommended" />
			<!-- add arcs -->
			<parents>clusterPredict </parents>
			<!-- setting probabilities -->
			<probabilities>0.0918339593029 0.908166040697 0.0711911310853 0.928808868915 0.0596031493675 0.940396850633 0.0605370984252 0.939462901575 0.0473845694346 0.952615430565 0.0556382607264 0.944361739274 0.0617937780425 0.938206221958 0.100661146682 0.899338853318 0.0688081757545 0.931191824246 0.182044047651 0.817955952349 0.0696788964908 0.930321103509 0.0515126185791 0.948487381421 0.0793131684577 0.920686831542 </probabilities>
		</cpt>
		<!-- create node "song_38_" -->
		<cpt id="song_38_" >
			<!-- setting names of outcomes -->
			<state id="recommended" />
			<state id="notRecommended" />
			<!-- add arcs -->
			<parents>clusterPredict </parents>
			<!-- setting probabilities -->
			<probabilities>0.0809589587151 0.919041041285 0.0686885852688 0.931311414731 0.0537989323287 0.946201067671 0.12996645745 0.87003354255 0.0692836567087 0.930716343291 0.0772089712161 0.922791028784 0.0760254981923 0.923974501808 0.0811505150336 0.918849484966 0.0944076976289 0.905592302371 0.0653199501417 0.934680049858 0.0592934694472 0.940706530553 0.0611131745414 0.938886825459 0.0827841333279 0.917215866672 </probabilities>
		</cpt>
		<!-- create node "song_39_" -->
		<cpt id="song_39_" >
			<!-- setting names of outcomes -->
			<state id="recommended" />
			<state id="notRecommended" />
			<!-- add arcs -->
			<parents>clusterPredict </parents>
			<!-- setting probabilities -->
			<probabilities>0.109902323753 0.890097676247 0.0537057382233 0.946294261777 0.0485203711036 0.951479628896 0.0644425514064 0.935557448594 0.0430548251531 0.956945174847 0.0904426774951 0.909557322505 0.0858789497782 0.914121050222 0.130213647823 0.869786352177 0.0614907812856 0.938509218714 0.0793539202462 0.920646079754 0.0695609191182 0.930439080882 0.0531279212956 0.946872078704 0.110305373318 0.889694626682 </probabilities>
		</cpt>
		<!-- create node "song_40_" -->
		<cpt id="song_40_" >
			<!-- setting names of outcomes -->
			<state id="recommended" />
			<state id="notRecommended" />
			<!-- add arcs -->
			<parents>clusterPredict </parents>
			<!-- setting probabilities -->
			<probabilities>0.0823105824838 0.917689417516 0.0588399966265 0.941160003373 0.0512054598798 0.94879454012 0.0792251961803 0.92077480382 0.0405493823766 0.959450617623 0.0682312169077 0.931768783092 0.0563313115876 0.943668688412 0.0962336768962 0.903766323104 0.0547776306285 0.945222369372 0.0718807430083 0.928119256992 0.0520364863632 0.947963513637 0.0510574851197 0.94894251488 0.237320831942 0.762679168058 </probabilities>
		</cpt>
		<!-- create node "song_41_" -->
		<cpt id="song_41_" >
			<!-- setting names of outcomes -->
			<state id="recommended" />
			<state id="notRecommended" />
			<!-- add arcs -->
			<parents>clusterPredict </parents>
			<!-- setting probabilities -->
			<probabilities>0.147282067808 0.852717932192 0.0674645054308 0.932535494569 0.0427069382539 0.957293061746 0.0621485177739 0.937851482226 0.0515742485576 0.948425751442 0.0691128068567 0.930887193143 0.0868613726327 0.913138627367 0.114931234836 0.885068765164 0.081444970781 0.918555029219 0.080364429232 0.919635570768 0.0636417465524 0.936358253448 0.0557500468477 0.944249953152 0.076717114437 0.923282885563 </probabilities>
		</cpt>
		<!-- create node "song_42_" -->
		<cpt id="song_42_" >
			<!-- setting names of outcomes -->
			<state id="recommended" />
			<state id="notRecommended" />
			<!-- add arcs -->
			<parents>clusterPredict </parents>
			<!-- setting probabilities -->
			<probabilities>0.0682368432685 0.931763156731 0.0602918092175 0.939708190782 0.0493394372208 0.950660562779 0.0652900767801 0.93470992322 0.060468648281 0.939531351719 0.0858704451972 0.914129554803 0.185547441674 0.814452558326 0.0933319371046 0.906668062895 0.0648399223776 0.935160077622 0.0612146379566 0.938785362043 0.0695756010099 0.93042439899 0.0723999097233 0.927600090277 0.0635932901891 0.936406709811 </probabilities>
		</cpt>
		<!-- create node "song_43_" -->
		<cpt id="song_43_" >
			<!-- setting names of outcomes -->
			<state id="recommended" />
			<state id="notRecommended" />
			<!-- add arcs -->
			<parents>clusterPredict </parents>
			<!-- setting probabilities -->
			<probabilities>0.0681652025691 0.931834797431 0.154341442164 0.845658557836 0.0570804415989 0.942919558401 0.0749318389844 0.925068161016 0.119707237643 0.880292762357 0.0535751955898 0.94642480441 0.0583451233204 0.94165487668 0.0595741516345 0.940425848365 0.0922909232723 0.907709076728 0.0757296861291 0.924270313871 0.0588539425499 0.94114605745 0.0689137460093 0.931086253991 0.058491068536 0.941508931464 </probabilities>
		</cpt>
		<!-- create node "song_44_" -->
		<cpt id="song_44_" >
			<!-- setting names of outcomes -->
			<state id="recommended" />
			<state id="notRecommended" />
			<!-- add arcs -->
			<parents>clusterPredict </parents>
			<!-- setting probabilities -->
			<probabilities>0.0740608452033 0.925939154797 0.116526000126 0.883473999874 0.0638749731719 0.936125026828 0.0749227038325 0.925077296167 0.0608352724836 0.939164727516 0.0725790593712 0.927420940629 0.0659883754637 0.934011624536 0.0795123372421 0.920487662758 0.0592707009853 0.940729299015 0.0729615495722 0.927038450428 0.0603605695393 0.939639430461 0.101313137299 0.898686862701 0.0977944757099 0.90220552429 </probabilities>
		</cpt>
		<!-- create node "song_45_" -->
		<cpt id="song_45_" >
			<!-- setting names of outcomes -->
			<state id="recommended" />
			<state id="notRecommended" />
			<!-- add arcs -->
			<parents>clusterPredict </parents>
			<!-- setting probabilities -->
			<probabilities>0.0738236587617 0.926176341238 0.0575495436534 0.942450456347 0.0565415042646 0.943458495735 0.18423160592 0.81576839408 0.0483657921553 0.951634207845 0.0764153322354 0.923584667765 0.0596271892356 0.940372810764 0.0754227622827 0.924577237717 0.0675594464733 0.932440553527 0.06827000438 0.93172999562 0.0553387834004 0.9446612166 0.050895331786 0.949104668214 0.125959045451 0.874040954549 </probabilities>
		</cpt>
		<!-- create node "song_46_" -->
		<cpt id="song_46_" >
			<!-- setting names of outcomes -->
			<state id="recommended" />
			<state id="notRecommended" />
			<!-- add arcs -->
			<parents>clusterPredict </parents>
			<!-- setting probabilities -->
			<probabilities>0.076177775084 0.923822224916 0.0622362133241 0.937763786676 0.0737142691138 0.926285730886 0.0794928534392 0.920507146561 0.0436358496972 0.956364150303 0.0704172560506 0.929582743949 0.056267730028 0.943732269972 0.084716753097 0.915283246903 0.0554253186287 0.944574681371 0.0891071002264 0.910892899774 0.061623962013 0.938376037987 0.0550940953495 0.944905904651 0.192090823948 0.807909176052 </probabilities>
		</cpt>
		<!-- create node "song_47_" -->
		<cpt id="song_47_" >
			<!-- setting names of outcomes -->
			<state id="recommended" />
			<state id="notRecommended" />
			<!-- add arcs -->
			<parents>clusterPredict </parents>
			<!-- setting probabilities -->
			<probabilities>0.0837992615276 0.916200738472 0.0553040304934 0.944695969507 0.0606782815944 0.939321718406 0.0683406767696 0.93165932323 0.0415643027975 0.958435697202 0.0791193961316 0.920880603868 0.0501624547888 0.949837545211 0.0634307249606 0.936569275039 0.051934413738 0.948065586262 0.0722232966631 0.927776703337 0.0591341701322 0.940865829868 0.0523117520327 0.947688247967 0.26199723837 0.73800276163 </probabilities>
		</cpt>
		<!-- create node "song_48_" -->
		<cpt id="song_48_" >
			<!-- setting names of outcomes -->
			<state id="recommended" />
			<state id="notRecommended" />
			<!-- add arcs -->
			<parents>clusterPredict </parents>
			<!-- setting probabilities -->
			<probabilities>0.103080572906 0.896919427094 0.0650773303357 0.934922669664 0.0472219792585 0.952778020742 0.0793789810649 0.920621018935 0.0730575496418 0.926942450358 0.0853152003726 0.914684799627 0.0928319931838 0.907168006816 0.0752265491409 0.924773450859 0.109826344482 0.890173655518 0.068431648887 0.931568351113 0.0701648980749 0.929835101925 0.0605744506091 0.939425549391 0.0698125020428 0.930187497957 </probabilities>
		</cpt>
		<!-- create node "song_49_" -->
		<cpt id="song_49_" >
			<!-- setting names of outcomes -->
			<state id="recommended" />
			<state id="notRecommended" />
			<!-- add arcs -->
			<parents>clusterPredict </parents>
			<!-- setting probabilities -->
			<probabilities>0.103434998411 0.896565001589 0.0638684394319 0.936131560568 0.0586904649562 0.941309535044 0.0728150929383 0.927184907062 0.0516955122992 0.948304487701 0.103718888165 0.896281111835 0.0637277408797 0.93627225912 0.0720324642976 0.927967535702 0.062320158793 0.937679841207 0.071304112378 0.928695887622 0.0677477720268 0.932252227973 0.0654803764975 0.934519623502 0.143163978926 0.856836021074 </probabilities>
		</cpt>
		<!-- create node "song_50_" -->
		<cpt id="song_50_" >
			<!-- setting names of outcomes -->
			<state id="recommended" />
			<state id="notRecommended" />
			<!-- add arcs -->
			<parents>clusterPredict </parents>
			<!-- setting probabilities -->
			<probabilities>0.0972457751694 0.902754224831 0.0535175815813 0.946482418419 0.0493773109284 0.950622689072 0.0668471862664 0.933152813734 0.0404717925344 0.959528207466 0.0687822767452 0.931217723255 0.0725043259795 0.92749567402 0.177877466552 0.822122533448 0.0615063915257 0.938493608474 0.0917473847046 0.908252615295 0.0628575749278 0.937142425072 0.0475716046509 0.952428395349 0.109693328435 0.890306671565 </probabilities>
		</cpt>
		<!-- create node "song_51_" -->
		<cpt id="song_51_" >
			<!-- setting names of outcomes -->
			<state id="recommended" />
			<state id="notRecommended" />
			<!-- add arcs -->
			<parents>clusterPredict </parents>
			<!-- setting probabilities -->
			<probabilities>0.0649325729377 0.935067427062 0.10958422865 0.89041577135 0.0824742050941 0.917525794906 0.0780181821622 0.921981817838 0.101614299587 0.898385700413 0.0589515838514 0.941048416149 0.0647242832797 0.93527571672 0.0654886819974 0.934511318003 0.0806787333594 0.919321266641 0.0853509622731 0.914649037727 0.0701467877241 0.929853212276 0.0750210102849 0.924978989715 0.0630144687983 0.936985531202 </probabilities>
		</cpt>
		<!-- create node "song_52_" -->
		<cpt id="song_52_" >
			<!-- setting names of outcomes -->
			<state id="recommended" />
			<state id="notRecommended" />
			<!-- add arcs -->
			<parents>clusterPredict </parents>
			<!-- setting probabilities -->
			<probabilities>0.0645031342448 0.935496865755 0.0553903109569 0.944609689043 0.120763634796 0.879236365204 0.0681384702714 0.931861529729 0.0538001289354 0.946199871065 0.103428242727 0.896571757273 0.0766450194736 0.923354980526 0.069491682636 0.930508317364 0.0560345832367 0.943965416763 0.0767790568299 0.92322094317 0.104343998831 0.895656001169 0.0681251020953 0.931874897905 0.0825566349665 0.917443365033 </probabilities>
		</cpt>
		<!-- create node "song_53_" -->
		<cpt id="song_53_" >
			<!-- setting names of outcomes -->
			<state id="recommended" />
			<state id="notRecommended" />
			<!-- add arcs -->
			<parents>clusterPredict </parents>
			<!-- setting probabilities -->
			<probabilities>0.0684077843364 0.931592215664 0.068013698644 0.931986301356 0.135187339751 0.864812660249 0.0901512614872 0.909848738513 0.0552777588049 0.944722241195 0.0665233350685 0.933476664932 0.0575885503584 0.942411449642 0.0715473691894 0.928452630811 0.0652057894712 0.934794210529 0.0961367306408 0.903863269359 0.0709260093301 0.92907399067 0.0586675582179 0.941332441782 0.0963668147002 0.9036331853 </probabilities>
		</cpt>
		<!-- create node "song_54_" -->
		<cpt id="song_54_" >
			<!-- setting names of outcomes -->
			<state id="recommended" />
			<state id="notRecommended" />
			<!-- add arcs -->
			<parents>clusterPredict </parents>
			<!-- setting probabilities -->
			<probabilities>0.0663781162912 0.933621883709 0.101083121689 0.898916878311 0.0787451921461 0.921254807854 0.0752214806437 0.924778519356 0.0959288547462 0.904071145254 0.0604361634094 0.939563836591 0.0714650422225 0.928534957778 0.0713848917563 0.928615108244 0.0814487704707 0.918551229529 0.0861770115187 0.913822988481 0.0730494540664 0.926950545934 0.0757884100484 0.924211589952 0.0628934909914 0.937106509009 </probabilities>
		</cpt>
		<!-- create node "song_55_" -->
		<cpt id="song_55_" >
			<!-- setting names of outcomes -->
			<state id="recommended" />
			<state id="notRecommended" />
			<!-- add arcs -->
			<parents>clusterPredict </parents>
			<!-- setting probabilities -->
			<probabilities>0.0858487235416 0.914151276458 0.0883672664699 0.91163273353 0.0674084940302 0.93259150597 0.0599882905802 0.94001170942 0.0503268511293 0.949673148871 0.0575470269629 0.942452973037 0.0571315077489 0.942868492251 0.077584510684 0.922415489316 0.0626846428437 0.937315357156 0.179088272484 0.820911727516 0.071756260084 0.928243739916 0.059148959642 0.940851040358 0.083119193799 0.916880806201 </probabilities>
		</cpt>
		<!-- create node "song_56_" -->
		<cpt id="song_56_" >
			<!-- setting names of outcomes -->
			<state id="recommended" />
			<state id="notRecommended" />
			<!-- add arcs -->
			<parents>clusterPredict </parents>
			<!-- setting probabilities -->
			<probabilities>0.0760993410969 0.923900658903 0.102226986406 0.897773013594 0.0551247271564 0.944875272844 0.084319856546 0.915680143454 0.0684230792958 0.931576920704 0.0749016967653 0.925098303235 0.0788327158423 0.921167284158 0.088586479787 0.911413520213 0.068311169964 0.931688830036 0.0665976846209 0.933402315379 0.0586922104989 0.941307789501 0.0928661650251 0.907133834975 0.0850178869952 0.914982113005 </probabilities>
		</cpt>
		<!-- create node "song_57_" -->
		<cpt id="song_57_" >
			<!-- setting names of outcomes -->
			<state id="recommended" />
			<state id="notRecommended" />
			<!-- add arcs -->
			<parents>clusterPredict </parents>
			<!-- setting probabilities -->
			<probabilities>0.0832232745073 0.916776725493 0.0737628062652 0.926237193735 0.0501185613204 0.94988143868 0.0864609757219 0.913539024278 0.0726705339542 0.927329466046 0.0564263553876 0.943573644612 0.0725996412714 0.927400358729 0.0844995642428 0.915500435757 0.163844018159 0.836155981841 0.0810247741578 0.918975225842 0.0604986477583 0.939501352242 0.0522270426318 0.947772957368 0.0626438046222 0.937356195378 </probabilities>
		</cpt>
		<!-- create node "song_58_" -->
		<cpt id="song_58_" >
			<!-- setting names of outcomes -->
			<state id="recommended" />
			<state id="notRecommended" />
			<!-- add arcs -->
			<parents>clusterPredict </parents>
			<!-- setting probabilities -->
			<probabilities>0.101917547062 0.898082452938 0.0641828717023 0.935817128298 0.0535029479741 0.946497052026 0.0771470683134 0.922852931687 0.0464544310216 0.953545568978 0.0789908657882 0.921009134212 0.0594142331765 0.940585766824 0.083282894439 0.916717105561 0.0614067598823 0.938593240118 0.0727256601535 0.927274339846 0.057812512514 0.942187487486 0.0573955172192 0.942604482781 0.185766690753 0.814233309247 </probabilities>
		</cpt>
		<!-- create node "song_59_" -->
		<cpt id="song_59_" >
			<!-- setting names of outcomes -->
			<state id="recommended" />
			<state id="notRecommended" />
			<!-- add arcs -->
			<parents>clusterPredict </parents>
			<!-- setting probabilities -->
			<probabilities>0.0755803759637 0.924419624036 0.0628023378167 0.937197662183 0.0494006140331 0.950599385967 0.109427963088 0.890572036912 0.0732980765807 0.926701923419 0.0582750062658 0.941724993734 0.0660872748646 0.933912725135 0.0671885352428 0.932811464757 0.197156937378 0.802843062622 0.0726338887961 0.927366111204 0.0594234752333 0.940576524767 0.0480061021033 0.951993897897 0.0607194126342 0.939280587366 </probabilities>
		</cpt>
		<!-- create node "song_60_" -->
		<cpt id="song_60_" >
			<!-- setting names of outcomes -->
			<state id="recommended" />
			<state id="notRecommended" />
			<!-- add arcs -->
			<parents>clusterPredict </parents>
			<!-- setting probabilities -->
			<probabilities>0.101716608274 0.898283391726 0.0670130198182 0.932986980182 0.0535231959243 0.946476804076 0.0792211693409 0.920778830659 0.047697918222 0.952302081778 0.0770750723239 0.922924927676 0.0624267522266 0.937573247773 0.0924767186379 0.907523281362 0.063615841235 0.936384158765 0.0741300078569 0.925869992143 0.0579172163259 0.942082783674 0.0588184852951 0.941181514705 0.16436799452 0.83563200548 </probabilities>
		</cpt>
		<!-- create node "song_61_" -->
		<cpt id="song_61_" >
			<!-- setting names of outcomes -->
			<state id="recommended" />
			<state id="notRecommended" />
			<!-- add arcs -->
			<parents>clusterPredict </parents>
			<!-- setting probabilities -->
			<probabilities>0.148720122826 0.851279877174 0.0883508359523 0.911649164048 0.0519534064513 0.948046593549 0.0611613085577 0.938838691442 0.0643776455525 0.935622354448 0.0619687843901 0.93803121561 0.0556573833824 0.944342616618 0.0599316767816 0.940068323218 0.0920432450907 0.907956754909 0.113136932021 0.886863067979 0.0734314212032 0.926568578797 0.0567051089424 0.943294891058 0.0725621288488 0.927437871151 </probabilities>
		</cpt>
		<!-- create node "song_62_" -->
		<cpt id="song_62_" >
			<!-- setting names of outcomes -->
			<state id="recommended" />
			<state id="notRecommended" />
			<!-- add arcs -->
			<parents>clusterPredict </parents>
			<!-- setting probabilities -->
			<probabilities>0.064368728309 0.935631271691 0.0545598915694 0.945440108431 0.0601870490271 0.939812950973 0.069557936034 0.930442063966 0.0503483611045 0.949651638896 0.156601956275 0.843398043725 0.112413893531 0.887586106469 0.0812781250953 0.918721874905 0.0528083227211 0.947191677279 0.0615215241645 0.938478475836 0.0762531886278 0.923746811372 0.0761693859435 0.923830614057 0.0839316375985 0.916068362402 </probabilities>
		</cpt>
		<!-- create node "song_63_" -->
		<cpt id="song_63_" >
			<!-- setting names of outcomes -->
			<state id="recommended" />
			<state id="notRecommended" />
			<!-- add arcs -->
			<parents>clusterPredict </parents>
			<!-- setting probabilities -->
			<probabilities>0.0959657196918 0.904034280308 0.0648095312347 0.935190468765 0.0524334999434 0.947566500057 0.0559003107929 0.944099689207 0.047858124301 0.952141875699 0.061771050223 0.938228949777 0.0805809116489 0.919419088351 0.108279318493 0.891720681507 0.0687884418972 0.931211558103 0.156433815527 0.843566184473 0.084222004595 0.915777995405 0.053210829706 0.946789170294 0.069746441946 0.930253558054 </probabilities>
		</cpt>
		<!-- create node "song_64_" -->
		<cpt id="song_64_" >
			<!-- setting names of outcomes -->
			<state id="recommended" />
			<state id="notRecommended" />
			<!-- add arcs -->
			<parents>clusterPredict </parents>
			<!-- setting probabilities -->
			<probabilities>0.0825436635374 0.917456336463 0.0602317150257 0.939768284974 0.0742520038243 0.925747996176 0.0536701386035 0.946329861397 0.0644684474812 0.935531552519 0.0957216232109 0.904278376789 0.0692222144762 0.930777785524 0.0565535714249 0.943446428575 0.0626200696022 0.937379930398 0.0808579256635 0.919142074337 0.161285378118 0.838714621882 0.0711277095007 0.928872290499 0.0674455395315 0.932554460469 </probabilities>
		</cpt>
		<!-- create node "song_65_" -->
		<cpt id="song_65_" >
			<!-- setting names of outcomes -->
			<state id="recommended" />
			<state id="notRecommended" />
			<!-- add arcs -->
			<parents>clusterPredict </parents>
			<!-- setting probabilities -->
			<probabilities>0.18791328011 0.81208671989 0.061225714117 0.938774285883 0.0455388343935 0.954461165607 0.0636337718151 0.936366228185 0.0575855414376 0.942414458562 0.068935903801 0.931064096199 0.0623454331586 0.937654566841 0.0630191728611 0.936980827139 0.109078701259 0.890921298741 0.088089055715 0.911910944285 0.0731290773677 0.926870922632 0.0490946083873 0.950905391613 0.0704109055765 0.929589094424 </probabilities>
		</cpt>
		<!-- create node "song_66_" -->
		<cpt id="song_66_" >
			<!-- setting names of outcomes -->
			<state id="recommended" />
			<state id="notRecommended" />
			<!-- add arcs -->
			<parents>clusterPredict </parents>
			<!-- setting probabilities -->
			<probabilities>0.113334878882 0.886665121118 0.0611182242889 0.938881775711 0.0565798162149 0.943420183785 0.0648171824547 0.935182817545 0.0633382439271 0.936661756073 0.0772220612659 0.922777938734 0.0683952818251 0.931604718175 0.0616126258211 0.938387374179 0.096793525916 0.903206474084 0.106378551153 0.893621448847 0.108613945192 0.891386054808 0.053298201215 0.946701798785 0.0684974618457 0.931502538154 </probabilities>
		</cpt>
		<!-- create node "song_67_" -->
		<cpt id="song_67_" >
			<!-- setting names of outcomes -->
			<state id="recommended" />
			<state id="notRecommended" />
			<!-- add arcs -->
			<parents>clusterPredict </parents>
			<!-- setting probabilities -->
			<probabilities>0.0644523151585 0.935547684842 0.182806004207 0.817193995793 0.0638776370123 0.936122362988 0.0764649739899 0.92353502601 0.0811941384812 0.918805861519 0.0554587305243 0.944541269476 0.0592793034293 0.940720696571 0.0655670359477 0.934432964052 0.0705013893643 0.929498610636 0.078453356943 0.921546643057 0.0583165249568 0.941683475043 0.0781517027283 0.921848297272 0.0654768872574 0.934523112743 </probabilities>
		</cpt>
		<!-- create node "song_68_" -->
		<cpt id="song_68_" >
			<!-- setting names of outcomes -->
			<state id="recommended" />
			<state id="notRecommended" />
			<!-- add arcs -->
			<parents>clusterPredict </parents>
			<!-- setting probabilities -->
			<probabilities>0.0873862305612 0.912613769439 0.117575601958 0.882424398042 0.0629106382624 0.937089361738 0.0704283679165 0.929571632083 0.104073382515 0.895926617485 0.0625620318334 0.937437968167 0.0566981957476 0.943301804252 0.0576549705071 0.942345029493 0.0911357815883 0.908864218412 0.081026565073 0.918973434927 0.0677492852011 0.932250714799 0.0720265779697 0.92797342203 0.0687723708668 0.931227629133 </probabilities>
		</cpt>
		<!-- create node "song_69_" -->
		<cpt id="song_69_" >
			<!-- setting names of outcomes -->
			<state id="recommended" />
			<state id="notRecommended" />
			<!-- add arcs -->
			<parents>clusterPredict </parents>
			<!-- setting probabilities -->
			<probabilities>0.0673085287637 0.932691471236 0.0614748190373 0.938525180963 0.057979948724 0.942020051276 0.0627472947483 0.937252705252 0.052001086616 0.947998913384 0.166480848316 0.833519151684 0.0877439803991 0.912256019601 0.0702738447095 0.929726155291 0.0501389510474 0.949861048953 0.0597615415955 0.940238458405 0.0724035825863 0.927596417414 0.103024342681 0.896975657319 0.0886612307759 0.911338769224 </probabilities>
		</cpt>
		<!-- create node "song_70_" -->
		<cpt id="song_70_" >
			<!-- setting names of outcomes -->
			<state id="recommended" />
			<state id="notRecommended" />
			<!-- add arcs -->
			<parents>clusterPredict </parents>
			<!-- setting probabilities -->
			<probabilities>0.126391923494 0.873608076506 0.0667253744539 0.933274625546 0.0505091595054 0.949490840495 0.0779358203315 0.922064179669 0.0668348130269 0.933165186973 0.0896687603159 0.910331239684 0.0717466346227 0.928253365377 0.0691468635565 0.930853136444 0.0949083228565 0.905091677143 0.0713274527206 0.928672547279 0.0699433220419 0.930056677958 0.0609209648265 0.939079035174 0.0839405882473 0.916059411753 </probabilities>
		</cpt>
		<!-- create node "song_71_" -->
		<cpt id="song_71_" >
			<!-- setting names of outcomes -->
			<state id="recommended" />
			<state id="notRecommended" />
			<!-- add arcs -->
			<parents>clusterPredict </parents>
			<!-- setting probabilities -->
			<probabilities>0.0736293896032 0.926370610397 0.0558236453272 0.944176354673 0.0735738506599 0.92642614934 0.0852831761192 0.914716823881 0.0437816989346 0.956218301065 0.0864922671649 0.913507732835 0.0556903886618 0.944309611338 0.0690455185415 0.930954481458 0.0541823891784 0.945817610822 0.0777029372607 0.922297062739 0.0646209881015 0.935379011899 0.0543226096135 0.945677390386 0.205851140833 0.794148859167 </probabilities>
		</cpt>
		<!-- create node "song_72_" -->
		<cpt id="song_72_" >
			<!-- setting names of outcomes -->
			<state id="recommended" />
			<state id="notRecommended" />
			<!-- add arcs -->
			<parents>clusterPredict </parents>
			<!-- setting probabilities -->
			<probabilities>0.0726880614299 0.92731193857 0.118020837674 0.881979162326 0.0638444378783 0.936155562122 0.0661159728841 0.933884027116 0.0864197965505 0.91358020345 0.0581989598155 0.941801040184 0.0744078629421 0.925592137058 0.0776456049246 0.922354395075 0.0820396435258 0.917960356474 0.0914107816767 0.908589218323 0.0713166523997 0.9286833476 0.0761069295677 0.923893070432 0.0617844587313 0.938215541269 </probabilities>
		</cpt>
		<!-- create node "song_73_" -->
		<cpt id="song_73_" >
			<!-- setting names of outcomes -->
			<state id="recommended" />
			<state id="notRecommended" />
			<!-- add arcs -->
			<parents>clusterPredict </parents>
			<!-- setting probabilities -->
			<probabilities>0.211134034256 0.788865965744 0.05999642795 0.94000357205 0.0426316384964 0.957368361504 0.0651982051336 0.934801794866 0.0506334223928 0.949366577607 0.0608167038925 0.939183296108 0.0582324690376 0.941767530962 0.0673613733153 0.932638626685 0.109362624371 0.890637375629 0.0941294716936 0.905870528306 0.0633684252922 0.936631574708 0.0447112311575 0.955288768843 0.0724239730114 0.927576026989 </probabilities>
		</cpt>
		<!-- create node "song_74_" -->
		<cpt id="song_74_" >
			<!-- setting names of outcomes -->
			<state id="recommended" />
			<state id="notRecommended" />
			<!-- add arcs -->
			<parents>clusterPredict </parents>
			<!-- setting probabilities -->
			<probabilities>0.0928211737753 0.907178826225 0.0645054749404 0.93549452506 0.0595711506213 0.940428849379 0.130025597015 0.869974402985 0.0574240719001 0.9425759281 0.080375285692 0.919624714308 0.0575662209217 0.942433779078 0.0670651322356 0.932934867764 0.081130591051 0.918869408949 0.0714888178164 0.928511182184 0.0599974980725 0.940002501927 0.0550974585312 0.944902541469 0.122931527428 0.877068472572 </probabilities>
		</cpt>
		<!-- create node "song_75_" -->
		<cpt id="song_75_" >
			<!-- setting names of outcomes -->
			<state id="recommended" />
			<state id="notRecommended" />
			<!-- add arcs -->
			<parents>clusterPredict </parents>
			<!-- setting probabilities -->
			<probabilities>0.0723067410618 0.927693258938 0.0854479305151 0.914552069485 0.0551177968363 0.944882203164 0.0985078480185 0.901492151982 0.073592852106 0.926407147894 0.0600879084551 0.939912091545 0.0844516684788 0.915548331521 0.10117586307 0.89882413693 0.100732101852 0.899267898148 0.0792787745042 0.920721225496 0.0608881867269 0.939111813273 0.0616825339374 0.938317466063 0.066729794438 0.933270205562 </probabilities>
		</cpt>
		<!-- create node "song_76_" -->
		<cpt id="song_76_" >
			<!-- setting names of outcomes -->
			<state id="recommended" />
			<state id="notRecommended" />
			<!-- add arcs -->
			<parents>clusterPredict </parents>
			<!-- setting probabilities -->
			<probabilities>0.0685175572662 0.931482442734 0.0545856246018 0.945414375398 0.119369249442 0.880630750558 0.0607045480881 0.939295451912 0.0566364202731 0.943363579727 0.0996227415931 0.900377258407 0.0678314593584 0.932168540642 0.0594112476652 0.940588752335 0.0578217562363 0.942178243764 0.0795287176188 0.920471282381 0.135895076169 0.864104923831 0.0651327377551 0.934867262245 0.0749428639334 0.925057136067 </probabilities>
		</cpt>
		<!-- create node "song_77_" -->
		<cpt id="song_77_" >
			<!-- setting names of outcomes -->
			<state id="recommended" />
			<state id="notRecommended" />
			<!-- add arcs -->
			<parents>clusterPredict </parents>
			<!-- setting probabilities -->
			<probabilities>0.0715033718456 0.928496628154 0.0552982174348 0.944701782565 0.0520968704946 0.947903129505 0.0736250086061 0.926374991394 0.0531450428878 0.946854957112 0.17101232669 0.82898767331 0.104183371432 0.895816628568 0.0768728783389 0.923127121661 0.0575402533732 0.942459746627 0.058053351046 0.941946648954 0.0688998859124 0.931100114088 0.0726690904943 0.927330909506 0.085100331444 0.914899668556 </probabilities>
		</cpt>
		<!-- create node "song_78_" -->
		<cpt id="song_78_" >
			<!-- setting names of outcomes -->
			<state id="recommended" />
			<state id="notRecommended" />
			<!-- add arcs -->
			<parents>clusterPredict </parents>
			<!-- setting probabilities -->
			<probabilities>0.179224892435 0.820775107565 0.0644296817138 0.935570318286 0.0431006846726 0.956899315327 0.0634564639765 0.936543536024 0.0488908329162 0.951109167084 0.0533898803744 0.946610119626 0.0574048990115 0.942595100989 0.0778288569569 0.922171143043 0.114471083112 0.885528916888 0.123584719187 0.876415280813 0.0607417050269 0.939258294973 0.0435211623885 0.956478837612 0.0699551382292 0.930044861771 </probabilities>
		</cpt>
		<!-- create node "song_79_" -->
		<cpt id="song_79_" >
			<!-- setting names of outcomes -->
			<state id="recommended" />
			<state id="notRecommended" />
			<!-- add arcs -->
			<parents>clusterPredict </parents>
			<!-- setting probabilities -->
			<probabilities>0.0745824613896 0.92541753861 0.0710384847123 0.928961515288 0.0584241946208 0.941575805379 0.0772562072789 0.922743792721 0.0563019184995 0.9436980815 0.0765558535134 0.923444146487 0.0967105778585 0.903289422141 0.129741815083 0.870258184917 0.0656690579896 0.93433094201 0.0719878536278 0.928012146372 0.0646993351303 0.93530066487 0.0721299636945 0.927870036305 0.0849022766022 0.915097723398 </probabilities>
		</cpt>
		<!-- create node "song_80_" -->
		<cpt id="song_80_" >
			<!-- setting names of outcomes -->
			<state id="recommended" />
			<state id="notRecommended" />
			<!-- add arcs -->
			<parents>clusterPredict </parents>
			<!-- setting probabilities -->
			<probabilities>0.0884372555846 0.911562744415 0.0691035509339 0.930896449066 0.0455716728071 0.954428327193 0.0944988970883 0.905501102912 0.0630320646914 0.936967935309 0.0553591056518 0.944640894348 0.069038462156 0.930961537844 0.0874790710928 0.912520928907 0.179965335361 0.820034664639 0.0786689793729 0.921331020627 0.0558397279306 0.944160272069 0.0481757759837 0.951824224016 0.0648301013455 0.935169898654 </probabilities>
		</cpt>
		<!-- create node "song_81_" -->
		<cpt id="song_81_" >
			<!-- setting names of outcomes -->
			<state id="recommended" />
			<state id="notRecommended" />
			<!-- add arcs -->
			<parents>clusterPredict </parents>
			<!-- setting probabilities -->
			<probabilities>0.0951579019235 0.904842098077 0.144475690637 0.855524309363 0.0536889736535 0.946311026347 0.0659149368424 0.934085063158 0.0661264278286 0.933873572171 0.0650505247199 0.93494947528 0.062015708584 0.937984291416 0.0731103172204 0.92688968278 0.0694087089727 0.930591291027 0.0783513563647 0.921648643635 0.0604131692102 0.93958683079 0.0829685117649 0.917031488235 0.0833177722784 0.916682227722 </probabilities>
		</cpt>
		<!-- create node "song_82_" -->
		<cpt id="song_82_" >
			<!-- setting names of outcomes -->
			<state id="recommended" />
			<state id="notRecommended" />
			<!-- add arcs -->
			<parents>clusterPredict </parents>
			<!-- setting probabilities -->
			<probabilities>0.0707894993868 0.929210500613 0.0576948975993 0.942305102401 0.109034548112 0.890965451888 0.0540288137214 0.945971186279 0.0532877092437 0.946712290756 0.0753212558031 0.924678744197 0.0612735430084 0.938726456992 0.0577182144752 0.942281785525 0.0570053167059 0.942994683294 0.108715810223 0.891284189777 0.166044104985 0.833955895015 0.0601688125929 0.939831187407 0.0689174741433 0.931082525857 </probabilities>
		</cpt>
		<!-- create node "song_83_" -->
		<cpt id="song_83_" >
			<!-- setting names of outcomes -->
			<state id="recommended" />
			<state id="notRecommended" />
			<!-- add arcs -->
			<parents>clusterPredict </parents>
			<!-- setting probabilities -->
			<probabilities>0.078238409608 0.921761590392 0.0543066916827 0.945693308317 0.0475775841333 0.952422415867 0.0532241515342 0.946775848466 0.0494312111826 0.950568788817 0.125167551948 0.874832448052 0.161573882028 0.838426117972 0.0821645511925 0.917835448808 0.0548256096012 0.945174390399 0.0650186567666 0.934981343233 0.0884478788029 0.911552121197 0.0713361200054 0.928663879995 0.0686877015146 0.931312298485 </probabilities>
		</cpt>
		<!-- create node "song_84_" -->
		<cpt id="song_84_" >
			<!-- setting names of outcomes -->
			<state id="recommended" />
			<state id="notRecommended" />
			<!-- add arcs -->
			<parents>clusterPredict </parents>
			<!-- setting probabilities -->
			<probabilities>0.101880491377 0.898119508623 0.067375658041 0.932624341959 0.0521991253318 0.947800874668 0.0801518729027 0.919848127097 0.0494521439428 0.950547856057 0.0825311803847 0.917468819615 0.0682132240864 0.931786775914 0.0975796743373 0.902420325663 0.0651560445965 0.934843955403 0.0714932199931 0.928506780007 0.0589932300609 0.941006769939 0.0616896394201 0.93831036058 0.143284495526 0.856715504474 </probabilities>
		</cpt>
		<!-- create node "song_85_" -->
		<cpt id="song_85_" >
			<!-- setting names of outcomes -->
			<state id="recommended" />
			<state id="notRecommended" />
			<!-- add arcs -->
			<parents>clusterPredict </parents>
			<!-- setting probabilities -->
			<probabilities>0.0695740304939 0.930425969506 0.191850537877 0.808149462123 0.0616701121456 0.938329887854 0.0678619897021 0.932138010298 0.0645679869498 0.93543201305 0.0561150303057 0.943884969694 0.0585527233957 0.941447276604 0.0718480021817 0.928151997818 0.0633234047321 0.936676595268 0.0837370754229 0.916262924577 0.0580456485201 0.94195435148 0.0798244227622 0.920175577238 0.0730290355109 0.926970964489 </probabilities>
		</cpt>
		<!-- create node "song_86_" -->
		<cpt id="song_86_" >
			<!-- setting names of outcomes -->
			<state id="recommended" />
			<state id="notRecommended" />
			<!-- add arcs -->
			<parents>clusterPredict </parents>
			<!-- setting probabilities -->
			<probabilities>0.0891587246874 0.910841275313 0.0728543027409 0.927145697259 0.0497203295567 0.950279670443 0.0630617769532 0.936938223047 0.0515356803828 0.948464319617 0.0617198094686 0.938280190531 0.0874212919215 0.912578708078 0.167359956239 0.832640043761 0.0712801877247 0.928719812275 0.088542618717 0.911457381283 0.0639757425312 0.936024257469 0.0592029925709 0.940797007429 0.0741665865055 0.925833413494 </probabilities>
		</cpt>
		<!-- create node "song_87_" -->
		<cpt id="song_87_" >
			<!-- setting names of outcomes -->
			<state id="recommended" />
			<state id="notRecommended" />
			<!-- add arcs -->
			<parents>clusterPredict </parents>
			<!-- setting probabilities -->
			<probabilities>0.0712904062995 0.928709593701 0.072008702773 0.927991297227 0.0711193251682 0.928880674832 0.068387366465 0.931612633535 0.140458660022 0.859541339978 0.0656745266689 0.934325473331 0.0651696181188 0.934830381881 0.0545368474972 0.945463152503 0.101639793946 0.898360206054 0.0789272624639 0.921072737536 0.0905878720574 0.909412127943 0.0634171156016 0.936582884398 0.0567825029183 0.943217497082 </probabilities>
		</cpt>
		<!-- create node "song_88_" -->
		<cpt id="song_88_" >
			<!-- setting names of outcomes -->
			<state id="recommended" />
			<state id="notRecommended" />
			<!-- add arcs -->
			<parents>clusterPredict </parents>
			<!-- setting probabilities -->
			<probabilities>0.0771818278004 0.9228181722 0.0605952487054 0.939404751295 0.0483312000178 0.951668799982 0.0586118493667 0.941388150633 0.049397365163 0.950602634837 0.0876629103055 0.912337089695 0.150677309271 0.849322690729 0.126571501016 0.873428498984 0.0574851961151 0.942514803885 0.0678561785044 0.932143821496 0.0706895336374 0.929310466363 0.0708676595339 0.929132340466 0.0740722205635 0.925927779437 </probabilities>
		</cpt>
		<!-- create node "song_89_" -->
		<cpt id="song_89_" >
			<!-- setting names of outcomes -->
			<state id="recommended" />
			<state id="notRecommended" />
			<!-- add arcs -->
			<parents>clusterPredict </parents>
			<!-- setting probabilities -->
			<probabilities>0.0984874983071 0.901512501693 0.0704228511563 0.929577148844 0.0456703229812 0.954329677019 0.0631250035323 0.936874996468 0.0482497143526 0.951750285647 0.0598287120323 0.940171287968 0.0801150056237 0.919884994376 0.184780025446 0.815219974554 0.0717490441862 0.928250955814 0.0864735004101 0.91352649959 0.059164189258 0.940835810742 0.0547231195417 0.945276880458 0.0772110131727 0.922788986827 </probabilities>
		</cpt>
		<!-- create node "song_90_" -->
		<cpt id="song_90_" >
			<!-- setting names of outcomes -->
			<state id="recommended" />
			<state id="notRecommended" />
			<!-- add arcs -->
			<parents>clusterPredict </parents>
			<!-- setting probabilities -->
			<probabilities>0.083136275909 0.916863724091 0.0801265964643 0.919873403536 0.0605529279998 0.939447072 0.10477437412 0.89522562588 0.050084755784 0.949915244216 0.0656080594149 0.934391940585 0.054419065961 0.945580934039 0.0793784823606 0.920621517639 0.064765849897 0.935234150103 0.0794079662015 0.920592033798 0.0541288980264 0.945871101974 0.0583854179577 0.941614582042 0.165231329904 0.834768670096 </probabilities>
		</cpt>
		<!-- create node "song_91_" -->
		<cpt id="song_91_" >
			<!-- setting names of outcomes -->
			<state id="recommended" />
			<state id="notRecommended" />
			<!-- add arcs -->
			<parents>clusterPredict </parents>
			<!-- setting probabilities -->
			<probabilities>0.0934687989296 0.90653120107 0.0722273576647 0.927772642335 0.0466629622124 0.953337037788 0.0868988102775 0.913101189723 0.0580511517158 0.941948848284 0.0553892650751 0.944610734925 0.0730789317024 0.926921068298 0.111701901756 0.888298098244 0.135940493533 0.864059506467 0.091243581078 0.908756418922 0.0578626614039 0.942137338596 0.0490995991188 0.950900400881 0.0683744855331 0.931625514467 </probabilities>
		</cpt>
		<!-- create node "song_92_" -->
		<cpt id="song_92_" >
			<!-- setting names of outcomes -->
			<state id="recommended" />
			<state id="notRecommended" />
			<!-- add arcs -->
			<parents>clusterPredict </parents>
			<!-- setting probabilities -->
			<probabilities>0.0782546281075 0.921745371893 0.093590881711 0.906409118289 0.0596523115707 0.940347688429 0.053403761014 0.946596238986 0.086587532215 0.913412467785 0.0768888073225 0.923111192678 0.0780811712936 0.921918828706 0.061387457379 0.938612542621 0.0642392198262 0.935760780174 0.0739744134589 0.926025586541 0.0911935733725 0.908806426628 0.121102036226 0.878897963774 0.0616442065034 0.938355793497 </probabilities>
		</cpt>
		<!-- create node "song_93_" -->
		<cpt id="song_93_" >
			<!-- setting names of outcomes -->
			<state id="recommended" />
			<state id="notRecommended" />
			<!-- add arcs -->
			<parents>clusterPredict </parents>
			<!-- setting probabilities -->
			<probabilities>0.0721222921495 0.92787770785 0.0615037412816 0.938496258718 0.158297226179 0.841702773821 0.061048794557 0.938951205443 0.056046533787 0.943953466213 0.0736529903074 0.926347009693 0.0554415914886 0.944558408511 0.0568231961833 0.943176803817 0.0596886568381 0.940311343162 0.100023783918 0.899976216082 0.105600517169 0.894399482831 0.0607031401449 0.939296859855 0.0790475359965 0.920952464003 </probabilities>
		</cpt>
		<!-- create node "song_94_" -->
		<cpt id="song_94_" >
			<!-- setting names of outcomes -->
			<state id="recommended" />
			<state id="notRecommended" />
			<!-- add arcs -->
			<parents>clusterPredict </parents>
			<!-- setting probabilities -->
			<probabilities>0.0869566175285 0.913043382471 0.144722451943 0.855277548057 0.0552586525888 0.944741347411 0.065014689587 0.934985310413 0.0630993117098 0.93690068829 0.0677268744624 0.932273125538 0.0630913327678 0.936908667232 0.0736789467604 0.92632105324 0.0629468205653 0.937053179435 0.0760502269463 0.923949773054 0.0606118582886 0.939388141711 0.0941871311948 0.905812868805 0.0866550856575 0.913344914342 </probabilities>
		</cpt>
		<!-- create node "song_95_" -->
		<cpt id="song_95_" >
			<!-- setting names of outcomes -->
			<state id="recommended" />
			<state id="notRecommended" />
			<!-- add arcs -->
			<parents>clusterPredict </parents>
			<!-- setting probabilities -->
			<probabilities>0.0721069385447 0.927893061455 0.0788909475973 0.921109052403 0.0774106430892 0.922589356911 0.0890956149826 0.910904385017 0.106671034519 0.893328965481 0.0605216886581 0.939478311342 0.0581535242112 0.941846475789 0.0569529941516 0.943047005848 0.116203826542 0.883796173458 0.088691898128 0.911308101872 0.0744386769405 0.92556132306 0.0578232965653 0.942176703435 0.0630389160703 0.93696108393 </probabilities>
		</cpt>
		<!-- create node "song_96_" -->
		<cpt id="song_96_" >
			<!-- setting names of outcomes -->
			<state id="recommended" />
			<state id="notRecommended" />
			<!-- add arcs -->
			<parents>clusterPredict </parents>
			<!-- setting probabilities -->
			<probabilities>0.0630145645876 0.936985435412 0.134005535873 0.865994464127 0.0674663997973 0.932533600203 0.0661889747476 0.933811025252 0.113254124055 0.886745875945 0.0583029531825 0.941697046817 0.0676816751136 0.932318324886 0.0619617404795 0.93803825952 0.0732786690505 0.92672133095 0.079292006554 0.920707993446 0.0701650575774 0.929834942423 0.0879297162084 0.912070283792 0.0574585827746 0.942541417225 </probabilities>
		</cpt>
		<!-- create node "song_97_" -->
		<cpt id="song_97_" >
			<!-- setting names of outcomes -->
			<state id="recommended" />
			<state id="notRecommended" />
			<!-- add arcs -->
			<parents>clusterPredict </parents>
			<!-- setting probabilities -->
			<probabilities>0.0929228800561 0.907077119944 0.0575623909021 0.942437609098 0.0731304441001 0.9268695559 0.0770119934416 0.922988006558 0.0470390669272 0.952960933073 0.083606661349 0.916393338651 0.0561894585556 0.943810541444 0.070585710921 0.929414289079 0.0618645585205 0.93813544148 0.0843996874787 0.915600312521 0.0697783358858 0.930221664114 0.0539751663039 0.946024833696 0.171933645558 0.828066354442 </probabilities>
		</cpt>
		<!-- create node "song_98_" -->
		<cpt id="song_98_" >
			<!-- setting names of outcomes -->
			<state id="recommended" />
			<state id="notRecommended" />
			<!-- add arcs -->
			<parents>clusterPredict </parents>
			<!-- setting probabilities -->
			<probabilities>0.0610695939909 0.938930406009 0.0525747860174 0.947425213983 0.0771546108904 0.92284538911 0.0675252544165 0.932474745583 0.0523339603831 0.947666039617 0.180035425576 0.819964574424 0.0848101757205 0.91518982428 0.0640967531541 0.935903246846 0.0516211938439 0.948378806156 0.0628330523294 0.937166947671 0.0909796775737 0.909020322426 0.0748523847464 0.925147615254 0.080113131358 0.919886868642 </probabilities>
		</cpt>
		<!-- create node "song_99_" -->
		<cpt id="song_99_" >
			<!-- setting names of outcomes -->
			<state id="recommended" />
			<state id="notRecommended" />
			<!-- add arcs -->
			<parents>clusterPredict </parents>
			<!-- setting probabilities -->
			<probabilities>0.0775646419664 0.922435358034 0.184323764278 0.815676235722 0.0468951806677 0.953104819332 0.0626649842772 0.937335015723 0.0886105336724 0.911389466328 0.058541493067 0.941458506933 0.0672651225104 0.93273487749 0.0657617992575 0.934238200742 0.076345929618 0.923654070382 0.0690117826537 0.930988217346 0.0578754531018 0.942124546898 0.0846629022238 0.915337097776 0.0604764127065 0.939523587294 </probabilities>
		</cpt>
		<!-- create node "song_100_" -->
		<cpt id="song_100_" >
			<!-- setting names of outcomes -->
			<state id="recommended" />
			<state id="notRecommended" />
			<!-- add arcs -->
			<parents>clusterPredict </parents>
			<!-- setting probabilities -->
			<probabilities>0.0827181272371 0.917281872763 0.0731975718997 0.9268024281 0.0504044962497 0.94959550375 0.091620496685 0.908379503315 0.068809332725 0.931190667275 0.054481133678 0.945518866322 0.0671805911823 0.932819408818 0.0831312720429 0.916868727957 0.172323820151 0.827676179849 0.0839158226133 0.916084177387 0.0585706916905 0.94142930831 0.04996548726 0.95003451274 0.0636811565858 0.936318843414 </probabilities>
		</cpt>
		<!-- create node "song_101_" -->
		<cpt id="song_101_" >
			<!-- setting names of outcomes -->
			<state id="recommended" />
			<state id="notRecommended" />
			<!-- add arcs -->
			<parents>clusterPredict </parents>
			<!-- setting probabilities -->
			<probabilities>0.0764953281373 0.923504671863 0.0675556588611 0.932444341139 0.0521322285789 0.947867771421 0.144878835389 0.855121164611 0.0543801139244 0.945619886076 0.0675476787495 0.932452321251 0.0727643666444 0.927235633356 0.111882044257 0.888117955743 0.07930834177 0.92069165823 0.0689848739412 0.931015126059 0.054018015535 0.945981984465 0.0556612438636 0.944338756136 0.094391270349 0.905608729651 </probabilities>
		</cpt>
		<!-- create node "song_102_" -->
		<cpt id="song_102_" >
			<!-- setting names of outcomes -->
			<state id="recommended" />
			<state id="notRecommended" />
			<!-- add arcs -->
			<parents>clusterPredict </parents>
			<!-- setting probabilities -->
			<probabilities>0.0765852084187 0.923414791581 0.13479889856 0.86520110144 0.0814901014302 0.91850989857 0.0696973060991 0.930302693901 0.0785642079416 0.921435792058 0.0636449746451 0.936355025355 0.0536954540081 0.946304545992 0.0577048270475 0.942295172952 0.0682027048661 0.931797295134 0.0870272378423 0.912972762158 0.0684004467037 0.931599553296 0.0817991026058 0.918200897394 0.0783895298317 0.921610470168 </probabilities>
		</cpt>
		<!-- create node "song_103_" -->
		<cpt id="song_103_" >
			<!-- setting names of outcomes -->
			<state id="recommended" />
			<state id="notRecommended" />
			<!-- add arcs -->
			<parents>clusterPredict </parents>
			<!-- setting probabilities -->
			<probabilities>0.0758120822373 0.924187917763 0.0617450783661 0.938254921634 0.0446410795721 0.955358920428 0.0851156497542 0.914884350246 0.0691348380063 0.930865161994 0.0510700310339 0.948929968966 0.0583812847121 0.941618715288 0.0626353618434 0.937364638157 0.267770335294 0.732229664706 0.0698102834359 0.930189716564 0.0540418967418 0.945958103258 0.0443247699578 0.955675230042 0.0555173090449 0.944482690955 </probabilities>
		</cpt>
		<!-- create node "song_104_" -->
		<cpt id="song_104_" >
			<!-- setting names of outcomes -->
			<state id="recommended" />
			<state id="notRecommended" />
			<!-- add arcs -->
			<parents>clusterPredict </parents>
			<!-- setting probabilities -->
			<probabilities>0.0959521222669 0.904047877733 0.0716274795397 0.92837252046 0.0558216216078 0.944178378392 0.0630788265349 0.936921173465 0.08768386005 0.91231613995 0.0985189163726 0.901481083627 0.0791026167789 0.920897383221 0.0608066223163 0.939193377684 0.0799247393438 0.920075260656 0.0695815162074 0.930418483793 0.0894592985688 0.910540701431 0.0800388745106 0.919961125489 0.0684035059024 0.931596494098 </probabilities>
		</cpt>
		<!-- create node "song_105_" -->
		<cpt id="song_105_" >
			<!-- setting names of outcomes -->
			<state id="recommended" />
			<state id="notRecommended" />
			<!-- add arcs -->
			<parents>clusterPredict </parents>
			<!-- setting probabilities -->
			<probabilities>0.0657532454901 0.93424675451 0.0584642008259 0.941535799174 0.0585055257419 0.941494474258 0.0567204841289 0.943279515871 0.0528528712603 0.94714712874 0.0934102295496 0.90658977045 0.162688629115 0.837311370885 0.092290314324 0.907709685676 0.0547536419069 0.945246358093 0.0694854882963 0.930514511704 0.0897684227952 0.910231577205 0.0786350144285 0.921364985571 0.0666719321369 0.933328067863 </probabilities>
		</cpt>
		<!-- create node "song_106_" -->
		<cpt id="song_106_" >
			<!-- setting names of outcomes -->
			<state id="recommended" />
			<state id="notRecommended" />
			<!-- add arcs -->
			<parents>clusterPredict </parents>
			<!-- setting probabilities -->
			<probabilities>0.0648345497708 0.935165450229 0.077511468964 0.922488531036 0.0760594920752 0.923940507925 0.0604760130419 0.939523986958 0.0710485344641 0.928951465536 0.099599862257 0.900400137743 0.0665086911343 0.933491308866 0.0562037999751 0.943796200025 0.0534411836142 0.946558816386 0.0625326877734 0.937467312227 0.0777752366389 0.922224763361 0.160025101322 0.839974898678 0.0739833789694 0.926016621031 </probabilities>
		</cpt>
		<!-- create node "song_107_" -->
		<cpt id="song_107_" >
			<!-- setting names of outcomes -->
			<state id="recommended" />
			<state id="notRecommended" />
			<!-- add arcs -->
			<parents>clusterPredict </parents>
			<!-- setting probabilities -->
			<probabilities>0.123672421511 0.876327578489 0.0672266200807 0.932773379919 0.0469480815052 0.953051918495 0.075319988776 0.924680011224 0.0664707112171 0.933529288783 0.0592086072837 0.940791392716 0.058010190446 0.941989809554 0.0635033076773 0.936496692323 0.181214970814 0.818785029186 0.0812221499605 0.918777850039 0.0616393444266 0.938360655573 0.0482822748685 0.951717725131 0.0672813314337 0.932718668566 </probabilities>
		</cpt>
		<!-- create node "song_108_" -->
		<cpt id="song_108_" >
			<!-- setting names of outcomes -->
			<state id="recommended" />
			<state id="notRecommended" />
			<!-- add arcs -->
			<parents>clusterPredict </parents>
			<!-- setting probabilities -->
			<probabilities>0.191242248553 0.808757751447 0.068295022618 0.931704977382 0.0482937958978 0.951706204102 0.0596036093924 0.940396390608 0.0507507777098 0.94924922229 0.069340481141 0.930659518859 0.0615728758613 0.938427124139 0.0767190711716 0.923280928828 0.0737612718118 0.926238728188 0.0874317939622 0.912568206038 0.0664059147888 0.933594085211 0.0553477998458 0.944652200154 0.091235337246 0.908764662754 </probabilities>
		</cpt>
		<!-- create node "song_109_" -->
		<cpt id="song_109_" >
			<!-- setting names of outcomes -->
			<state id="recommended" />
			<state id="notRecommended" />
			<!-- add arcs -->
			<parents>clusterPredict </parents>
			<!-- setting probabilities -->
			<probabilities>0.134534358422 0.865465641578 0.0894679639952 0.910532036005 0.058772512566 0.941227487434 0.060151791178 0.939848208822 0.0585769732824 0.941423026718 0.0611944724942 0.938805527506 0.0558210340302 0.94417896597 0.0679204718484 0.932079528152 0.0786242843951 0.921375715605 0.121068276965 0.878931723035 0.0721009569381 0.927899043062 0.0591456425464 0.940854357454 0.0826212613388 0.917378738661 </probabilities>
		</cpt>
		<!-- create node "song_110_" -->
		<cpt id="song_110_" >
			<!-- setting names of outcomes -->
			<state id="recommended" />
			<state id="notRecommended" />
			<!-- add arcs -->
			<parents>clusterPredict </parents>
			<!-- setting probabilities -->
			<probabilities>0.0842921900486 0.915707809951 0.0672409552972 0.932759044703 0.0599192567951 0.940080743205 0.0503843315607 0.949615668439 0.0661359821459 0.933864017854 0.099022886725 0.900977113275 0.0818668360722 0.918133163928 0.059509345318 0.940490654682 0.0596589250628 0.940341074937 0.0765434819859 0.923456518014 0.140525193483 0.859474806517 0.0908023611487 0.909197638851 0.0640982543573 0.935901745643 </probabilities>
		</cpt>
		<!-- create node "song_111_" -->
		<cpt id="song_111_" >
			<!-- setting names of outcomes -->
			<state id="recommended" />
			<state id="notRecommended" />
			<!-- add arcs -->
			<parents>clusterPredict </parents>
			<!-- setting probabilities -->
			<probabilities>0.0603664718006 0.939633528199 0.0477268354501 0.95227316455 0.0629428697786 0.937057130221 0.0585140170289 0.941485982971 0.0448405685062 0.955159431494 0.261619187384 0.738380812616 0.0719937355956 0.928006264404 0.0584266024494 0.941573397551 0.0459037550175 0.954096244983 0.0570553998923 0.942944600108 0.0794368393899 0.92056316061 0.0676410146183 0.932358985382 0.083532703089 0.916467296911 </probabilities>
		</cpt>
		<!-- create node "song_112_" -->
		<cpt id="song_112_" >
			<!-- setting names of outcomes -->
			<state id="recommended" />
			<state id="notRecommended" />
			<!-- add arcs -->
			<parents>clusterPredict </parents>
			<!-- setting probabilities -->
			<probabilities>0.112239307202 0.887760692798 0.0554602840217 0.944539715978 0.0637549470495 0.93624505295 0.0778492935596 0.92215070644 0.0566312444661 0.943368755534 0.0793928950864 0.920607104914 0.0633520740838 0.936647925916 0.0654551070938 0.934544892906 0.0985356130799 0.90146438692 0.102828782298 0.897171217702 0.0927251137591 0.907274886241 0.0489473215138 0.951052678486 0.0828280167862 0.917171983214 </probabilities>
		</cpt>
		<!-- create node "song_113_" -->
		<cpt id="song_113_" >
			<!-- setting names of outcomes -->
			<state id="recommended" />
			<state id="notRecommended" />
			<!-- add arcs -->
			<parents>clusterPredict </parents>
			<!-- setting probabilities -->
			<probabilities>0.0679001476176 0.932099852382 0.0588149592333 0.941185040767 0.070426347079 0.929573652921 0.0910612347786 0.908938765221 0.0763070554615 0.923692944538 0.128933434081 0.871066565919 0.0829261482343 0.917073851766 0.0616240047412 0.938375995259 0.0707988606859 0.929201139314 0.0624945425577 0.937505457442 0.0822615496535 0.917738450346 0.0724526598672 0.927547340133 0.0739990560091 0.926000943991 </probabilities>
		</cpt>
		<!-- create node "song_114_" -->
		<cpt id="song_114_" >
			<!-- setting names of outcomes -->
			<state id="recommended" />
			<state id="notRecommended" />
			<!-- add arcs -->
			<parents>clusterPredict </parents>
			<!-- setting probabilities -->
			<probabilities>0.0662346177112 0.933765382289 0.16095149476 0.83904850524 0.0624681336585 0.937531866342 0.0671583477366 0.932841652263 0.068428439948 0.931571560052 0.0606984743558 0.939301525644 0.0680279166248 0.931972083375 0.0758897779381 0.924110222062 0.0614790930391 0.938520906961 0.0787176240953 0.921282375905 0.0618775764215 0.938122423578 0.0982149961413 0.901785003859 0.0698535075696 0.93014649243 </probabilities>
		</cpt>
		<!-- create node "song_115_" -->
		<cpt id="song_115_" >
			<!-- setting names of outcomes -->
			<state id="recommended" />
			<state id="notRecommended" />
			<!-- add arcs -->
			<parents>clusterPredict </parents>
			<!-- setting probabilities -->
			<probabilities>0.0720630803071 0.927936919693 0.061183784731 0.938816215269 0.0914083709709 0.908591629029 0.101943456146 0.898056543854 0.0480471166713 0.951952883329 0.07615226193 0.92384773807 0.0571233538992 0.942876646101 0.073455891255 0.926544108745 0.0602884484568 0.939711551543 0.0884956520844 0.911504347916 0.0666799345881 0.933320065412 0.0553848878665 0.944615112133 0.147773761093 0.852226238907 </probabilities>
		</cpt>
		<!-- create node "song_116_" -->
		<cpt id="song_116_" >
			<!-- setting names of outcomes -->
			<state id="recommended" />
			<state id="notRecommended" />
			<!-- add arcs -->
			<parents>clusterPredict </parents>
			<!-- setting probabilities -->
			<probabilities>0.0665471391056 0.933452860894 0.286358805367 0.713641194633 0.045685588443 0.954314411557 0.0592262161671 0.940773783833 0.0796842446846 0.920315755315 0.0473594169485 0.952640583052 0.0508255927398 0.94917440726 0.0546922515209 0.945307748479 0.0721536254041 0.927846374596 0.0684404733872 0.931559526613 0.0502851073302 0.94971489267 0.0643756785307 0.935624321469 0.054365860371 0.945634139629 </probabilities>
		</cpt>
		<!-- create node "song_117_" -->
		<cpt id="song_117_" >
			<!-- setting names of outcomes -->
			<state id="recommended" />
			<state id="notRecommended" />
			<!-- add arcs -->
			<parents>clusterPredict </parents>
			<!-- setting probabilities -->
			<probabilities>0.0683477469222 0.931652253078 0.0798034274084 0.920196572592 0.0656377482622 0.934362251738 0.0693312426561 0.930668757344 0.0642694647491 0.935730535251 0.0718839077524 0.928116092248 0.103113846412 0.896886153588 0.0900741655867 0.909925834413 0.0669839089079 0.933016091092 0.0918514022567 0.908148597743 0.0843116286302 0.91568837137 0.0770741752376 0.922925824762 0.0673173352189 0.932682664781 </probabilities>
		</cpt>
		<!-- create node "song_118_" -->
		<cpt id="song_118_" >
			<!-- setting names of outcomes -->
			<state id="recommended" />
			<state id="notRecommended" />
			<!-- add arcs -->
			<parents>clusterPredict </parents>
			<!-- setting probabilities -->
			<probabilities>0.175513257832 0.824486742168 0.0698763209005 0.930123679099 0.0463254278324 0.953674572168 0.0677111307069 0.932288869293 0.0481440186975 0.951855981303 0.0631089119223 0.936891088078 0.0598644367679 0.940135563232 0.0912321823244 0.908767817676 0.0780518591249 0.921948140875 0.0883242111189 0.911675788881 0.0579425110925 0.942057488907 0.0513755661417 0.948624433858 0.102530165538 0.897469834462 </probabilities>
		</cpt>
		<!-- create node "song_119_" -->
		<cpt id="song_119_" >
			<!-- setting names of outcomes -->
			<state id="recommended" />
			<state id="notRecommended" />
			<!-- add arcs -->
			<parents>clusterPredict </parents>
			<!-- setting probabilities -->
			<probabilities>0.0792504672852 0.920749532715 0.0640034373315 0.935996562668 0.0663453732764 0.933654626724 0.0576031242449 0.942396875755 0.0631634119528 0.936836588047 0.144587203869 0.855412796131 0.0720262902263 0.927973709774 0.0577745720354 0.942225427965 0.0566865915247 0.943313408475 0.0663870068031 0.933612993197 0.0979319937232 0.902068006277 0.0957108091326 0.904289190867 0.0785297185946 0.921470281405 </probabilities>
		</cpt>
		<!-- create node "song_120_" -->
		<cpt id="song_120_" >
			<!-- setting names of outcomes -->
			<state id="recommended" />
			<state id="notRecommended" />
			<!-- add arcs -->
			<parents>clusterPredict </parents>
			<!-- setting probabilities -->
			<probabilities>0.0682828013407 0.931717198659 0.0572166695439 0.942783330456 0.129400043891 0.870599956109 0.0905263279328 0.909473672067 0.0636821285337 0.936317871466 0.0886572426788 0.911342757321 0.0631122792743 0.936887720726 0.0604036111725 0.939596388828 0.0699290770468 0.930070922953 0.07768622069 0.92231377931 0.0893963228809 0.910603677119 0.0593488330507 0.940651166949 0.0823584419634 0.917641558037 </probabilities>
		</cpt>
		<!-- create node "song_121_" -->
		<cpt id="song_121_" >
			<!-- setting names of outcomes -->
			<state id="recommended" />
			<state id="notRecommended" />
			<!-- add arcs -->
			<parents>clusterPredict </parents>
			<!-- setting probabilities -->
			<probabilities>0.099653410422 0.900346589578 0.0717575967443 0.928242403256 0.0696957740843 0.930304225916 0.0572378994823 0.942762100518 0.0690172778727 0.930982722127 0.0660622021521 0.933937797848 0.0639711934468 0.936028806553 0.063230324346 0.936769675654 0.0839775406954 0.916022459305 0.119277939865 0.880722060135 0.109629728182 0.890370271818 0.0602501575486 0.939749842451 0.0662389551582 0.933761044842 </probabilities>
		</cpt>
		<!-- create node "song_122_" -->
		<cpt id="song_122_" >
			<!-- setting names of outcomes -->
			<state id="recommended" />
			<state id="notRecommended" />
			<!-- add arcs -->
			<parents>clusterPredict </parents>
			<!-- setting probabilities -->
			<probabilities>0.0932807916163 0.906719208384 0.0667918844495 0.93320811555 0.0896958586731 0.910304141327 0.0650392181072 0.934960781893 0.0501578658904 0.94984213411 0.0661640217203 0.93383597828 0.05304065513 0.94695934487 0.065505792636 0.934494207364 0.0649166097228 0.935083390277 0.146527059518 0.853472940482 0.082057580003 0.917942419997 0.0543304443391 0.945669555661 0.102492218195 0.897507781805 </probabilities>
		</cpt>
		<!-- create node "song_123_" -->
		<cpt id="song_123_" >
			<!-- setting names of outcomes -->
			<state id="recommended" />
			<state id="notRecommended" />
			<!-- add arcs -->
			<parents>clusterPredict </parents>
			<!-- setting probabilities -->
			<probabilities>0.111042889687 0.888957110313 0.0667600191275 0.933239980873 0.0423991195313 0.957600880469 0.0611255564695 0.938874443531 0.0477087239953 0.952291276005 0.0612421087961 0.938757891204 0.0870739106161 0.912926089384 0.176708863517 0.823291136483 0.0749657337034 0.925034266297 0.0847253226132 0.915274677387 0.059933457708 0.940066542292 0.0528512959557 0.947148704044 0.0734629982799 0.92653700172 </probabilities>
		</cpt>
		<!-- create node "song_124_" -->
		<cpt id="song_124_" >
			<!-- setting names of outcomes -->
			<state id="recommended" />
			<state id="notRecommended" />
			<!-- add arcs -->
			<parents>clusterPredict </parents>
			<!-- setting probabilities -->
			<probabilities>0.0872505504672 0.912749449533 0.0591005620037 0.940899437996 0.0573903675465 0.942609632454 0.0720277165727 0.927972283427 0.0506104962457 0.949389503754 0.0746052769853 0.925394723015 0.0908464723463 0.909153527654 0.138861645846 0.861138354154 0.0720132993258 0.927986700674 0.0838227495167 0.916177250483 0.0718082645212 0.928191735479 0.0560617211684 0.943938278832 0.0856008774543 0.914399122546 </probabilities>
		</cpt>
		<!-- create node "song_125_" -->
		<cpt id="song_125_" >
			<!-- setting names of outcomes -->
			<state id="recommended" />
			<state id="notRecommended" />
			<!-- add arcs -->
			<parents>clusterPredict </parents>
			<!-- setting probabilities -->
			<probabilities>0.0807252393596 0.91927476064 0.0634738999706 0.936526100029 0.0501816418144 0.949818358186 0.067458049484 0.932541950516 0.0418679954777 0.958132004522 0.0603667415195 0.93963325848 0.0690126599802 0.93098734002 0.210789625718 0.789210374282 0.0584224977266 0.941577502273 0.0899973753678 0.910002624632 0.0568108316539 0.943189168346 0.0519486552044 0.948051344796 0.0989447867235 0.901055213277 </probabilities>
		</cpt>
		<!-- create node "song_126_" -->
		<cpt id="song_126_" >
			<!-- setting names of outcomes -->
			<state id="recommended" />
			<state id="notRecommended" />
			<!-- add arcs -->
			<parents>clusterPredict </parents>
			<!-- setting probabilities -->
			<probabilities>0.0696802980718 0.930319701928 0.0543141855356 0.945685814464 0.0597332716753 0.940266728325 0.0490112205193 0.950988779481 0.0531710760335 0.946828923967 0.0995271869482 0.900472813052 0.109479223074 0.890520776926 0.0662732893018 0.933726710698 0.0538776163109 0.946122383689 0.0751521522424 0.924847847758 0.17719232385 0.82280767615 0.0721042487872 0.927895751213 0.0604839076499 0.93951609235 </probabilities>
		</cpt>
		<!-- create node "song_127_" -->
		<cpt id="song_127_" >
			<!-- setting names of outcomes -->
			<state id="recommended" />
			<state id="notRecommended" />
			<!-- add arcs -->
			<parents>clusterPredict </parents>
			<!-- setting probabilities -->
			<probabilities>0.0978613709206 0.902138629079 0.0687654418871 0.931234558113 0.0727662257017 0.927233774298 0.0582185150755 0.941781484924 0.0639420900369 0.936057909963 0.0621148617135 0.937885138286 0.0579320203146 0.942067979685 0.0601365230185 0.939863476981 0.0847968598378 0.915203140162 0.146944801841 0.853055198159 0.105185076915 0.894814923085 0.0545503836661 0.945449616334 0.0667858290722 0.933214170928 </probabilities>
		</cpt>
		<!-- create node "song_128_" -->
		<cpt id="song_128_" >
			<!-- setting names of outcomes -->
			<state id="recommended" />
			<state id="notRecommended" />
			<!-- add arcs -->
			<parents>clusterPredict </parents>
			<!-- setting probabilities -->
			<probabilities>0.0751285347275 0.924871465273 0.0562399137513 0.943760086249 0.0513187837052 0.948681216295 0.0721952502778 0.927804749722 0.0660709484601 0.93392905154 0.136269715145 0.863730284855 0.123589910989 0.876410089011 0.0686563325078 0.931343667492 0.0708135020718 0.929186497928 0.0614329167371 0.938567083263 0.0821993924972 0.917800607503 0.0685992471937 0.931400752806 0.0674855519366 0.932514448063 </probabilities>
		</cpt>
		<!-- create node "song_129_" -->
		<cpt id="song_129_" >
			<!-- setting names of outcomes -->
			<state id="recommended" />
			<state id="notRecommended" />
			<!-- add arcs -->
			<parents>clusterPredict </parents>
			<!-- setting probabilities -->
			<probabilities>0.0788543640322 0.921145635968 0.0736476689314 0.926352331069 0.0777393377654 0.922260662235 0.0653837149695 0.934616285031 0.0533699152457 0.946630084754 0.0592542548437 0.940745745156 0.0654014266801 0.93459857332 0.0908224149065 0.909177585093 0.0697125038138 0.930287496186 0.153311979729 0.846688020271 0.0784171588534 0.921582841147 0.0570404777585 0.942959522241 0.0770447824707 0.922955217529 </probabilities>
		</cpt>
		<!-- create node "song_130_" -->
		<cpt id="song_130_" >
			<!-- setting names of outcomes -->
			<state id="recommended" />
			<state id="notRecommended" />
			<!-- add arcs -->
			<parents>clusterPredict </parents>
			<!-- setting probabilities -->
			<probabilities>0.0731361205907 0.926863879409 0.204838964192 0.795161035808 0.0509603661523 0.949039633848 0.0535451109623 0.946454889038 0.0710568139465 0.928943186053 0.059515560905 0.940484439095 0.0622232356632 0.937776764337 0.0612022130803 0.93879778692 0.059375499248 0.940624500752 0.0733598325049 0.926640167495 0.0625909057112 0.937409094289 0.106409238634 0.893590761366 0.06178613841 0.93821386159 </probabilities>
		</cpt>
		<!-- create node "song_131_" -->
		<cpt id="song_131_" >
			<!-- setting names of outcomes -->
			<state id="recommended" />
			<state id="notRecommended" />
			<!-- add arcs -->
			<parents>clusterPredict </parents>
			<!-- setting probabilities -->
			<probabilities>0.220137340651 0.779862659349 0.0641778316025 0.935822168398 0.0438940959959 0.956105904004 0.0657599013437 0.934240098656 0.0447031417773 0.955296858223 0.0569031266353 0.943096873365 0.0525503155209 0.947449684479 0.0778231070717 0.922176892928 0.0806183914149 0.919381608585 0.0966811048169 0.903318895183 0.0552110380166 0.944788961983 0.0449434517157 0.955056548284 0.0965971534376 0.903402846562 </probabilities>
		</cpt>
		<!-- create node "song_132_" -->
		<cpt id="song_132_" >
			<!-- setting names of outcomes -->
			<state id="recommended" />
			<state id="notRecommended" />
			<!-- add arcs -->
			<parents>clusterPredict </parents>
			<!-- setting probabilities -->
			<probabilities>0.0602429902931 0.939757009707 0.0806405071671 0.919359492833 0.0734270945599 0.92657290544 0.0657093558727 0.934290644127 0.0685188141016 0.931481185898 0.0834734171187 0.916526582881 0.0880125272959 0.911987472704 0.0723079135787 0.927692086421 0.0551807487316 0.944819251268 0.0651889586953 0.934811041305 0.0731242451005 0.926875754899 0.144393642684 0.855606357316 0.0697797848015 0.930220215199 </probabilities>
		</cpt>
		<!-- create node "song_133_" -->
		<cpt id="song_133_" >
			<!-- setting names of outcomes -->
			<state id="recommended" />
			<state id="notRecommended" />
			<!-- add arcs -->
			<parents>clusterPredict </parents>
			<!-- setting probabilities -->
			<probabilities>0.0946469414529 0.905353058547 0.0992184746914 0.900781525309 0.0619299860798 0.93807001392 0.0764059802377 0.923594019762 0.0760530191788 0.923946980821 0.0764987956168 0.923501204383 0.0621732963652 0.937826703635 0.066279485058 0.933720514942 0.0761020660098 0.92389793399 0.0738719087191 0.926128091281 0.065752105729 0.934247894271 0.0811817720779 0.918818227922 0.0898861687834 0.910113831217 </probabilities>
		</cpt>
		<!-- create node "song_134_" -->
		<cpt id="song_134_" >
			<!-- setting names of outcomes -->
			<state id="recommended" />
			<state id="notRecommended" />
			<!-- add arcs -->
			<parents>clusterPredict </parents>
			<!-- setting probabilities -->
			<probabilities>0.142042192236 0.857957807764 0.0674230636856 0.932576936314 0.0624077750138 0.937592224986 0.0605140343229 0.939485965677 0.0495812093179 0.950418790682 0.0664134600882 0.933586539912 0.0535164233473 0.946483576653 0.0663922565689 0.933607743431 0.069854948004 0.930145051996 0.131079671411 0.868920328589 0.0768494948775 0.923150505122 0.0527995488131 0.947200451187 0.101125922314 0.898874077686 </probabilities>
		</cpt>
		<!-- create node "song_135_" -->
		<cpt id="song_135_" >
			<!-- setting names of outcomes -->
			<state id="recommended" />
			<state id="notRecommended" />
			<!-- add arcs -->
			<parents>clusterPredict </parents>
			<!-- setting probabilities -->
			<probabilities>0.0844642236942 0.915535776306 0.0586650748144 0.941334925186 0.0536133289398 0.94638667106 0.0693125186717 0.930687481328 0.0457247548342 0.954275245166 0.121655199235 0.878344800765 0.0796293248936 0.920370675106 0.0931034598824 0.906896540118 0.0542024545679 0.945797545432 0.0665777020343 0.933422297966 0.0656305849127 0.934369415087 0.0678977318366 0.932102268163 0.139523641683 0.860476358317 </probabilities>
		</cpt>
		<!-- create node "song_136_" -->
		<cpt id="song_136_" >
			<!-- setting names of outcomes -->
			<state id="recommended" />
			<state id="notRecommended" />
			<!-- add arcs -->
			<parents>clusterPredict </parents>
			<!-- setting probabilities -->
			<probabilities>0.0650488408609 0.934951159139 0.122063679619 0.877936320381 0.0940161979335 0.905983802067 0.0631638382992 0.936836161701 0.0743912814611 0.925608718539 0.0642062764718 0.935793723528 0.0612368126789 0.938763187321 0.0620462876768 0.937953712323 0.0597961296994 0.940203870301 0.087172031789 0.912827968211 0.0757454243307 0.924254575669 0.101631355005 0.898368644995 0.0694818441753 0.930518155825 </probabilities>
		</cpt>
		<!-- create node "song_137_" -->
		<cpt id="song_137_" >
			<!-- setting names of outcomes -->
			<state id="recommended" />
			<state id="notRecommended" />
			<!-- add arcs -->
			<parents>clusterPredict </parents>
			<!-- setting probabilities -->
			<probabilities>0.106643864959 0.893356135041 0.0595236465067 0.940476353493 0.0553980112259 0.944601988774 0.0668652995954 0.933134700405 0.0407865109017 0.959213489098 0.0686982317181 0.931301768282 0.0550516255149 0.944948374485 0.0839986507453 0.916001349255 0.0576888936012 0.942311106399 0.107304831775 0.892695168225 0.062978893208 0.937021106792 0.0493582039211 0.950641796079 0.185703336328 0.814296663672 </probabilities>
		</cpt>
		<!-- create node "song_138_" -->
		<cpt id="song_138_" >
			<!-- setting names of outcomes -->
			<state id="recommended" />
			<state id="notRecommended" />
			<!-- add arcs -->
			<parents>clusterPredict </parents>
			<!-- setting probabilities -->
			<probabilities>0.195548719614 0.804451280386 0.0666007543546 0.933399245645 0.0474573398007 0.952542660199 0.0669071707182 0.933092829282 0.0460419800494 0.953958019951 0.0583313467477 0.941668653252 0.0522465553997 0.9477534446 0.0760492249357 0.923950775064 0.0794210016677 0.920578998332 0.103702907138 0.896297092862 0.05769544636 0.94230455364 0.0466014268882 0.953398573112 0.103396126326 0.896603873674 </probabilities>
		</cpt>
		<!-- create node "song_139_" -->
		<cpt id="song_139_" >
			<!-- setting names of outcomes -->
			<state id="recommended" />
			<state id="notRecommended" />
			<!-- add arcs -->
			<parents>clusterPredict </parents>
			<!-- setting probabilities -->
			<probabilities>0.0918775623262 0.908122437674 0.163867806328 0.836132193672 0.0551228172628 0.944877182737 0.0588811092107 0.941118890789 0.0671194128806 0.932880587119 0.0617460198402 0.93825398016 0.0597769596723 0.940223040328 0.0672467826078 0.932753217392 0.0667302816765 0.933269718323 0.0845676880361 0.915432311964 0.0640480655967 0.935951934403 0.0844307990614 0.915569200939 0.0745846955002 0.9254153045 </probabilities>
		</cpt>
		<!-- create node "song_140_" -->
		<cpt id="song_140_" >
			<!-- setting names of outcomes -->
			<state id="recommended" />
			<state id="notRecommended" />
			<!-- add arcs -->
			<parents>clusterPredict </parents>
			<!-- setting probabilities -->
			<probabilities>0.107684596211 0.892315403789 0.0672868108687 0.932713189131 0.0498940651577 0.950105934842 0.0541334354375 0.945866564562 0.0626204433764 0.937379556624 0.0679855627296 0.93201443727 0.0978593925461 0.902140607454 0.0809583566506 0.919041643349 0.0865501355021 0.913449864498 0.103003777642 0.896996222358 0.102364350196 0.897635649804 0.0594825233858 0.940517476614 0.060176550296 0.939823449704 </probabilities>
		</cpt>
		<!-- create node "song_141_" -->
		<cpt id="song_141_" >
			<!-- setting names of outcomes -->
			<state id="recommended" />
			<state id="notRecommended" />
			<!-- add arcs -->
			<parents>clusterPredict </parents>
			<!-- setting probabilities -->
			<probabilities>0.0676041687389 0.932395831261 0.120858501233 0.879141498767 0.0636090877107 0.936390912289 0.0870584581516 0.912941541848 0.0756872148122 0.924312785188 0.0743245129845 0.925675487016 0.0644683753723 0.935531624628 0.0659504844972 0.934049515503 0.062774600823 0.937225399177 0.0656144124329 0.934385587567 0.0591168269262 0.940883173074 0.109828075368 0.890171924632 0.0831052809493 0.916894719051 </probabilities>
		</cpt>
		<!-- create node "song_142_" -->
		<cpt id="song_142_" >
			<!-- setting names of outcomes -->
			<state id="recommended" />
			<state id="notRecommended" />
			<!-- add arcs -->
			<parents>clusterPredict </parents>
			<!-- setting probabilities -->
			<probabilities>0.190303169538 0.809696830462 0.0634374764503 0.93656252355 0.0458038708263 0.954196129174 0.0515434239605 0.948456576039 0.0497382629825 0.950261737017 0.0576598525233 0.942340147477 0.0604240974415 0.939575902558 0.0697546003322 0.930245399668 0.0833769330972 0.916623066903 0.137082821738 0.862917178262 0.0777198001029 0.922280199897 0.0476730196063 0.952326980394 0.0654826714011 0.934517328599 </probabilities>
		</cpt>
		<!-- create node "song_143_" -->
		<cpt id="song_143_" >
			<!-- setting names of outcomes -->
			<state id="recommended" />
			<state id="notRecommended" />
			<!-- add arcs -->
			<parents>clusterPredict </parents>
			<!-- setting probabilities -->
