<?xml version="1.0" encoding="ISO-8859-1"?>
<smile version="1.0" id="SongRecommender" numsamples="1000" discsamples="10000">
	<nodes>
		<!-- create node "clusterPredict" -->
		<cpt id="clusterPredict" >
			<!-- setting names of outcomes -->
			<state id="c1" />
			<state id="c2" />
			<state id="c3" />
			<state id="c4" />
			<state id="c5" />
			<state id="c6" />
			<state id="c7" />
			<state id="c8" />
			<state id="c9" />
			<state id="c10" />
			<state id="c11" />
			<state id="c12" />
			<state id="c13" />
			<!-- setting probabilities -->
			<probabilities>0.0769230769231 0.0769230769231 0.0769230769231 0.0769230769231 0.0769230769231 0.0769230769231 0.0769230769231 0.0769230769231 0.0769230769231 0.0769230769231 0.0769230769231 0.0769230769231 0.0769230769231 </probabilities>
		</cpt>
		<!-- create node "song_1Hotel Yorba (Album Version)" -->
		<cpt id="song_1Hotel_Yorba_(Album_Version)" >
			<!-- setting names of outcomes -->
			<state id="recommended" />
			<state id="notRecommended" />
			<!-- add arcs -->
			<parents>clusterPredict </parents>
			<!-- setting probabilities -->
			<probabilities>0.0693399499033 0.930660050097 0.111967330869 0.888032669131 0.0786872864143 0.921312713586 0.0712608145676 0.928739185432 0.06710517152 0.93289482848 0.129282225543 0.870717774457 0.0755077920805 0.92449220792 0.0594964498277 0.940503550172 0.0515772622249 0.948422737775 0.0790191407346 0.920980859265 0.0611576250748 0.938842374925 0.0746826296775 0.925317370323 0.0709163215633 0.929083678437 </probabilities>
		</cpt>
		<!-- create node "song_2Dream Police" -->
		<cpt id="song_2Dream_Police" >
			<!-- setting names of outcomes -->
			<state id="recommended" />
			<state id="notRecommended" />
			<!-- add arcs -->
			<parents>clusterPredict </parents>
			<!-- setting probabilities -->
			<probabilities>0.0673089326843 0.932691067316 0.130818480941 0.869181519059 0.0616563866021 0.938343613398 0.0662776435715 0.933722356429 0.0647361263406 0.935263873659 0.117799875213 0.882200124787 0.0656294414904 0.93437055851 0.0502411557234 0.949758844277 0.0467440873386 0.953255912661 0.060141718686 0.939858281314 0.0625812790098 0.93741872099 0.117735621759 0.882264378241 0.0883292506398 0.91167074936 </probabilities>
		</cpt>
		<!-- create node "song_3ANTS MARCHING (Live Acoustic)" -->
		<cpt id="song_3ANTS_MARCHING_(Live_Acoustic)" >
			<!-- setting names of outcomes -->
			<state id="recommended" />
			<state id="notRecommended" />
			<!-- add arcs -->
			<parents>clusterPredict </parents>
			<!-- setting probabilities -->
			<probabilities>0.240303641086 0.759696358914 0.0803086758464 0.919691324154 0.057338143449 0.942661856551 0.050204428113 0.949795571887 0.0670835666427 0.932916433357 0.0539573249869 0.946042675013 0.0517638585476 0.948236141452 0.0673905841405 0.93260941586 0.0555094455871 0.944490554413 0.0611897944156 0.938810205584 0.0786010312802 0.92139896872 0.0723666856706 0.927633314329 0.063982820235 0.936017179765 </probabilities>
		</cpt>
		<!-- create node "song_4Adive From the Angel of Thresholds" -->
		<cpt id="song_4Adive_From_the_Angel_of_Thresholds" >
			<!-- setting names of outcomes -->
			<state id="recommended" />
			<state id="notRecommended" />
			<!-- add arcs -->
			<parents>clusterPredict </parents>
			<!-- setting probabilities -->
			<probabilities>0.0832802543824 0.916719745618 0.0649184995969 0.935081500403 0.0754105562908 0.924589443709 0.0775081252575 0.922491874742 0.0697355199365 0.930264480064 0.0623984266807 0.937601573319 0.0785347500862 0.921465249914 0.112324471504 0.887675528496 0.0903939291665 0.909606070833 0.0986334148096 0.90136658519 0.0666233782281 0.933376621772 0.0658223975382 0.934177602462 0.054416276523 0.945583723477 </probabilities>
		</cpt>
		<!-- create node "song_5Stoned Out Of My Mind" -->
		<cpt id="song_5Stoned_Out_Of_My_Mind" >
			<!-- setting names of outcomes -->
			<state id="recommended" />
			<state id="notRecommended" />
			<!-- add arcs -->
			<parents>clusterPredict </parents>
			<!-- setting probabilities -->
			<probabilities>0.0947832797244 0.905216720276 0.202211363785 0.797788636215 0.0635721354514 0.936427864549 0.0541676333994 0.945832366601 0.0734371030117 0.926562896988 0.0755446674864 0.924455332514 0.0616379745973 0.938362025403 0.0536362321825 0.946363767817 0.0479609470897 0.95203905291 0.0613141740131 0.938685825987 0.0563696323068 0.943630367693 0.0897239537193 0.910276046281 0.0656409032327 0.934359096767 </probabilities>
		</cpt>
		<!-- create node "song_6Clair de Lune" -->
		<cpt id="song_6Clair_de_Lune" >
			<!-- setting names of outcomes -->
			<state id="recommended" />
			<state id="notRecommended" />
			<!-- add arcs -->
			<parents>clusterPredict </parents>
			<!-- setting probabilities -->
			<probabilities>0.0730344143496 0.92696558565 0.0696497342243 0.930350265776 0.0646522431413 0.935347756859 0.0734149851188 0.926585014881 0.0867129497215 0.913287050279 0.0547742053137 0.945225794686 0.0695920159763 0.930407984024 0.0704373788338 0.929562621166 0.143377329996 0.856622670004 0.0621069451697 0.93789305483 0.0568864604538 0.943113539546 0.11550262875 0.88449737125 0.0598587089514 0.940141291049 </probabilities>
		</cpt>
		<!-- create node "song_7" -->
		<cpt id="song_7" >
			<!-- setting names of outcomes -->
			<state id="recommended" />
			<state id="notRecommended" />
			<!-- add arcs -->
			<parents>clusterPredict </parents>
			<!-- setting probabilities -->
			<probabilities>0.0621181158402 0.93788188416 0.0980187479672 0.901981252033 0.0649746200751 0.935025379925 0.0620729879071 0.937927012093 0.107349197748 0.892650802252 0.0639517728294 0.936048227171 0.0686131445651 0.931386855435 0.0529458136334 0.947054186367 0.0527141681399 0.94728583186 0.0449593291628 0.955040670837 0.0615707176817 0.938429282318 0.123808887378 0.876191112622 0.136902497072 0.863097502928 </probabilities>
		</cpt>
		<!-- create node "song_8Guinnevere" -->
		<cpt id="song_8Guinnevere" >
			<!-- setting names of outcomes -->
			<state id="recommended" />
			<state id="notRecommended" />
			<!-- add arcs -->
			<parents>clusterPredict </parents>
			<!-- setting probabilities -->
			<probabilities>0.0718214415836 0.928178558416 0.0719852901978 0.928014709802 0.0563032959526 0.943696704047 0.0656110792928 0.934388920707 0.0803265666891 0.919673433311 0.0836519362236 0.916348063776 0.130786940983 0.869213059017 0.0604586254915 0.939541374509 0.0929956468017 0.907004353198 0.074276421628 0.925723578372 0.0654846530571 0.934515346943 0.0797507160064 0.920249283994 0.0665473860927 0.933452613907 </probabilities>
		</cpt>
		<!-- create node "song_9Heaven's the Place" -->
		<cpt id="song_9Heaven's_the_Place" >
			<!-- setting names of outcomes -->
			<state id="recommended" />
			<state id="notRecommended" />
			<!-- add arcs -->
			<parents>clusterPredict </parents>
			<!-- setting probabilities -->
			<probabilities>0.144498661643 0.855501338357 0.0787276769896 0.92127232301 0.0583383831305 0.94166161687 0.0558210746546 0.944178925345 0.0658925799749 0.934107420025 0.0694924350431 0.930507564957 0.0636055104058 0.936394489594 0.0715647458321 0.928435254168 0.0520746866276 0.947925313372 0.0674344251478 0.932565574852 0.126117390553 0.873882609447 0.0688142055681 0.931185794432 0.0776182244298 0.92238177557 </probabilities>
		</cpt>
		<!-- create node "song_10Maps" -->
		<cpt id="song_10Maps" >
			<!-- setting names of outcomes -->
			<state id="recommended" />
			<state id="notRecommended" />
			<!-- add arcs -->
			<parents>clusterPredict </parents>
			<!-- setting probabilities -->
			<probabilities>0.0615176727326 0.938482327267 0.153763415302 0.846236584698 0.0737211694752 0.926278830525 0.0638305035561 0.936169496444 0.0746359148099 0.92536408519 0.12557715966 0.87442284034 0.0812431882581 0.918756811742 0.0517094777933 0.948290522207 0.0446280446104 0.95537195539 0.057301736284 0.942698263716 0.0551606998957 0.944839300104 0.0775172866846 0.922482713315 0.079393730938 0.920606269062 </probabilities>
		</cpt>
		<!-- create node "song_11Good Times Roll" -->
		<cpt id="song_11Good_Times_Roll" >
			<!-- setting names of outcomes -->
			<state id="recommended" />
			<state id="notRecommended" />
			<!-- add arcs -->
			<parents>clusterPredict </parents>
			<!-- setting probabilities -->
			<probabilities>0.0648756975247 0.935124302475 0.167186574142 0.832813425858 0.0678363093303 0.93216369067 0.0660110432762 0.933988956724 0.0615061642278 0.938493835772 0.126742944325 0.873257055675 0.0625672821034 0.937432717897 0.0493706978352 0.950629302165 0.0477056898283 0.952294310172 0.0710008091671 0.928999190833 0.0517129298599 0.94828707014 0.09806754137 0.90193245863 0.0654163170095 0.934583682991 </probabilities>
		</cpt>
		<!-- create node "song_12d:b:l" -->
		<cpt id="song_12d:b:l" >
			<!-- setting names of outcomes -->
			<state id="recommended" />
			<state id="notRecommended" />
			<!-- add arcs -->
			<parents>clusterPredict </parents>
			<!-- setting probabilities -->
			<probabilities>0.164719136204 0.835280863796 0.0700607031651 0.929939296835 0.0595752359152 0.940424764085 0.0519615320065 0.948038467993 0.0944581722953 0.905541827705 0.0522509179901 0.94774908201 0.0668963102313 0.933103689769 0.0848538903769 0.915146109623 0.0683116898827 0.931688310117 0.0562135788368 0.943786421163 0.0937077838237 0.906292216176 0.066142158787 0.933857841213 0.0708488904855 0.929151109515 </probabilities>
		</cpt>
		<!-- create node "song_13You Set The Scene" -->
		<cpt id="song_13You_Set_The_Scene" >
			<!-- setting names of outcomes -->
			<state id="recommended" />
			<state id="notRecommended" />
			<!-- add arcs -->
			<parents>clusterPredict </parents>
			<!-- setting probabilities -->
			<probabilities>0.0794045017667 0.920595498233 0.0849126542805 0.91508734572 0.0594231514681 0.940576848532 0.0558441751063 0.944155824894 0.116894094326 0.883105905674 0.0545013730034 0.945498626997 0.0629975021151 0.937002497885 0.0588083556944 0.941191644306 0.0565451356238 0.943454864376 0.0444740389013 0.955525961099 0.0762885789165 0.923711421084 0.113122425285 0.886877574715 0.136784013514 0.863215986486 </probabilities>
		</cpt>
		<!-- create node "song_14The Black Crowes - 03 - Thorn In My Pride" -->
		<cpt id="song_14The_Black_Crowes_-_03_-_Thorn_In_My_Pride" >
			<!-- setting names of outcomes -->
			<state id="recommended" />
			<state id="notRecommended" />
			<!-- add arcs -->
			<parents>clusterPredict </parents>
			<!-- setting probabilities -->
			<probabilities>0.151382458323 0.848617541677 0.0923696742144 0.907630325786 0.0567980307728 0.943201969227 0.0555171709722 0.944482829028 0.0693049025974 0.930695097403 0.0721789473048 0.927821052695 0.0632123192611 0.936787680739 0.0613460914107 0.938653908589 0.0697511919974 0.930248808003 0.084946798806 0.915053201194 0.0726752650862 0.927324734914 0.0856907160584 0.914309283942 0.0648264331953 0.935173566805 </probabilities>
		</cpt>
		<!-- create node "song_15Ziggy Stardust" -->
		<cpt id="song_15Ziggy_Stardust" >
			<!-- setting names of outcomes -->
			<state id="recommended" />
			<state id="notRecommended" />
			<!-- add arcs -->
			<parents>clusterPredict </parents>
			<!-- setting probabilities -->
			<probabilities>0.0629024679459 0.937097532054 0.0906284770674 0.909371522933 0.156184383163 0.843815616837 0.0970666856185 0.902933314382 0.0628631975152 0.937136802485 0.0782409336799 0.92175906632 0.064689163053 0.935310836947 0.076883843668 0.923116156332 0.0508034024324 0.949196597568 0.0807300249893 0.919269975011 0.0531593468907 0.946840653109 0.0692258838068 0.930774116193 0.0566221901701 0.94337780983 </probabilities>
		</cpt>
		<!-- create node "song_16Tales Of Brave Ulysses" -->
		<cpt id="song_16Tales_Of_Brave_Ulysses" >
			<!-- setting names of outcomes -->
			<state id="recommended" />
			<state id="notRecommended" />
			<!-- add arcs -->
			<parents>clusterPredict </parents>
			<!-- setting probabilities -->
			<probabilities>0.0722809619909 0.927719038009 0.107067767115 0.892932232885 0.0636626536654 0.936337346335 0.058764851612 0.941235148388 0.123424735292 0.876575264708 0.0583213855297 0.94167861447 0.0682885424252 0.931711457575 0.0543160167161 0.945683983284 0.0705018908403 0.92949810916 0.0507164749076 0.949283525092 0.0520707050998 0.9479292949 0.149041327691 0.850958672309 0.0715426871146 0.928457312885 </probabilities>
		</cpt>
		<!-- create node "song_17Time Is Tight" -->
		<cpt id="song_17Time_Is_Tight" >
			<!-- setting names of outcomes -->
			<state id="recommended" />
			<state id="notRecommended" />
			<!-- add arcs -->
			<parents>clusterPredict </parents>
			<!-- setting probabilities -->
			<probabilities>0.070086864418 0.929913135582 0.073745588121 0.926254411879 0.0604580463718 0.939541953628 0.0729709419099 0.92702905809 0.075434580115 0.924565419885 0.0636045422529 0.936395457747 0.0619708677514 0.938029132249 0.0600295355456 0.939970464454 0.080811044232 0.919188955768 0.0573098982567 0.942690101743 0.073029201134 0.926970798866 0.157901289723 0.842098710277 0.0926476001686 0.907352399831 </probabilities>
		</cpt>
		<!-- create node "song_18Kyo Rei" -->
		<cpt id="song_18Kyo_Rei" >
			<!-- setting names of outcomes -->
			<state id="recommended" />
			<state id="notRecommended" />
			<!-- add arcs -->
			<parents>clusterPredict </parents>
			<!-- setting probabilities -->
			<probabilities>0.0791359376064 0.920864062394 0.0704665824924 0.929533417508 0.075405752486 0.924594247514 0.0797928938257 0.920207106174 0.0702553225774 0.929744677423 0.064070698833 0.935929301167 0.0668260010199 0.93317399898 0.0827895852829 0.917210414717 0.114468433758 0.885531566242 0.0939268453539 0.906073154646 0.063428439526 0.936571560474 0.0805437436401 0.91945625636 0.0588897635979 0.941110236402 </probabilities>
		</cpt>
		<!-- create node "song_19Echoes (1992 Digital Remaster)" -->
		<cpt id="song_19Echoes_(1992_Digital_Remaster)" >
			<!-- setting names of outcomes -->
			<state id="recommended" />
			<state id="notRecommended" />
			<!-- add arcs -->
			<parents>clusterPredict </parents>
			<!-- setting probabilities -->
			<probabilities>0.089659587792 0.910340412208 0.0605793160071 0.939420683993 0.0538402721682 0.946159727832 0.0618758849013 0.938124115099 0.0813145655348 0.918685434465 0.0567897062322 0.943210293768 0.078644260587 0.921355739413 0.0750445076899 0.92495549231 0.139726808522 0.860273191478 0.063054972888 0.936945027112 0.0890995165281 0.910900483472 0.0806317896858 0.919368210314 0.0697388114633 0.930261188537 </probabilities>
		</cpt>
		<!-- create node "song_20Too Slow" -->
		<cpt id="song_20Too_Slow" >
			<!-- setting names of outcomes -->
			<state id="recommended" />
			<state id="notRecommended" />
			<!-- add arcs -->
			<parents>clusterPredict </parents>
			<!-- setting probabilities -->
			<probabilities>0.0913288312803 0.90867116872 0.0695688415924 0.930431158408 0.0875976887423 0.912402311258 0.0802301319559 0.919769868044 0.0669308176424 0.933069182358 0.0563211163521 0.943678883648 0.0577727006186 0.942227299381 0.115725230849 0.884274769151 0.0867293067446 0.913270693255 0.0897019841564 0.910298015844 0.0656984225201 0.93430157748 0.0762954657432 0.923704534257 0.0560994618028 0.943900538197 </probabilities>
		</cpt>
		<!-- create node "song_21Been Caught Stealing" -->
		<cpt id="song_21Been_Caught_Stealing" >
			<!-- setting names of outcomes -->
			<state id="recommended" />
			<state id="notRecommended" />
			<!-- add arcs -->
			<parents>clusterPredict </parents>
			<!-- setting probabilities -->
			<probabilities>0.0647299612508 0.935270038749 0.0736141287814 0.926385871219 0.0651903954869 0.934809604513 0.0634905486391 0.936509451361 0.0795290135303 0.92047098647 0.0656073342619 0.934392665738 0.0664839910504 0.93351600895 0.0614436039652 0.938556396035 0.0500993436722 0.949900656328 0.0476125549569 0.952387445043 0.0928095490042 0.907190450996 0.0765994810835 0.923400518917 0.192790094317 0.807209905683 </probabilities>
		</cpt>
		<!-- create node "song_22" -->
		<cpt id="song_22" >
			<!-- setting names of outcomes -->
			<state id="recommended" />
			<state id="notRecommended" />
			<!-- add arcs -->
			<parents>clusterPredict </parents>
			<!-- setting probabilities -->
			<probabilities>0.0731825328846 0.926817467115 0.0682320468164 0.931767953184 0.0587725923551 0.941227407645 0.0693605213312 0.930639478669 0.0768668731507 0.923133126849 0.0729191279702 0.92708087203 0.105160582599 0.894839417401 0.0660837791227 0.933916220877 0.125709560768 0.874290439232 0.0827678305234 0.917232169477 0.0621464879115 0.937853512089 0.0791908916857 0.920809108314 0.0596071728815 0.940392827119 </probabilities>
		</cpt>
		<!-- create node "song_23Risingson" -->
		<cpt id="song_23Risingson" >
			<!-- setting names of outcomes -->
			<state id="recommended" />
			<state id="notRecommended" />
			<!-- add arcs -->
			<parents>clusterPredict </parents>
			<!-- setting probabilities -->
			<probabilities>0.0654299746536 0.934570025346 0.0813903372517 0.918609662748 0.06584826679 0.93415173321 0.0610287646704 0.93897123533 0.107601287043 0.892398712957 0.074291181395 0.925708818605 0.114437896173 0.885562103827 0.0617305876277 0.938269412372 0.0503905143817 0.949609485618 0.0485473601917 0.951452639808 0.0771353303056 0.922864669694 0.0697533569002 0.9302466431 0.122415142616 0.877584857384 </probabilities>
		</cpt>
		<!-- create node "song_24EPIC" -->
		<cpt id="song_24EPIC" >
			<!-- setting names of outcomes -->
			<state id="recommended" />
			<state id="notRecommended" />
			<!-- add arcs -->
			<parents>clusterPredict </parents>
			<!-- setting probabilities -->
			<probabilities>0.077899091542 0.922100908458 0.0661796463568 0.933820353643 0.0558388859896 0.94416111401 0.0579898577057 0.942010142294 0.0930267194101 0.90697328059 0.0634195490218 0.936580450978 0.0983572890349 0.901642710965 0.0688023695906 0.931197630409 0.0569908399531 0.943009160047 0.0498582080171 0.950141791983 0.127046520745 0.872953479255 0.0692315920899 0.93076840791 0.115359430543 0.884640569457 </probabilities>
		</cpt>
		<!-- create node "song_25" -->
		<cpt id="song_25" >
			<!-- setting names of outcomes -->
			<state id="recommended" />
			<state id="notRecommended" />
			<!-- add arcs -->
			<parents>clusterPredict </parents>
			<!-- setting probabilities -->
			<probabilities>0.0833394948508 0.916660505149 0.114751913532 0.885248086468 0.0681043204998 0.9318956795 0.0558161990732 0.944183800927 0.0963378436028 0.903662156397 0.0592530161567 0.940746983843 0.0572897469837 0.942710253016 0.0583103900607 0.941689609939 0.0482274268386 0.951772573161 0.0462576344893 0.953742365511 0.073419381528 0.926580618472 0.100293673306 0.899706326694 0.138598959079 0.861401040921 </probabilities>
		</cpt>
		<!-- create node "song_26Dead slow day" -->
		<cpt id="song_26Dead_slow_day" >
			<!-- setting names of outcomes -->
			<state id="recommended" />
			<state id="notRecommended" />
			<!-- add arcs -->
			<parents>clusterPredict </parents>
			<!-- setting probabilities -->
			<probabilities>0.0955021380833 0.904497861917 0.0752192788577 0.924780721142 0.0550799074662 0.944920092534 0.068255947477 0.931744052523 0.0645615850143 0.935438414986 0.0721590507414 0.927840949259 0.063924061069 0.936075938931 0.0624955715135 0.937504428486 0.0842788314722 0.915721168528 0.0820343285259 0.917965671474 0.0796384187017 0.920361581298 0.127040242371 0.872959757629 0.0698106387067 0.930189361293 </probabilities>
		</cpt>
		<!-- create node "song_27Hotter Than That" -->
		<cpt id="song_27Hotter_Than_That" >
			<!-- setting names of outcomes -->
			<state id="recommended" />
			<state id="notRecommended" />
			<!-- add arcs -->
			<parents>clusterPredict </parents>
			<!-- setting probabilities -->
			<probabilities>0.0779561463023 0.922043853698 0.0686214118401 0.93137858816 0.117023146298 0.882976853702 0.073041467467 0.926958532533 0.0797638019204 0.92023619808 0.0512707754759 0.948729224524 0.062439543117 0.937560456883 0.16667587118 0.83332412882 0.0577838034902 0.94221619651 0.0581185099112 0.941881490089 0.064808234007 0.935191765993 0.0630085519407 0.936991448059 0.0594887370508 0.940511262949 </probabilities>
		</cpt>
		<!-- create node "song_28Matchbox" -->
		<cpt id="song_28Matchbox" >
			<!-- setting names of outcomes -->
			<state id="recommended" />
			<state id="notRecommended" />
			<!-- add arcs -->
			<parents>clusterPredict </parents>
			<!-- setting probabilities -->
			<probabilities>0.0728900576804 0.92710994232 0.0715481617867 0.928451838213 0.0582677402002 0.9417322598 0.0618336288938 0.938166371106 0.0910636625199 0.90893633748 0.0574499034462 0.942550096554 0.0648162707745 0.935183729226 0.0616512350261 0.938348764974 0.0619610873496 0.93803891265 0.0472167527142 0.952783247286 0.0922969189411 0.907703081059 0.105926362852 0.894073637148 0.153078217816 0.846921782184 </probabilities>
		</cpt>
		<!-- create node "song_29Break My Mind" -->
		<cpt id="song_29Break_My_Mind" >
			<!-- setting names of outcomes -->
			<state id="recommended" />
			<state id="notRecommended" />
			<!-- add arcs -->
			<parents>clusterPredict </parents>
			<!-- setting probabilities -->
			<probabilities>0.0984264383296 0.90157356167 0.0695710399558 0.930428960044 0.0526187962237 0.947381203776 0.0591292822283 0.940870717772 0.0711972432045 0.928802756796 0.0642325781512 0.935767421849 0.0671339474522 0.932866052548 0.0649328187283 0.935067181272 0.0598792014358 0.940120798564 0.0565892751452 0.943410724855 0.147262978068 0.852737021932 0.0895792703947 0.910420729605 0.0994471306826 0.900552869317 </probabilities>
		</cpt>
		<!-- create node "song_30Chandra" -->
		<cpt id="song_30Chandra" >
			<!-- setting names of outcomes -->
			<state id="recommended" />
			<state id="notRecommended" />
			<!-- add arcs -->
			<parents>clusterPredict </parents>
			<!-- setting probabilities -->
			<probabilities>0.142132322554 0.857867677446 0.0715527103236 0.928447289676 0.0567086942586 0.943291305741 0.0602440268744 0.939755973126 0.0668864630818 0.933113536918 0.0582963157317 0.941703684268 0.0573331468842 0.942666853116 0.0714814772872 0.928518522713 0.099295097431 0.900704902569 0.0815386399854 0.918461360015 0.0783952053171 0.921604794683 0.0940118291025 0.905988170897 0.0621240711681 0.937875928832 </probabilities>
		</cpt>
		<!-- create node "song_31King Harvest (Has Surely Come) (2000 Digital Remaster)" -->
		<cpt id="song_31King_Harvest_(Has_Surely_Come)_(2000_Digital_Remaster)" >
			<!-- setting names of outcomes -->
			<state id="recommended" />
			<state id="notRecommended" />
			<!-- add arcs -->
			<parents>clusterPredict </parents>
			<!-- setting probabilities -->
			<probabilities>0.221585037966 0.778414962034 0.0852364936733 0.914763506327 0.0576052622018 0.942394737798 0.0485528944826 0.951447105517 0.0908311034607 0.909168896539 0.0502376968927 0.949762303107 0.0571967106771 0.942803289323 0.0665683719173 0.933431628083 0.062992336069 0.937007663931 0.0546436498087 0.945356350191 0.0656668420756 0.934333157924 0.0768190434515 0.923180956548 0.0620645573235 0.937935442676 </probabilities>
		</cpt>
		<!-- create node "song_32Blue Monday" -->
		<cpt id="song_32Blue_Monday" >
			<!-- setting names of outcomes -->
			<state id="recommended" />
			<state id="notRecommended" />
			<!-- add arcs -->
			<parents>clusterPredict </parents>
			<!-- setting probabilities -->
			<probabilities>0.0586426138341 0.941357386166 0.16679979611 0.83320020389 0.0666755624001 0.9333244376 0.0638385732869 0.936161426713 0.0748387255708 0.925161274429 0.105309442994 0.894690557006 0.0714859789934 0.928514021007 0.0477645526603 0.95223544734 0.0445983630191 0.955401636981 0.0515799833924 0.948420016608 0.0534959376569 0.946504062343 0.105237918172 0.894762081828 0.0897325519109 0.910267448089 </probabilities>
		</cpt>
		<!-- create node "song_33Mine Tonite" -->
		<cpt id="song_33Mine_Tonite" >
			<!-- setting names of outcomes -->
			<state id="recommended" />
			<state id="notRecommended" />
			<!-- add arcs -->
			<parents>clusterPredict </parents>
			<!-- setting probabilities -->
			<probabilities>0.0813859933667 0.918614006633 0.0735221655198 0.92647783448 0.0632944973373 0.936705502663 0.0681023603408 0.931897639659 0.0636481469611 0.936351853039 0.0923111614061 0.907688838594 0.0740749868691 0.925925013131 0.0704369994931 0.929563000507 0.0533842367421 0.946615763258 0.0717580477245 0.928241952276 0.128187925214 0.871812074786 0.0687820239598 0.93121797604 0.0911114550656 0.908888544934 </probabilities>
		</cpt>
		<!-- create node "song_34What's Wrong with my foot:" -->
		<cpt id="song_34What's_Wrong_with_my_foot:" >
			<!-- setting names of outcomes -->
			<state id="recommended" />
			<state id="notRecommended" />
			<!-- add arcs -->
			<parents>clusterPredict </parents>
			<!-- setting probabilities -->
			<probabilities>0.162067368505 0.837932631495 0.0719770486663 0.928022951334 0.0603256918448 0.939674308155 0.052262374466 0.947737625534 0.0917256833522 0.908274316648 0.0548103090431 0.945189690957 0.0703168577501 0.92968314225 0.0845146826044 0.915485317396 0.0640935058366 0.935906494163 0.0579758972236 0.942024102776 0.0949352152946 0.905064784705 0.0642689422869 0.935731057713 0.070726423126 0.929273576874 </probabilities>
		</cpt>
		<!-- create node "song_35Torn" -->
		<cpt id="song_35Torn" >
			<!-- setting names of outcomes -->
			<state id="recommended" />
			<state id="notRecommended" />
			<!-- add arcs -->
			<parents>clusterPredict </parents>
			<!-- setting probabilities -->
			<probabilities>0.0681209767011 0.931879023299 0.0934623177045 0.906537682295 0.0667317861513 0.933268213849 0.0536520105701 0.94634798943 0.211058851116 0.788941148884 0.0572165281718 0.942783471828 0.0891511494128 0.910848850587 0.0575169589011 0.942483041099 0.0581070457101 0.94189295429 0.0467696018602 0.95323039814 0.0526993792258 0.947300620774 0.0744991136394 0.925500886361 0.0710142808361 0.928985719164 </probabilities>
		</cpt>
		<!-- create node "song_36Jerry Was A Race Car Driver" -->
		<cpt id="song_36Jerry_Was_A_Race_Car_Driver" >
			<!-- setting names of outcomes -->
			<state id="recommended" />
			<state id="notRecommended" />
			<!-- add arcs -->
			<parents>clusterPredict </parents>
			<!-- setting probabilities -->
			<probabilities>0.0631058878587 0.936894112141 0.069954506548 0.930045493452 0.0525421632102 0.94745783679 0.0482111790055 0.951788820995 0.280704224688 0.719295775312 0.048553959465 0.951446040535 0.0857842009505 0.914215799049 0.0528034050673 0.947196594933 0.058145073587 0.941854926413 0.0401659723242 0.959834027676 0.0535811886928 0.946418811307 0.0735257664327 0.926474233567 0.0729224721696 0.92707752783 </probabilities>
		</cpt>
		<!-- create node "song_37Tiny Dancer" -->
		<cpt id="song_37Tiny_Dancer" >
			<!-- setting names of outcomes -->
			<state id="recommended" />
			<state id="notRecommended" />
			<!-- add arcs -->
			<parents>clusterPredict </parents>
			<!-- setting probabilities -->
			<probabilities>0.0623612373091 0.937638762691 0.088786446074 0.911213553926 0.0645954540607 0.935404545939 0.069181890074 0.930818109926 0.080760704156 0.919239295844 0.0649551102287 0.935044889771 0.0600899757245 0.939910024276 0.053415425965 0.946584574035 0.0610258987945 0.938974101206 0.0504261780133 0.949573821987 0.0606826733922 0.939317326608 0.181812034031 0.818187965969 0.101906972178 0.898093027822 </probabilities>
		</cpt>
		<!-- create node "song_38I Just Want To Have Something To Do" -->
		<cpt id="song_38I_Just_Want_To_Have_Something_To_Do" >
			<!-- setting names of outcomes -->
			<state id="recommended" />
			<state id="notRecommended" />
			<!-- add arcs -->
			<parents>clusterPredict </parents>
			<!-- setting probabilities -->
			<probabilities>0.0724783174324 0.927521682568 0.0847138886754 0.915286111325 0.0690939164999 0.9309060835 0.0644962761791 0.935503723821 0.0823484971984 0.917651502802 0.0971989547155 0.902801045285 0.126900802606 0.873099197394 0.0665890142292 0.933410985771 0.0531308961611 0.946869103839 0.0640422618742 0.935957738126 0.0745460101528 0.925453989847 0.0647166455646 0.935283354435 0.0797445187118 0.920255481288 </probabilities>
		</cpt>
		<!-- create node "song_39All Possibilities" -->
		<cpt id="song_39All_Possibilities" >
			<!-- setting names of outcomes -->
			<state id="recommended" />
			<state id="notRecommended" />
			<!-- add arcs -->
			<parents>clusterPredict </parents>
			<!-- setting probabilities -->
			<probabilities>0.0959525666853 0.904047433315 0.0976959099087 0.902304090091 0.056718940186 0.943281059814 0.0490571602817 0.950942839718 0.116134075788 0.883865924212 0.0591801650555 0.940819834945 0.0659139823277 0.934086017672 0.0559730228523 0.944026977148 0.0507503259271 0.949249674073 0.0455940649981 0.954405935002 0.0829271749706 0.917072825029 0.0812463876166 0.918753612383 0.142856223402 0.857143776598 </probabilities>
		</cpt>
		<!-- create node "song_40Dirty Deeds Done Dirt Cheap" -->
		<cpt id="song_40Dirty_Deeds_Done_Dirt_Cheap" >
			<!-- setting names of outcomes -->
			<state id="recommended" />
			<state id="notRecommended" />
			<!-- add arcs -->
			<parents>clusterPredict </parents>
			<!-- setting probabilities -->
			<probabilities>0.0644352493002 0.9355647507 0.0788236509806 0.921176349019 0.0607335918844 0.939266408116 0.0511931494237 0.948806850576 0.231754677357 0.768245322643 0.0528161685454 0.947183831455 0.0810850475253 0.918914952475 0.0564180360937 0.943581963906 0.0510282789131 0.948971721087 0.0407949909488 0.959205009051 0.0606038106859 0.939396189314 0.0715784004079 0.928421599592 0.0987349479341 0.901265052066 </probabilities>
		</cpt>
		<!-- create node "song_41Answering Machine" -->
		<cpt id="song_41Answering_Machine" >
			<!-- setting names of outcomes -->
			<state id="recommended" />
			<state id="notRecommended" />
			<!-- add arcs -->
			<parents>clusterPredict </parents>
			<!-- setting probabilities -->
			<probabilities>0.0782946049981 0.921705395002 0.133263996493 0.866736003507 0.0748699859212 0.925130014079 0.0595863472383 0.940413652762 0.0791268666738 0.920873133326 0.0775877448209 0.922412255179 0.0624675627748 0.937532437225 0.0588183974656 0.941181602534 0.044396079897 0.955603920103 0.0520062927641 0.947993707236 0.075233388039 0.924766611961 0.0811958554486 0.918804144551 0.123152877465 0.876847122535 </probabilities>
		</cpt>
		<!-- create node "song_42Nova Express: I'm Alive" -->
		<cpt id="song_42Nova_Express:_I'm_Alive" >
			<!-- setting names of outcomes -->
			<state id="recommended" />
			<state id="notRecommended" />
			<!-- add arcs -->
			<parents>clusterPredict </parents>
			<!-- setting probabilities -->
			<probabilities>0.0886625525926 0.911337447407 0.0678192005837 0.932180799416 0.059914551753 0.940085448247 0.059719926206 0.940280073794 0.0659098918627 0.934090108137 0.0689023420268 0.931097657973 0.0665266673234 0.933473332677 0.0733836031888 0.926616396811 0.0519186286841 0.948081371316 0.0599122902095 0.94008770979 0.178090325469 0.821909674531 0.0643495607861 0.935650439214 0.094890459314 0.905109540686 </probabilities>
		</cpt>
		<!-- create node "song_43Say You Love Me" -->
		<cpt id="song_43Say_You_Love_Me" >
			<!-- setting names of outcomes -->
			<state id="recommended" />
			<state id="notRecommended" />
			<!-- add arcs -->
			<parents>clusterPredict </parents>
			<!-- setting probabilities -->
			<probabilities>0.0510482569393 0.948951743061 0.0649652747772 0.935034725223 0.0943044360855 0.905695563915 0.211706668558 0.788293331442 0.0526650786958 0.947334921304 0.0824901954985 0.917509804501 0.0673201758478 0.932679824152 0.0698008140471 0.930199185953 0.0510754623236 0.948924537676 0.0830909841074 0.916909015893 0.0512728992265 0.948727100773 0.0679028022798 0.93209719772 0.0523569516138 0.947643048386 </probabilities>
		</cpt>
		<!-- create node "song_44Baggy Trousers" -->
		<cpt id="song_44Baggy_Trousers" >
			<!-- setting names of outcomes -->
			<state id="recommended" />
			<state id="notRecommended" />
			<!-- add arcs -->
			<parents>clusterPredict </parents>
			<!-- setting probabilities -->
			<probabilities>0.0662304366865 0.933769563314 0.0691421252373 0.930857874763 0.110714340491 0.889285659509 0.0849920088444 0.915007991156 0.0951215338244 0.904878466176 0.0557676065269 0.944232393473 0.0737399342207 0.926260065779 0.112584283911 0.887415716089 0.0606140686288 0.939385931371 0.0529198414025 0.947080158597 0.0703618438816 0.929638156118 0.070935916084 0.929064083916 0.0768760602613 0.923123939739 </probabilities>
		</cpt>
		<!-- create node "song_45Police & Thieves" -->
		<cpt id="song_45Police_&_Thieves" >
			<!-- setting names of outcomes -->
			<state id="recommended" />
			<state id="notRecommended" />
			<!-- add arcs -->
			<parents>clusterPredict </parents>
			<!-- setting probabilities -->
			<probabilities>0.0695437677841 0.930456232216 0.0756637151417 0.924336284858 0.054436266563 0.945563733437 0.0526509720106 0.947349027989 0.125351017712 0.874648982288 0.0641357461317 0.935864253868 0.194413352069 0.805586647931 0.0572582117405 0.942741788259 0.0549586510687 0.945041348931 0.0480589328404 0.95194106716 0.0624766196537 0.937523380346 0.0674906947607 0.932509305239 0.0735620525241 0.926437947476 </probabilities>
		</cpt>
		<!-- create node "song_46ON THE ROAD AGAIN (Lp Version)" -->
		<cpt id="song_46ON_THE_ROAD_AGAIN_(Lp_Version)" >
			<!-- setting names of outcomes -->
			<state id="recommended" />
			<state id="notRecommended" />
			<!-- add arcs -->
			<parents>clusterPredict </parents>
			<!-- setting probabilities -->
			<probabilities>0.06812979185 0.93187020815 0.0737619405555 0.926238059444 0.0597499009852 0.940250099015 0.0563395988882 0.943660401112 0.195884025194 0.804115974806 0.0528333857709 0.947166614229 0.0818048537331 0.918195146267 0.0599436925447 0.940056307455 0.0715279868185 0.928472013182 0.0450567064967 0.954943293503 0.0611536417779 0.938846358222 0.0883904272719 0.911609572728 0.0854240481138 0.914575951886 </probabilities>
		</cpt>
		<!-- create node "song_47Cigarettes And Chocolate Milk" -->
		<cpt id="song_47Cigarettes_And_Chocolate_Milk" >
			<!-- setting names of outcomes -->
			<state id="recommended" />
			<state id="notRecommended" />
			<!-- add arcs -->
			<parents>clusterPredict </parents>
			<!-- setting probabilities -->
			<probabilities>0.0738865979213 0.926113402079 0.0798627313753 0.920137268625 0.0592716696407 0.940728330359 0.0480588731025 0.951941126898 0.269043483459 0.730956516541 0.0480082620849 0.951991737915 0.0717872955072 0.928212704493 0.0573632939215 0.942636706078 0.0603624066148 0.939637593385 0.0432344007238 0.956765599276 0.0521471612857 0.947852838714 0.0714617584006 0.928538241599 0.0655120659627 0.934487934037 </probabilities>
		</cpt>
		<!-- create node "song_48World In My Eyes (7" Version)" -->
		<cpt id="song_48World_In_My_Eyes_(7"_Version)" >
			<!-- setting names of outcomes -->
			<state id="recommended" />
			<state id="notRecommended" />
			<!-- add arcs -->
			<parents>clusterPredict </parents>
			<!-- setting probabilities -->
			<probabilities>0.0939802973052 0.906019702695 0.109531791021 0.890468208979 0.0690971652239 0.930902834776 0.0611160249207 0.938883975079 0.0716694056858 0.928330594314 0.103531014858 0.896468985142 0.0804330836757 0.919566916324 0.0651982592679 0.934801740732 0.0489918670778 0.951008132922 0.072722313081 0.927277686919 0.0779120240449 0.922087975955 0.0694270898187 0.930572910181 0.07638966402 0.92361033598 </probabilities>
		</cpt>
		<!-- create node "song_49Artificial Sweetener" -->
		<cpt id="song_49Artificial_Sweetener" >
			<!-- setting names of outcomes -->
			<state id="recommended" />
			<state id="notRecommended" />
			<!-- add arcs -->
			<parents>clusterPredict </parents>
			<!-- setting probabilities -->
			<probabilities>0.0941892404878 0.905810759512 0.0978023109778 0.902197689022 0.0748505852721 0.925149414728 0.0551713938614 0.944828606139 0.147325181887 0.852674818113 0.0582968062483 0.941703193752 0.0764652758652 0.923534724135 0.0709574201625 0.929042579838 0.0600410815656 0.939958918434 0.0529092400945 0.947090759906 0.0645014140984 0.935498585902 0.0718413431741 0.928158656826 0.0756487063057 0.924351293694 </probabilities>
		</cpt>
		<!-- create node "song_50Prince Charming" -->
		<cpt id="song_50Prince_Charming" >
			<!-- setting names of outcomes -->
			<state id="recommended" />
			<state id="notRecommended" />
			<!-- add arcs -->
			<parents>clusterPredict </parents>
			<!-- setting probabilities -->
			<probabilities>0.0726965893256 0.927303410674 0.0892622446073 0.910737755393 0.0527675787354 0.947232421265 0.0492576474112 0.950742352589 0.113030650322 0.886969349678 0.0589784077392 0.941021592261 0.066584522835 0.933415477165 0.0498612397446 0.950138760255 0.0503141863714 0.949685813629 0.0423496966162 0.957650303384 0.0722996344981 0.927700365502 0.091668432338 0.908331567662 0.190929169456 0.809070830544 </probabilities>
		</cpt>
		<!-- create node "song_51Wave" -->
		<cpt id="song_51Wave" >
			<!-- setting names of outcomes -->
			<state id="recommended" />
			<state id="notRecommended" />
			<!-- add arcs -->
			<parents>clusterPredict </parents>
			<!-- setting probabilities -->
			<probabilities>0.058069163955 0.941930836045 0.0626002147339 0.937399785266 0.0751216847963 0.924878315204 0.151898455552 0.848101544448 0.0589751534563 0.941024846544 0.0766710692061 0.923328930794 0.0729424229338 0.927057577066 0.0753505650668 0.924649434933 0.0764411372178 0.923558862782 0.0897364019485 0.910263598052 0.0617675976912 0.938232402309 0.0808679692795 0.919132030721 0.0595581641632 0.940441835837 </probabilities>
		</cpt>
		<!-- create node "song_52Skunk Werks" -->
		<cpt id="song_52Skunk_Werks" >
			<!-- setting names of outcomes -->
			<state id="recommended" />
			<state id="notRecommended" />
			<!-- add arcs -->
			<parents>clusterPredict </parents>
			<!-- setting probabilities -->
			<probabilities>0.104935747096 0.895064252904 0.064929918977 0.935070081023 0.053687290165 0.946312709835 0.0567582875323 0.943241712468 0.0873465778499 0.91265342215 0.0559614148169 0.944038585183 0.0723412218057 0.927658778194 0.0704214150764 0.929578584924 0.131908770993 0.868091229007 0.0615941065409 0.938405893459 0.0863060605294 0.913693939471 0.0819914257784 0.918008574222 0.0718177628387 0.928182237161 </probabilities>
		</cpt>
		<!-- create node "song_53Suzanne" -->
		<cpt id="song_53Suzanne" >
			<!-- setting names of outcomes -->
			<state id="recommended" />
			<state id="notRecommended" />
			<!-- add arcs -->
			<parents>clusterPredict </parents>
			<!-- setting probabilities -->
			<probabilities>0.067579845709 0.932420154291 0.0702474654191 0.929752534581 0.0611481156819 0.938851884318 0.0698946874247 0.930105312575 0.0983807464693 0.901619253531 0.0636314996908 0.936368500309 0.0934725492417 0.906527450758 0.0636677559656 0.936332244034 0.121835891152 0.878164108848 0.0596436500478 0.940356349952 0.0621598935517 0.937840106448 0.0968072437423 0.903192756258 0.0715306559038 0.928469344096 </probabilities>
		</cpt>
		<!-- create node "song_54Effervescing Elephant" -->
		<cpt id="song_54Effervescing_Elephant" >
			<!-- setting names of outcomes -->
			<state id="recommended" />
			<state id="notRecommended" />
			<!-- add arcs -->
			<parents>clusterPredict </parents>
			<!-- setting probabilities -->
			<probabilities>0.0608395284064 0.939160471594 0.0644050873639 0.935594912636 0.0740325896654 0.925967410335 0.132948643374 0.867051356626 0.0597369792966 0.940263020703 0.0804911849259 0.919508815074 0.070879588052 0.929120411948 0.074920624968 0.925079375032 0.0750850225128 0.924914977487 0.0882877280576 0.911712271942 0.0690958428931 0.930904157107 0.0833667679958 0.916633232004 0.0659104124888 0.934089587511 </probabilities>
		</cpt>
		<!-- create node "song_55God Bless The Child" -->
		<cpt id="song_55God_Bless_The_Child" >
			<!-- setting names of outcomes -->
			<state id="recommended" />
			<state id="notRecommended" />
			<!-- add arcs -->
			<parents>clusterPredict </parents>
			<!-- setting probabilities -->
			<probabilities>0.0635754480974 0.936424551903 0.0820473616918 0.917952638308 0.0748999815649 0.925100018435 0.0801617690165 0.919838230983 0.0845046356687 0.915495364331 0.0573094605588 0.942690539441 0.0599176743451 0.940082325655 0.0623071515074 0.937692848493 0.0683336181509 0.931666381849 0.0521000244508 0.947899975549 0.0570934392418 0.942906560758 0.180664160872 0.819335839128 0.077085274834 0.922914725166 </probabilities>
		</cpt>
		<!-- create node "song_56Highway Chile" -->
		<cpt id="song_56Highway_Chile" >
			<!-- setting names of outcomes -->
			<state id="recommended" />
			<state id="notRecommended" />
			<!-- add arcs -->
			<parents>clusterPredict </parents>
			<!-- setting probabilities -->
			<probabilities>0.067976806942 0.932023193058 0.0726480828514 0.927351917149 0.101860968973 0.898139031027 0.0818229170269 0.918177082973 0.082614006562 0.917385993438 0.0670094995073 0.932990500493 0.0820102863004 0.9179897137 0.10084198134 0.89915801866 0.0530251317233 0.946974868277 0.0570474058593 0.942952594141 0.0828245371318 0.917175462868 0.0649737808386 0.935026219161 0.0853445949444 0.914655405056 </probabilities>
		</cpt>
		<!-- create node "song_57No Rain" -->
		<cpt id="song_57No_Rain" >
			<!-- setting names of outcomes -->
			<state id="recommended" />
			<state id="notRecommended" />
			<!-- add arcs -->
			<parents>clusterPredict </parents>
			<!-- setting probabilities -->
			<probabilities>0.0558159457309 0.944184054269 0.0836549136557 0.916345086344 0.0620415347568 0.937958465243 0.0726004073887 0.927399592611 0.0574849677317 0.942515032268 0.21897326833 0.78102673167 0.0763960897508 0.923603910249 0.0507616309486 0.949238369051 0.0462195095309 0.953780490469 0.0662932733446 0.933706726655 0.0607864316396 0.93921356836 0.0734934186619 0.926506581338 0.07547860853 0.92452139147 </probabilities>
		</cpt>
		<!-- create node "song_58Da Funk" -->
		<cpt id="song_58Da_Funk" >
			<!-- setting names of outcomes -->
			<state id="recommended" />
			<state id="notRecommended" />
			<!-- add arcs -->
			<parents>clusterPredict </parents>
			<!-- setting probabilities -->
			<probabilities>0.0739079332962 0.926092066704 0.0959819648501 0.90401803515 0.0726691513356 0.927330848664 0.0544040766928 0.945595923307 0.183900840353 0.816099159647 0.057739164623 0.942260835377 0.0792703795543 0.920729620446 0.0626224490467 0.937377550953 0.0535987491028 0.946401250897 0.0464573191322 0.953542680868 0.0609063759379 0.939093624062 0.0718930750378 0.928106924962 0.0866485210382 0.913351478962 </probabilities>
		</cpt>
		<!-- create node "song_59 Thela Hun Ginjeet" -->
		<cpt id="song_59_Thela_Hun_Ginjeet" >
			<!-- setting names of outcomes -->
			<state id="recommended" />
			<state id="notRecommended" />
			<!-- add arcs -->
			<parents>clusterPredict </parents>
			<!-- setting probabilities -->
			<probabilities>0.0600123685774 0.939987631423 0.0813252639808 0.918674736019 0.0542701067096 0.94572989329 0.0630515201059 0.936948479894 0.0583668022969 0.941633197703 0.22276949302 0.77723050698 0.101480883971 0.898519116029 0.0499322504308 0.950067749569 0.0474604766553 0.952539523345 0.0721939962945 0.927806003706 0.0579171286161 0.942082871384 0.0688464085785 0.931153591422 0.0623733007635 0.937626699237 </probabilities>
		</cpt>
		<!-- create node "song_60Buddy Holly" -->
		<cpt id="song_60Buddy_Holly" >
			<!-- setting names of outcomes -->
			<state id="recommended" />
			<state id="notRecommended" />
			<!-- add arcs -->
			<parents>clusterPredict </parents>
			<!-- setting probabilities -->
			<probabilities>0.0724088459023 0.927591154098 0.095728221656 0.904271778344 0.0751404183779 0.924859581622 0.0566891941597 0.94331080584 0.162400741663 0.837599258337 0.0602804364868 0.939719563513 0.0804173113652 0.919582688635 0.0636328645653 0.936367135435 0.0533531452224 0.946646854778 0.0471080883143 0.952891911686 0.063945915987 0.936054084013 0.0730245878667 0.926975412133 0.0958702284333 0.904129771567 </probabilities>
		</cpt>
		<!-- create node "song_61River Deep Mountain High" -->
		<cpt id="song_61River_Deep_Mountain_High" >
			<!-- setting names of outcomes -->
			<state id="recommended" />
			<state id="notRecommended" />
			<!-- add arcs -->
			<parents>clusterPredict </parents>
			<!-- setting probabilities -->
			<probabilities>0.0720785993665 0.927921400634 0.161021262576 0.838978737424 0.0927095473106 0.907290452689 0.0729142766965 0.927085723303 0.0728257019156 0.927174298084 0.0720835193468 0.927916480653 0.0609601148859 0.939039885114 0.0604786532777 0.939521346722 0.0525363070501 0.94746369295 0.0667515855487 0.933248414451 0.0498973595972 0.950102640403 0.106363467147 0.893636532853 0.0593796052814 0.940620394719 </probabilities>
		</cpt>
		<!-- create node "song_62Knysnamushrooms (Mr Gelatine)" -->
		<cpt id="song_62Knysnamushrooms_(Mr_Gelatine)" >
			<!-- setting names of outcomes -->
			<state id="recommended" />
			<state id="notRecommended" />
			<!-- add arcs -->
			<parents>clusterPredict </parents>
			<!-- setting probabilities -->
			<probabilities>0.120763772684 0.879236227316 0.063313912648 0.936686087352 0.0540413678389 0.945958632161 0.0523565999236 0.947643400076 0.0887437124567 0.911256287543 0.0535048730071 0.946495126993 0.0734315791757 0.926568420824 0.080084533707 0.919915466293 0.0635302317452 0.936469768255 0.052225711092 0.947774288908 0.149159541459 0.850840458541 0.0654817231483 0.934518276852 0.0833624411143 0.916637558886 </probabilities>
		</cpt>
		<!-- create node "song_63" -->
		<cpt id="song_63" >
			<!-- setting names of outcomes -->
			<state id="recommended" />
			<state id="notRecommended" />
			<!-- add arcs -->
			<parents>clusterPredict </parents>
			<!-- setting probabilities -->
			<probabilities>0.075446769261 0.924553230739 0.0899351413465 0.910064858654 0.0586568030317 0.941343196968 0.0628311049639 0.937168895036 0.0716679757626 0.928332024237 0.0646729026087 0.935327097391 0.0556734708812 0.944326529119 0.0545595659817 0.945440434018 0.0550892795387 0.944910720461 0.0518606162798 0.94813938372 0.074062209628 0.925937790372 0.175729144483 0.824270855517 0.109815016233 0.890184983767 </probabilities>
		</cpt>
		<!-- create node "song_64Thursday Group- Like White on Rice" -->
		<cpt id="song_64Thursday_Group-_Like_White_on_Rice" >
			<!-- setting names of outcomes -->
			<state id="recommended" />
			<state id="notRecommended" />
			<!-- add arcs -->
			<parents>clusterPredict </parents>
			<!-- setting probabilities -->
			<probabilities>0.134177259211 0.865822740789 0.0846947702698 0.91530522973 0.0665891998003 0.9334108002 0.0610415492192 0.938958450781 0.073878747563 0.926121252437 0.0603277863502 0.93967221365 0.0586687628998 0.9413312371 0.0736117743058 0.926388225694 0.0872980023817 0.912701997618 0.0824625035794 0.917537496421 0.0676007478919 0.932399252108 0.0881690419229 0.911830958077 0.0614798546047 0.938520145395 </probabilities>
		</cpt>
		<!-- create node "song_65Wonderful" -->
		<cpt id="song_65Wonderful" >
			<!-- setting names of outcomes -->
			<state id="recommended" />
			<state id="notRecommended" />
			<!-- add arcs -->
			<parents>clusterPredict </parents>
			<!-- setting probabilities -->
			<probabilities>0.0826050190464 0.917394980954 0.227249972081 0.772750027919 0.0636892393412 0.936310760659 0.0539840574379 0.946015942562 0.0704384880111 0.929561511989 0.0813659802886 0.918634019711 0.0628918493498 0.93710815065 0.0512618143779 0.948738185622 0.0460346432516 0.953965356748 0.0614846890039 0.938515310996 0.0526396981223 0.947360301878 0.0838801683476 0.916119831652 0.062474381341 0.937525618659 </probabilities>
		</cpt>
		<!-- create node "song_66Best Of All Possible Worlds" -->
		<cpt id="song_66Best_Of_All_Possible_Worlds" >
			<!-- setting names of outcomes -->
			<state id="recommended" />
			<state id="notRecommended" />
			<!-- add arcs -->
			<parents>clusterPredict </parents>
			<!-- setting probabilities -->
			<probabilities>0.107219211138 0.892780788862 0.123292231005 0.876707768995 0.0602535996639 0.939746400336 0.0599094941437 0.940090505856 0.0719534783401 0.92804652166 0.0797462454493 0.920253754551 0.0674736632043 0.932526336796 0.0576697289043 0.942330271096 0.0611025803277 0.938897419672 0.0782464657376 0.921753534262 0.0607729228717 0.939227077128 0.109230314621 0.890769685379 0.0631300645941 0.936869935406 </probabilities>
		</cpt>
		<!-- create node "song_67China Grove" -->
		<cpt id="song_67China_Grove" >
			<!-- setting names of outcomes -->
			<state id="recommended" />
			<state id="notRecommended" />
			<!-- add arcs -->
			<parents>clusterPredict </parents>
			<!-- setting probabilities -->
			<probabilities>0.0519506996849 0.948049300315 0.059955253541 0.940044746459 0.092922554519 0.907077445481 0.212471996568 0.787528003432 0.0597942384889 0.940205761511 0.0637741203807 0.936225879619 0.0699341284106 0.930065871589 0.0827214797269 0.917278520273 0.0570824481007 0.942917551899 0.0629197719197 0.93708022808 0.0564191344002 0.9435808656 0.0719724062636 0.928027593736 0.0580817679952 0.941918232005 </probabilities>
		</cpt>
		<!-- create node "song_68Pride and Joy" -->
		<cpt id="song_68Pride_and_Joy" >
			<!-- setting names of outcomes -->
			<state id="recommended" />
			<state id="notRecommended" />
			<!-- add arcs -->
			<parents>clusterPredict </parents>
			<!-- setting probabilities -->
			<probabilities>0.0638875417575 0.936112458243 0.0889788247371 0.911021175263 0.126390569208 0.873609430792 0.100539115893 0.899460884107 0.0660974224443 0.933902577556 0.0772130853517 0.922786914648 0.0683364893996 0.9316635106 0.0751670352964 0.924832964704 0.0603493980642 0.939650601936 0.0905064986628 0.909493501337 0.0515913113949 0.948408688605 0.0758457470614 0.924154252939 0.0550969607293 0.944903039271 </probabilities>
		</cpt>
		<!-- create node "song_69Alf Leyla Wa Leyla" -->
		<cpt id="song_69Alf_Leyla_Wa_Leyla" >
			<!-- setting names of outcomes -->
			<state id="recommended" />
			<state id="notRecommended" />
			<!-- add arcs -->
			<parents>clusterPredict </parents>
			<!-- setting probabilities -->
			<probabilities>0.122513497371 0.877486502629 0.066711408764 0.933288591236 0.0658847221569 0.934115277843 0.0564444648744 0.943555535126 0.0963824752006 0.903617524799 0.0510080153969 0.948991984603 0.0684728375757 0.931527162424 0.110593098239 0.889406901761 0.0626184649607 0.937381535039 0.0532267687492 0.946773231251 0.106173624167 0.893826375833 0.0648813423389 0.935118657661 0.0750892802061 0.924910719794 </probabilities>
		</cpt>
		<!-- create node "song_70" -->
		<cpt id="song_70" >
			<!-- setting names of outcomes -->
			<state id="recommended" />
			<state id="notRecommended" />
			<!-- add arcs -->
			<parents>clusterPredict </parents>
			<!-- setting probabilities -->
			<probabilities>0.0939243059292 0.906075694071 0.131795851998 0.868204148002 0.0767707111951 0.923229288805 0.0590620111725 0.940937988827 0.0855061010179 0.914493898982 0.0831100579512 0.916889942049 0.0795590289015 0.920440971099 0.0655034838844 0.934496516116 0.0517342375098 0.94826576249 0.0671030872373 0.932896912763 0.0644448179679 0.935555182032 0.0707771283806 0.929222871619 0.0707091768541 0.929290823146 </probabilities>
		</cpt>
		<!-- create node "song_71Words Of Love" -->
		<cpt id="song_71Words_Of_Love" >
			<!-- setting names of outcomes -->
			<state id="recommended" />
			<state id="notRecommended" />
			<!-- add arcs -->
			<parents>clusterPredict </parents>
			<!-- setting probabilities -->
			<probabilities>0.0794725391227 0.920527460877 0.0722226176897 0.92777738231 0.0541931684211 0.945806831579 0.0506669378118 0.949333062188 0.216529235743 0.783470764257 0.0508031802395 0.949196819761 0.090439132723 0.909560867277 0.0603265506531 0.939673449347 0.0719292996812 0.928070700319 0.0458765505768 0.954123449423 0.0599656372677 0.940034362732 0.0779364271982 0.922063572802 0.0696387228726 0.930361277127 </probabilities>
		</cpt>
		<!-- create node "song_72CATCH THE WIND (Original Hickory 45 Vers" -->
		<cpt id="song_72CATCH_THE_WIND_(Original_Hickory_45_Vers" >
			<!-- setting names of outcomes -->
			<state id="recommended" />
			<state id="notRecommended" />
			<!-- add arcs -->
			<parents>clusterPredict </parents>
			<!-- setting probabilities -->
			<probabilities>0.0593103050776 0.940689694922 0.068788289732 0.931211710268 0.0856344919885 0.914365508012 0.149742487652 0.850257512348 0.0579951132506 0.942004886749 0.0791385660152 0.920861433985 0.0611729563637 0.938827043636 0.0731043912364 0.926895608764 0.0608638955122 0.939136104488 0.0768221236843 0.923177876316 0.0685431567398 0.93145684326 0.0875585183816 0.912441481618 0.0713257043665 0.928674295634 </probabilities>
		</cpt>
		<!-- create node "song_73The Concept" -->
		<cpt id="song_73The_Concept" >
			<!-- setting names of outcomes -->
			<state id="recommended" />
			<state id="notRecommended" />
			<!-- add arcs -->
			<parents>clusterPredict </parents>
			<!-- setting probabilities -->
			<probabilities>0.0668940175726 0.933105982427 0.286669845267 0.713330154733 0.0577014937703 0.94229850623 0.0500813930402 0.94991860696 0.0689479053585 0.931052094641 0.0777698446364 0.922230155364 0.0609140228721 0.939085977128 0.04488382054 0.95511617946 0.0407054570642 0.959294542936 0.050263414089 0.949736585911 0.0477493393832 0.952250660617 0.0840637747744 0.915936225226 0.063355671632 0.936644328368 </probabilities>
		</cpt>
		<!-- create node "song_74Bonita Applebum" -->
		<cpt id="song_74Bonita_Applebum" >
			<!-- setting names of outcomes -->
			<state id="recommended" />
			<state id="notRecommended" />
			<!-- add arcs -->
			<parents>clusterPredict </parents>
			<!-- setting probabilities -->
			<probabilities>0.0747837877118 0.925216212288 0.0982888357904 0.90171116421 0.0674232521823 0.932576747818 0.0574474255099 0.94255257449 0.121786977279 0.878213022721 0.0730429484932 0.926957051507 0.136381757561 0.863618242439 0.0615190725585 0.938480927441 0.0582416487203 0.94175835128 0.057114663946 0.942885336054 0.057113021854 0.942886978146 0.0697129469402 0.93028705306 0.0671436614537 0.932856338546 </probabilities>
		</cpt>
		<!-- create node "song_75El Cuarto de Tula" -->
		<cpt id="song_75El_Cuarto_de_Tula" >
			<!-- setting names of outcomes -->
			<state id="recommended" />
			<state id="notRecommended" />
			<!-- add arcs -->
			<parents>clusterPredict </parents>
			<!-- setting probabilities -->
			<probabilities>0.0602347200793 0.939765279921 0.0725551889171 0.927444811083 0.0679022064466 0.932097793553 0.0922003815898 0.90779961841 0.0644137603574 0.935586239643 0.116801938583 0.883198061417 0.091240191882 0.908759808118 0.0641116989312 0.935888301069 0.0530023285611 0.946997671439 0.065839304121 0.934160695879 0.0823521155651 0.917647884435 0.0772001043182 0.922799895682 0.0921460606483 0.907853939352 </probabilities>
		</cpt>
		<!-- create node "song_76" -->
		<cpt id="song_76" >
			<!-- setting names of outcomes -->
			<state id="recommended" />
			<state id="notRecommended" />
			<!-- add arcs -->
			<parents>clusterPredict </parents>
			<!-- setting probabilities -->
			<probabilities>0.115643177199 0.884356822801 0.0702539139435 0.929746086056 0.0554391589651 0.944560841035 0.056466939493 0.943533060507 0.0806236965746 0.919376303425 0.0566831494719 0.943316850528 0.0655556422036 0.934444357796 0.0677803239663 0.932219676034 0.14224311052 0.85775688948 0.0699460390342 0.930053960966 0.0708779586616 0.929122041338 0.0856093110415 0.914390688958 0.0628775789257 0.937122421074 </probabilities>
		</cpt>
		<!-- create node "song_77Ain't Talkin' 'Bout Love" -->
		<cpt id="song_77Ain't_Talkin'_'Bout_Love" >
			<!-- setting names of outcomes -->
			<state id="recommended" />
			<state id="notRecommended" />
			<!-- add arcs -->
			<parents>clusterPredict </parents>
			<!-- setting probabilities -->
			<probabilities>0.125413974077 0.874586025923 0.0730647585842 0.926935241416 0.0600724364154 0.939927563585 0.0533661823146 0.946633817685 0.0926108976114 0.907389102389 0.0597817903675 0.940218209632 0.0804321808172 0.919567819183 0.0809084775597 0.91909152244 0.0566229192707 0.943377080729 0.0555411843163 0.944458815684 0.11662229383 0.88337770617 0.0631653147715 0.936834685228 0.0823975900651 0.917602409935 </probabilities>
		</cpt>
		<!-- create node "song_78Badlands" -->
		<cpt id="song_78Badlands" >
			<!-- setting names of outcomes -->
			<state id="recommended" />
			<state id="notRecommended" />
			<!-- add arcs -->
			<parents>clusterPredict </parents>
			<!-- setting probabilities -->
			<probabilities>0.0602565063435 0.939743493656 0.227135096873 0.772864903127 0.0616244996719 0.938375500328 0.0574013858203 0.94259861418 0.0689512605452 0.931048739455 0.0882408812637 0.911759118736 0.0608638793376 0.939136120662 0.0450627366236 0.954937263376 0.0426555488944 0.957344451106 0.0503488507745 0.949651149226 0.0496328910748 0.950367108925 0.111891222523 0.888108777477 0.0759352402547 0.924064759745 </probabilities>
		</cpt>
		<!-- create node "song_79Take California" -->
		<cpt id="song_79Take_California" >
			<!-- setting names of outcomes -->
			<state id="recommended" />
			<state id="notRecommended" />
			<!-- add arcs -->
			<parents>clusterPredict </parents>
			<!-- setting probabilities -->
			<probabilities>0.072910652702 0.927089347298 0.071359016319 0.928640983681 0.0682952001575 0.931704799843 0.0664973287951 0.933502671205 0.0844609118683 0.915539088132 0.0672411041231 0.932758895877 0.0757109584772 0.924289041523 0.072863449988 0.927136550012 0.057994754622 0.942005245378 0.0537287959936 0.946271204006 0.108708338495 0.891291661505 0.0723099480682 0.927690051932 0.127919540391 0.872080459609 </probabilities>
		</cpt>
		<!-- create node "song_80" -->
		<cpt id="song_80" >
			<!-- setting names of outcomes -->
			<state id="recommended" />
			<state id="notRecommended" />
			<!-- add arcs -->
			<parents>clusterPredict </parents>
			<!-- setting probabilities -->
			<probabilities>0.0552502333027 0.944749766697 0.0923896084115 0.907610391589 0.0596239331268 0.940376066873 0.0650409937444 0.934959006256 0.060440257977 0.939559742023 0.225306575728 0.774693424272 0.0839623134829 0.916037686517 0.0483041917036 0.951695808296 0.042537534749 0.957462465251 0.0577439323983 0.942256067602 0.0586009004949 0.941399099505 0.0719249278475 0.928075072152 0.0788745970339 0.921125402966 </probabilities>
		</cpt>
		<!-- create node "song_81No Excuses" -->
		<cpt id="song_81No_Excuses" >
			<!-- setting names of outcomes -->
			<state id="recommended" />
			<state id="notRecommended" />
			<!-- add arcs -->
			<parents>clusterPredict </parents>
			<!-- setting probabilities -->
			<probabilities>0.057942734194 0.942057265806 0.0802529424936 0.919747057506 0.228424377615 0.771575622385 0.0824761749815 0.917523825019 0.073100437414 0.926899562586 0.0565968230102 0.94340317699 0.0578996882523 0.942100311748 0.0794989123995 0.920501087601 0.0468436420466 0.953156357953 0.0515093769775 0.948490623022 0.0534919610903 0.94650803891 0.0674164983337 0.932583501666 0.0645464311918 0.935453568808 </probabilities>
		</cpt>
		<!-- create node "song_82Before And After" -->
		<cpt id="song_82Before_And_After" >
			<!-- setting names of outcomes -->
			<state id="recommended" />
			<state id="notRecommended" />
			<!-- add arcs -->
			<parents>clusterPredict </parents>
			<!-- setting probabilities -->
			<probabilities>0.0995115768511 0.900488423149 0.0731374151873 0.926862584813 0.0567477405439 0.943252259456 0.0610067392756 0.938993260724 0.0755062741399 0.92449372586 0.0553437508635 0.944656249137 0.0587921236744 0.941207876326 0.0642844156704 0.93571558433 0.139979764038 0.860020235962 0.0681224092128 0.931877590787 0.0636867557151 0.936313244285 0.122149584728 0.877850415272 0.0617314501001 0.9382685499 </probabilities>
		</cpt>
		<!-- create node "song_83Rotgut" -->
		<cpt id="song_83Rotgut" >
			<!-- setting names of outcomes -->
			<state id="recommended" />
			<state id="notRecommended" />
			<!-- add arcs -->
			<parents>clusterPredict </parents>
			<!-- setting probabilities -->
			<probabilities>0.158947445864 0.841052554136 0.074429920548 0.925570079452 0.0575242367149 0.942475763285 0.0516817859182 0.948318214082 0.0740499072046 0.925950092795 0.0549430325838 0.945056967416 0.0563771561981 0.943622843802 0.0725055852265 0.927494414773 0.0523679636729 0.947632036327 0.053243089533 0.946756910467 0.13509401784 0.86490598216 0.0706073214739 0.929392678526 0.0882285372229 0.911771462777 </probabilities>
		</cpt>
		<!-- create node "song_84The Darkness - 04 - I Believe In A Thing Called Love" -->
		<cpt id="song_84The_Darkness_-_04_-_I_Believe_In_A_Thing_Called_Love" >
			<!-- setting names of outcomes -->
			<state id="recommended" />
			<state id="notRecommended" />
			<!-- add arcs -->
			<parents>clusterPredict </parents>
			<!-- setting probabilities -->
			<probabilities>0.0763708848263 0.923629115174 0.0955938970001 0.904406103 0.0759439022814 0.924056097719 0.0570922957127 0.942907704287 0.142745767893 0.857254232107 0.0622847800019 0.937715219998 0.081150114014 0.918849885986 0.0664684991165 0.933531500883 0.0522743964332 0.947725603567 0.0483600942127 0.951639905787 0.0695710095263 0.930428990474 0.0708928814724 0.929107118528 0.101251477509 0.898748522491 </probabilities>
		</cpt>
		<!-- create node "song_85 Lost in the Supermarket" -->
		<cpt id="song_85_Lost_in_the_Supermarket" >
			<!-- setting names of outcomes -->
			<state id="recommended" />
			<state id="notRecommended" />
			<!-- add arcs -->
			<parents>clusterPredict </parents>
			<!-- setting probabilities -->
			<probabilities>0.0561095449912 0.943890455009 0.0672558096984 0.932744190302 0.118241471609 0.881758528391 0.146031665208 0.853968334792 0.0715052726163 0.928494727384 0.0599942789951 0.940005721005 0.0663454280079 0.933654571992 0.0879414894028 0.912058510597 0.0592285981566 0.940771401843 0.0565292984569 0.943470701543 0.0600035024563 0.939996497544 0.0819207168958 0.918079283104 0.0688929235054 0.931107076495 </probabilities>
		</cpt>
		<!-- create node "song_86The Man Comes Around" -->
		<cpt id="song_86The_Man_Comes_Around" >
			<!-- setting names of outcomes -->
			<state id="recommended" />
			<state id="notRecommended" />
			<!-- add arcs -->
			<parents>clusterPredict </parents>
			<!-- setting probabilities -->
			<probabilities>0.0655963154982 0.934403684502 0.0836328652594 0.916367134741 0.0697873357887 0.930212664211 0.0679292444056 0.932070755594 0.0739687804213 0.926031219579 0.071454013531 0.928545986469 0.0611997979534 0.938800202047 0.059516549891 0.940483450109 0.050019577356 0.949980422644 0.050697474948 0.949302525052 0.0837872484495 0.916212751551 0.0886153817572 0.911384618243 0.173795414741 0.826204585259 </probabilities>
		</cpt>
		<!-- create node "song_87Morning Glory (LP Version)" -->
		<cpt id="song_87Morning_Glory_(LP_Version)" >
			<!-- setting names of outcomes -->
			<state id="recommended" />
			<state id="notRecommended" />
			<!-- add arcs -->
			<parents>clusterPredict </parents>
			<!-- setting probabilities -->
			<probabilities>0.0653782016187 0.934621798381 0.0657408864518 0.934259113548 0.0566872955802 0.94331270442 0.0696101221697 0.93038987783 0.0495314467803 0.95046855322 0.0805131334768 0.919486866523 0.0598500174786 0.940149982521 0.0570258880118 0.942974111988 0.0643363180886 0.935663681911 0.264380600494 0.735619399506 0.0514823866477 0.948517613352 0.0688233193853 0.931176680615 0.0466403838169 0.953359616183 </probabilities>
		</cpt>
		<!-- create node "song_88Teenage Shutdown (From 'Recharged From The Vaults')" -->
		<cpt id="song_88Teenage_Shutdown_(From_'Recharged_From_The_Vaults')" >
			<!-- setting names of outcomes -->
			<state id="recommended" />
			<state id="notRecommended" />
			<!-- add arcs -->
			<parents>clusterPredict </parents>
			<!-- setting probabilities -->
			<probabilities>0.091049013913 0.908950986087 0.0715066596711 0.928493340329 0.0609296091017 0.939070390898 0.0557077630837 0.944292236916 0.0761249934429 0.923875006557 0.0576397968232 0.942360203177 0.0589962640462 0.941003735954 0.0701714908864 0.929828509114 0.0502474462988 0.949752553701 0.0493211572486 0.950678842751 0.155496407521 0.844503592479 0.0704730364194 0.929526963581 0.132336361544 0.867663638456 </probabilities>
		</cpt>
		<!-- create node "song_89Genie In A Bottle" -->
		<cpt id="song_89Genie_In_A_Bottle" >
			<!-- setting names of outcomes -->
			<state id="recommended" />
			<state id="notRecommended" />
			<!-- add arcs -->
			<parents>clusterPredict </parents>
			<!-- setting probabilities -->
			<probabilities>0.0630233621012 0.936976637899 0.0910491361186 0.908950863881 0.069237192427 0.930762807573 0.0628705499129 0.937129450087 0.0766914578347 0.923308542165 0.0704292405061 0.929570759494 0.0609161722591 0.939083827741 0.0556549752778 0.944345024722 0.0455763230515 0.954423676949 0.0469696661055 0.953030333895 0.0751755173498 0.92482448265 0.0850867103782 0.914913289622 0.197319696678 0.802680303322 </probabilities>
		</cpt>
		<!-- create node "song_90Livin' On A Prayer" -->
		<cpt id="song_90Livin'_On_A_Prayer" >
			<!-- setting names of outcomes -->
			<state id="recommended" />
			<state id="notRecommended" />
			<!-- add arcs -->
			<parents>clusterPredict </parents>
			<!-- setting probabilities -->
			<probabilities>0.0618630511696 0.93813694883 0.0826925162483 0.917307483752 0.0781631536686 0.921836846331 0.0661600582887 0.933839941711 0.159973903262 0.840026096738 0.0606672893036 0.939332710696 0.106520646913 0.893479353087 0.0659930884063 0.934006911594 0.05789134599 0.94210865401 0.0478652140704 0.95213478593 0.0570480713316 0.942951928668 0.0767664909399 0.92323350906 0.078395170408 0.921604829592 </probabilities>
		</cpt>
		<!-- create node "song_91Teen Age Riot" -->
		<cpt id="song_91Teen_Age_Riot" >
			<!-- setting names of outcomes -->
			<state id="recommended" />
			<state id="notRecommended" />
			<!-- add arcs -->
			<parents>clusterPredict </parents>
			<!-- setting probabilities -->
			<probabilities>0.0583630550673 0.941636944933 0.0987873216894 0.901212678311 0.0633966342863 0.936603365714 0.0707609827756 0.929239017224 0.0666423464863 0.933357653514 0.151672525855 0.848327474145 0.0808028210636 0.919197178936 0.0510385724313 0.948961427569 0.0455669033759 0.954433096624 0.0562134299211 0.943786570079 0.0653845411499 0.93461545885 0.0873195872952 0.912680412705 0.104051278603 0.895948721397 </probabilities>
		</cpt>
		<!-- create node "song_92SHA-LA-LA (Make Me Happy)" -->
		<cpt id="song_92SHA-LA-LA_(Make_Me_Happy)" >
			<!-- setting names of outcomes -->
			<state id="recommended" />
			<state id="notRecommended" />
			<!-- add arcs -->
			<parents>clusterPredict </parents>
			<!-- setting probabilities -->
			<probabilities>0.0892576942609 0.910742305739 0.0757569014696 0.92424309853 0.102152227626 0.897847772374 0.0846858111086 0.915314188891 0.0631970089909 0.936802991009 0.0608704870451 0.939129512955 0.054545885774 0.945454114226 0.109668793828 0.890331206172 0.0634500188783 0.936549981122 0.0841869613765 0.915813038624 0.0730259590075 0.926974040993 0.0765416842168 0.923458315783 0.0626605664172 0.937339433583 </probabilities>
		</cpt>
		<!-- create node "song_93For You And I" -->
		<cpt id="song_93For_You_And_I" >
			<!-- setting names of outcomes -->
			<state id="recommended" />
			<state id="notRecommended" />
			<!-- add arcs -->
			<parents>clusterPredict </parents>
			<!-- setting probabilities -->
			<probabilities>0.0826121481223 0.917387851878 0.0723067466464 0.927693253354 0.059083284549 0.940916715451 0.0611607815109 0.938839218489 0.0819184364577 0.918081563542 0.0550474029784 0.944952597022 0.0636107796412 0.936389220359 0.0630428928365 0.936957107163 0.179132577608 0.820867422392 0.0663203723557 0.933679627644 0.0560493786033 0.943950621397 0.101843132106 0.898156867894 0.0578720665841 0.942127933416 </probabilities>
		</cpt>
		<!-- create node "song_94Love My Way" -->
		<cpt id="song_94Love_My_Way" >
			<!-- setting names of outcomes -->
			<state id="recommended" />
			<state id="notRecommended" />
			<!-- add arcs -->
			<parents>clusterPredict </parents>
			<!-- setting probabilities -->
			<probabilities>0.061870721913 0.938129278087 0.0755191097442 0.924480890256 0.191365277402 0.808634722598 0.0841198483787 0.915880151621 0.0797209286483 0.920279071352 0.0541659297325 0.945834070268 0.0599769400979 0.940023059902 0.0959518991212 0.904048100879 0.0503552282389 0.949644771761 0.0513663967421 0.948633603258 0.0586236404444 0.941376359556 0.0690350555285 0.930964944472 0.0679290240085 0.932070975992 </probabilities>
		</cpt>
		<!-- create node "song_95Just Like A Baby" -->
		<cpt id="song_95Just_Like_A_Baby" >
			<!-- setting names of outcomes -->
			<state id="recommended" />
			<state id="notRecommended" />
			<!-- add arcs -->
			<parents>clusterPredict </parents>
			<!-- setting probabilities -->
			<probabilities>0.0641682972498 0.93583170275 0.0765099050556 0.923490094944 0.0649668660453 0.935033133955 0.0879344910739 0.912065508926 0.0614301859486 0.938569814051 0.101810650985 0.898189349015 0.0877101922536 0.912289807746 0.0609596630904 0.93904033691 0.0751271341696 0.92487286583 0.1263254798 0.8736745202 0.0538724156638 0.946127584336 0.0850994089989 0.914900591001 0.0540853096661 0.945914690334 </probabilities>
		</cpt>
		<!-- create node "song_96" -->
		<cpt id="song_96" >
			<!-- setting names of outcomes -->
			<state id="recommended" />
			<state id="notRecommended" />
			<!-- add arcs -->
			<parents>clusterPredict </parents>
			<!-- setting probabilities -->
			<probabilities>0.0563148820542 0.943685117946 0.0573406750465 0.942659324954 0.0782949507832 0.921705049217 0.209949348843 0.790050651157 0.0516649775391 0.948335022461 0.0654246668395 0.934575333161 0.0593764486634 0.940623551337 0.0855536288499 0.91444637115 0.0613757694399 0.93862423056 0.0865545016369 0.913445498363 0.0611571828279 0.938842817172 0.072954650338 0.927045349662 0.0540383171388 0.945961682861 </probabilities>
		</cpt>
		<!-- create node "song_97Baby Got Back" -->
		<cpt id="song_97Baby_Got_Back" >
			<!-- setting names of outcomes -->
			<state id="recommended" />
			<state id="notRecommended" />
			<!-- add arcs -->
			<parents>clusterPredict </parents>
			<!-- setting probabilities -->
			<probabilities>0.0819363100718 0.918063689928 0.0914482436662 0.908551756334 0.0612405370483 0.938759462952 0.052867674541 0.947132325459 0.176583237936 0.823416762064 0.0575241416184 0.942475858382 0.0809042973583 0.919095702642 0.0584462759307 0.941553724069 0.0733378120198 0.92666218798 0.0509084941145 0.949091505885 0.0577926668442 0.942207333156 0.0835953594953 0.916404640505 0.0734149493554 0.926585050645 </probabilities>
		</cpt>
		<!-- create node "song_98TBD" -->
		<cpt id="song_98TBD" >
			<!-- setting names of outcomes -->
			<state id="recommended" />
			<state id="notRecommended" />
			<!-- add arcs -->
			<parents>clusterPredict </parents>
			<!-- setting probabilities -->
			<probabilities>0.142904294914 0.857095705086 0.063537697009 0.936462302991 0.0536761300674 0.946323869933 0.053711131702 0.946288868298 0.0886262812523 0.911373718748 0.0534205473743 0.946579452626 0.0754172472464 0.924582752754 0.0821466500603 0.91785334994 0.085814105292 0.914185894708 0.05919276018 0.94080723982 0.102968413598 0.897031586402 0.0698291041933 0.930170895807 0.0687556371115 0.931244362888 </probabilities>
		</cpt>
		<!-- create node "song_99Bay City Rollers _ Saturday Night" -->
		<cpt id="song_99Bay_City_Rollers___Saturday_Night" >
			<!-- setting names of outcomes -->
			<state id="recommended" />
			<state id="notRecommended" />
			<!-- add arcs -->
			<parents>clusterPredict </parents>
			<!-- setting probabilities -->
			<probabilities>0.0587084707797 0.94129152922 0.0739924638732 0.926007536127 0.170831892893 0.829168107107 0.121623679313 0.878376320687 0.0574964651777 0.942503534822 0.0698690037886 0.930130996211 0.0591824422865 0.940817557713 0.0900518758052 0.909948124195 0.044754039588 0.955245960412 0.0656681175586 0.934331882441 0.0607112477863 0.939288752214 0.0654822619477 0.934517738052 0.0616280392023 0.938371960798 </probabilities>
		</cpt>
		<!-- create node "song_100Just Like Heaven" -->
		<cpt id="song_100Just_Like_Heaven" >
			<!-- setting names of outcomes -->
			<state id="recommended" />
			<state id="notRecommended" />
			<!-- add arcs -->
			<parents>clusterPredict </parents>
			<!-- setting probabilities -->
			<probabilities>0.0534875722253 0.946512427775 0.0838764968555 0.916123503145 0.0603951370199 0.93960486298 0.0719695836214 0.928030416379 0.0581863659307 0.941813634069 0.227857504481 0.772142495519 0.0802987675921 0.919701232408 0.048759019977 0.951240980023 0.0460986919519 0.953901308048 0.0630558167772 0.936944183223 0.0569631239845 0.943036876015 0.0753285488004 0.9246714512 0.0737233707833 0.926276629217 </probabilities>
		</cpt>
		<!-- create node "song_101" -->
		<cpt id="song_101" >
			<!-- setting names of outcomes -->
			<state id="recommended" />
			<state id="notRecommended" />
			<!-- add arcs -->
			<parents>clusterPredict </parents>
			<!-- setting probabilities -->
			<probabilities>0.0640466027788 0.935953397221 0.0784527883404 0.92154721166 0.064065250442 0.935934749558 0.0633717528576 0.936628247142 0.0937704259632 0.906229574037 0.0833129159108 0.916687084089 0.136414563903 0.863585436097 0.061274198101 0.938725801899 0.0512321671215 0.948767832878 0.0516157347913 0.948384265209 0.0770165308461 0.922983469154 0.0685713344357 0.931428665564 0.106855734508 0.893144265492 </probabilities>
		</cpt>
		<!-- create node "song_102Melissa" -->
		<cpt id="song_102Melissa" >
			<!-- setting names of outcomes -->
			<state id="recommended" />
			<state id="notRecommended" />
			<!-- add arcs -->
			<parents>clusterPredict </parents>
			<!-- setting probabilities -->
			<probabilities>0.0636562561723 0.936343743828 0.0750484562929 0.924951543707 0.119936258374 0.880063741626 0.107485672118 0.892514327882 0.0763328651634 0.923667134837 0.0600798789004 0.9399201211 0.0690848207384 0.930915179262 0.0891406187504 0.91085938125 0.0771085590782 0.922891440922 0.071519536399 0.928480463601 0.0522255869479 0.947774413052 0.082826507962 0.917173492038 0.0555549831037 0.944445016896 </probabilities>
		</cpt>
		<!-- create node "song_103And She Was" -->
		<cpt id="song_103And_She_Was" >
			<!-- setting names of outcomes -->
			<state id="recommended" />
			<state id="notRecommended" />
			<!-- add arcs -->
			<parents>clusterPredict </parents>
			<!-- setting probabilities -->
			<probabilities>0.0481007294991 0.951899270501 0.0755646450829 0.924435354917 0.0499472041387 0.950052795861 0.0562731610009 0.943726838999 0.0483220261394 0.951677973861 0.349587882884 0.650412117116 0.0717409623608 0.928259037639 0.0414032287635 0.958596771236 0.0389554417673 0.961044558233 0.061487457077 0.938512542923 0.045919639234 0.954080360766 0.0594866484364 0.940513351564 0.0532109736157 0.946789026384 </probabilities>
		</cpt>
		<!-- create node "song_104Legend" -->
		<cpt id="song_104Legend" >
			<!-- setting names of outcomes -->
			<state id="recommended" />
			<state id="notRecommended" />
			<!-- add arcs -->
			<parents>clusterPredict </parents>
			<!-- setting probabilities -->
			<probabilities>0.113856179053 0.886143820947 0.0964432253861 0.903556774614 0.0821737164546 0.917826283545 0.0652954729697 0.93470452703 0.070435917691 0.929564082309 0.0726754300313 0.927324569969 0.0651177856658 0.934882214334 0.0820114884074 0.917988511593 0.05880088447 0.94119911553 0.0900326747849 0.909967325215 0.0698628050435 0.930137194956 0.0708592083458 0.929140791654 0.0624352116967 0.937564788303 </probabilities>
		</cpt>
		<!-- create node "song_105Garden (Vocal Full Track)" -->
		<cpt id="song_105Garden_(Vocal_Full_Track)" >
			<!-- setting names of outcomes -->
			<state id="recommended" />
			<state id="notRecommended" />
			<!-- add arcs -->
			<parents>clusterPredict </parents>
			<!-- setting probabilities -->
			<probabilities>0.0996261772477 0.900373822752 0.0612845635072 0.938715436493 0.0542853328053 0.945714667195 0.0560691115928 0.943930888407 0.0673522529883 0.932647747012 0.053928774247 0.946071225753 0.0563894849855 0.943610515015 0.0733602556539 0.926639744346 0.0609303088868 0.939069691113 0.0538977325509 0.946102267449 0.19914286945 0.80085713055 0.0721068923151 0.927893107685 0.0916262437689 0.908373756231 </probabilities>
		</cpt>
		<!-- create node "song_106" -->
		<cpt id="song_106" >
			<!-- setting names of outcomes -->
			<state id="recommended" />
			<state id="notRecommended" />
			<!-- add arcs -->
			<parents>clusterPredict </parents>
			<!-- setting probabilities -->
			<probabilities>0.0931446545922 0.906855345408 0.0642280587446 0.935771941255 0.0819425602734 0.918057439727 0.0691585173415 0.930841482659 0.0770788414275 0.922921158573 0.0519043439085 0.948095656092 0.064073933627 0.935926066373 0.156299210178 0.843700789822 0.0791749948794 0.920825005121 0.0681949519261 0.931805048074 0.0716135627927 0.928386437207 0.0652156604758 0.934784339524 0.0579707098329 0.942029290167 </probabilities>
		</cpt>
		<!-- create node "song_107" -->
		<cpt id="song_107" >
			<!-- setting names of outcomes -->
			<state id="recommended" />
			<state id="notRecommended" />
			<!-- add arcs -->
			<parents>clusterPredict </parents>
			<!-- setting probabilities -->
			<probabilities>0.0664468509669 0.933553149033 0.160172812015 0.839827187985 0.0717725582134 0.928227441787 0.0636535662133 0.936346433787 0.0683492133267 0.931650786673 0.128304376948 0.871695623052 0.0756100015331 0.924389998467 0.0522589213452 0.947741078655 0.0479735855316 0.952026414468 0.0702764560098 0.92972354399 0.0521585103056 0.947841489694 0.0788179606779 0.921182039322 0.0642051869137 0.935794813086 </probabilities>
		</cpt>
		<!-- create node "song_108" -->
		<cpt id="song_108" >
			<!-- setting names of outcomes -->
			<state id="recommended" />
			<state id="notRecommended" />
			<!-- add arcs -->
			<parents>clusterPredict </parents>
			<!-- setting probabilities -->
			<probabilities>0.0782568547729 0.921743145227 0.164012902776 0.835987097224 0.0849895365133 0.915010463487 0.0589786759138 0.941021324086 0.095314508206 0.904685491794 0.0666913244188 0.933308675581 0.0615606921217 0.938439307878 0.0591785418115 0.940821458189 0.0506597536381 0.949340246362 0.0533931155644 0.946606884436 0.0579563508106 0.942043649189 0.0867616846761 0.913238315324 0.0822460587764 0.917753941224 </probabilities>
		</cpt>
		<!-- create node "song_109Big Me" -->
		<cpt id="song_109Big_Me" >
			<!-- setting names of outcomes -->
			<state id="recommended" />
			<state id="notRecommended" />
			<!-- add arcs -->
			<parents>clusterPredict </parents>
			<!-- setting probabilities -->
			<probabilities>0.0678902736402 0.93210972636 0.130780876012 0.869219123988 0.102368844968 0.897631155032 0.0749374198851 0.925062580115 0.0828561292934 0.917143870707 0.0672036829556 0.932796317044 0.0598519087664 0.940148091234 0.0612738942237 0.938726105776 0.0592725771871 0.940727422813 0.0605451171918 0.939454882808 0.0518856910303 0.94811430897 0.112615539686 0.887384460314 0.0685180451604 0.93148195484 </probabilities>
		</cpt>
		<!-- create node "song_110Bound To Fall" -->
		<cpt id="song_110Bound_To_Fall" >
			<!-- setting names of outcomes -->
			<state id="recommended" />
			<state id="notRecommended" />
			<!-- add arcs -->
			<parents>clusterPredict </parents>
			<!-- setting probabilities -->
			<probabilities>0.145909416543 0.854090583457 0.08197367103 0.91802632897 0.0742295457303 0.92577045427 0.0638542094414 0.936145790559 0.0689493251143 0.931050674886 0.057064252939 0.942935747061 0.0537918692934 0.946208130707 0.0879016544117 0.912098345588 0.0679493807948 0.932050619205 0.0759165502756 0.924083449724 0.0759150833218 0.924084916678 0.082962465846 0.917037534154 0.0635825752586 0.936417424741 </probabilities>
		</cpt>
		<!-- create node "song_111Goodbye on a beautiful day" -->
		<cpt id="song_111Goodbye_on_a_beautiful_day" >
			<!-- setting names of outcomes -->
			<state id="recommended" />
			<state id="notRecommended" />
			<!-- add arcs -->
			<parents>clusterPredict </parents>
			<!-- setting probabilities -->
			<probabilities>0.162500339786 0.837499660214 0.0670906633063 0.932909336694 0.0553728865307 0.944627113469 0.0511450684783 0.948854931522 0.101207174116 0.898792825884 0.0509616915414 0.949038308459 0.071279192302 0.928720807698 0.0809445072401 0.91905549276 0.0760144776148 0.923985522385 0.0547225121154 0.945277487885 0.0911131897835 0.908886810217 0.0686124699361 0.931387530064 0.0690358272496 0.93096417275 </probabilities>
		</cpt>
		<!-- create node "song_112WHAT'S THE UGLIEST PART OF YOUR BODY?" -->
		<cpt id="song_112WHAT'S_THE_UGLIEST_PART_OF_YOUR_BODY?" >
			<!-- setting names of outcomes -->
			<state id="recommended" />
			<state id="notRecommended" />
			<!-- add arcs -->
			<parents>clusterPredict </parents>
			<!-- setting probabilities -->
			<probabilities>0.096991048558 0.903008951442 0.124876467727 0.875123532273 0.0559430346974 0.944056965303 0.0547590018604 0.94524099814 0.0866212332896 0.91337876671 0.0825541359524 0.917445864048 0.0810833897371 0.918916610263 0.052933943702 0.947066056298 0.0674412988641 0.932558701136 0.0688074223509 0.931192577649 0.0587425989522 0.941257401048 0.102055342647 0.897944657353 0.067191081662 0.932808918338 </probabilities>
		</cpt>
		<!-- create node "song_113" -->
		<cpt id="song_113" >
			<!-- setting names of outcomes -->
			<state id="recommended" />
			<state id="notRecommended" />
			<!-- add arcs -->
			<parents>clusterPredict </parents>
			<!-- setting probabilities -->
			<probabilities>0.115227264083 0.884772735917 0.0714237989028 0.928576201097 0.0589666460018 0.941033353998 0.0591830593085 0.940816940691 0.0776769068383 0.922323093162 0.0705793916079 0.929420608392 0.0982130021198 0.90178699788 0.0796204670917 0.920379532908 0.0737688609811 0.926231139019 0.0812369176766 0.918763082323 0.0851428909833 0.914857109017 0.0656527178226 0.934347282177 0.0633080765828 0.936691923417 </probabilities>
		</cpt>
		<!-- create node "song_114Had To Cry Today" -->
		<cpt id="song_114Had_To_Cry_Today" >
			<!-- setting names of outcomes -->
			<state id="recommended" />
			<state id="notRecommended" />
			<!-- add arcs -->
			<parents>clusterPredict </parents>
			<!-- setting probabilities -->
			<probabilities>0.0599197346678 0.940080265332 0.0627340520629 0.937265947937 0.10098130827 0.89901869173 0.138404678812 0.861595321188 0.0678937364112 0.932106263589 0.0587508406351 0.941249159365 0.0650114492513 0.934988550749 0.107001600058 0.892998399942 0.0600498640057 0.939950135994 0.0583303047759 0.941669695224 0.071588522413 0.928411477587 0.0776776456733 0.922322354327 0.0716562629635 0.928343737036 </probabilities>
		</cpt>
		<!-- create node "song_115I'm Ready" -->
		<cpt id="song_115I'm_Ready" >
			<!-- setting names of outcomes -->
			<state id="recommended" />
			<state id="notRecommended" />
			<!-- add arcs -->
			<parents>clusterPredict </parents>
			<!-- setting probabilities -->
			<probabilities>0.0734740810398 0.92652591896 0.0726482863158 0.927351713684 0.0565763321605 0.943423667839 0.0579262673767 0.942073732623 0.15168239418 0.84831760582 0.0572676685704 0.94273233143 0.107799146946 0.892200853054 0.0615811515646 0.938418848435 0.0865759291903 0.91342407081 0.0506804661991 0.949319533801 0.0620262799701 0.93797372003 0.0885600970304 0.91143990297 0.0732018994567 0.926798100543 </probabilities>
		</cpt>
		<!-- create node "song_116Deuce" -->
		<cpt id="song_116Deuce" >
			<!-- setting names of outcomes -->
			<state id="recommended" />
			<state id="notRecommended" />
			<!-- add arcs -->
			<parents>clusterPredict </parents>
			<!-- setting probabilities -->
			<probabilities>0.0497806186466 0.950219381353 0.0684694730436 0.931530526956 0.154189059027 0.845810940973 0.195664811857 0.804335188143 0.0539759557918 0.946024044208 0.0679962155814 0.932003784419 0.0586135263559 0.941386473644 0.0726757884013 0.927324211599 0.0451811200506 0.954818879949 0.0638799564558 0.936120043544 0.0489759217448 0.951024078255 0.0672797202478 0.932720279752 0.0533178327964 0.946682167204 </probabilities>
		</cpt>
		<!-- create node "song_117ALICE'S RESTAURANT MASSACREE (Live)/(CONTENT!)" -->
		<cpt id="song_117ALICE'S_RESTAURANT_MASSACREE_(Live)/(CONTENT!)" >
			<!-- setting names of outcomes -->
			<state id="recommended" />
			<state id="notRecommended" />
			<!-- add arcs -->
			<parents>clusterPredict </parents>
			<!-- setting probabilities -->
			<probabilities>0.0792231630582 0.920776836942 0.0662354839415 0.933764516058 0.0623959153139 0.937604084686 0.0830379069368 0.916962093063 0.0676800453019 0.932319954698 0.0660555950855 0.933944404914 0.0685684052219 0.931431594778 0.0798751032344 0.920124896766 0.0673384054486 0.932661594551 0.0642175779872 0.935782422013 0.112636020717 0.887363979283 0.097223139412 0.902776860588 0.0855132383411 0.914486761659 </probabilities>
		</cpt>
		<!-- create node "song_118Billie Jean" -->
		<cpt id="song_118Billie_Jean" >
			<!-- setting names of outcomes -->
			<state id="recommended" />
			<state id="notRecommended" />
			<!-- add arcs -->
			<parents>clusterPredict </parents>
			<!-- setting probabilities -->
			<probabilities>0.0671317640637 0.932868235936 0.16169684167 0.83830315833 0.0813384911757 0.918661508824 0.0589967650141 0.941003234986 0.104176291546 0.895823708454 0.0704948545075 0.929505145492 0.0679524130578 0.932047586942 0.0551278403675 0.944872159632 0.0470247390024 0.952975260998 0.0485374007121 0.951462599288 0.0567097527413 0.943290247259 0.085078835606 0.914921164394 0.0957340105361 0.904265989464 </probabilities>
		</cpt>
		<!-- create node "song_119Let's Make Love (Album Version)" -->
		<cpt id="song_119Let's_Make_Love_(Album_Version)" >
			<!-- setting names of outcomes -->
			<state id="recommended" />
			<state id="notRecommended" />
			<!-- add arcs -->
			<parents>clusterPredict </parents>
			<!-- setting probabilities -->
			<probabilities>0.147508359519 0.852491640481 0.0779495159733 0.922050484027 0.0732521464458 0.926747853554 0.0587047584943 0.941295241506 0.0841637259276 0.915836274072 0.0544560977935 0.945543902206 0.0621416635708 0.937858336429 0.096726244334 0.903273755666 0.0726045529445 0.927395447055 0.0680461372013 0.931953862799 0.0725145621149 0.927485437885 0.0704180924574 0.929581907543 0.0615141432234 0.938485856777 </probabilities>
		</cpt>
		<!-- create node "song_120Quiet Nights Of Quiet Stars (Corcovado)" -->
		<cpt id="song_120Quiet_Nights_Of_Quiet_Stars_(Corcovado)" >
			<!-- setting names of outcomes -->
			<state id="recommended" />
			<state id="notRecommended" />
			<!-- add arcs -->
			<parents>clusterPredict </parents>
			<!-- setting probabilities -->
			<probabilities>0.090086497995 0.909913502005 0.0718018360513 0.928198163949 0.055054880606 0.944945119394 0.0591320069053 0.940867993095 0.0854683768751 0.914531623125 0.067224596418 0.932775403582 0.0967835830631 0.903216416937 0.0641261181423 0.935873881858 0.128286822489 0.871713177511 0.0752722635743 0.924727736426 0.0654654130095 0.934534586991 0.0798569770105 0.920143022989 0.0614406278605 0.938559372139 </probabilities>
		</cpt>
		<!-- create node "song_121$1000 WEDDING" -->
		<cpt id="song_121$1000_WEDDING" >
			<!-- setting names of outcomes -->
			<state id="recommended" />
			<state id="notRecommended" />
			<!-- add arcs -->
			<parents>clusterPredict </parents>
			<!-- setting probabilities -->
			<probabilities>0.0819915779797 0.91800842202 0.102381721332 0.897618278668 0.0732100104008 0.926789989599 0.0728486230772 0.927151376923 0.0683289453122 0.931671054688 0.0747717146378 0.925228285362 0.0585070764351 0.941492923565 0.0614101426518 0.938589857348 0.0757706311596 0.92422936884 0.0862740028143 0.913725997186 0.0587168313041 0.941283168696 0.120790613251 0.879209386749 0.0649981096445 0.935001890356 </probabilities>
		</cpt>
		<!-- create node "song_122Where You'll Find Me Now" -->
		<cpt id="song_122Where_You'll_Find_Me_Now" >
			<!-- setting names of outcomes -->
			<state id="recommended" />
			<state id="notRecommended" />
			<!-- add arcs -->
			<parents>clusterPredict </parents>
			<!-- setting probabilities -->
			<probabilities>0.0743116250216 0.925688374978 0.0934048881605 0.906595111839 0.0659895785624 0.934010421438 0.0632632945864 0.936736705414 0.107426253594 0.892573746406 0.0588368431416 0.941163156858 0.0677559413435 0.932244058656 0.0584021065822 0.941597893418 0.0927180772789 0.907281922721 0.0567056177773 0.943294382223 0.0535252584339 0.946474741566 0.14013510544 0.85986489456 0.0675254100771 0.932474589923 </probabilities>
		</cpt>
		<!-- create node "song_123Country Grammar (Hot...)" -->
		<cpt id="song_123Country_Grammar_(Hot...)" >
			<!-- setting names of outcomes -->
			<state id="recommended" />
			<state id="notRecommended" />
			<!-- add arcs -->
			<parents>clusterPredict </parents>
			<!-- setting probabilities -->
			<probabilities>0.0671866664169 0.932813333583 0.102098428754 0.897901571246 0.0668826248721 0.933117375128 0.0596118586236 0.940388141376 0.0740938471049 0.925906152895 0.0731229312271 0.926877068773 0.0597135099103 0.94028649009 0.0545521232544 0.945447876746 0.0430347418964 0.956965258104 0.0471821452788 0.952817854721 0.0774438796796 0.92255612032 0.0845878896433 0.915412110357 0.190489353339 0.809510646661 </probabilities>
		</cpt>
		<!-- create node "song_124My Fault" -->
		<cpt id="song_124My_Fault" >
			<!-- setting names of outcomes -->
			<state id="recommended" />
			<state id="notRecommended" />
			<!-- add arcs -->
			<parents>clusterPredict </parents>
			<!-- setting probabilities -->
			<probabilities>0.0783105229806 0.921689477019 0.0846249505912 0.915375049409 0.0589228625465 0.941077137454 0.0576108332731 0.942389166727 0.0871435108664 0.912856489134 0.0730651304312 0.926934869569 0.0716539216659 0.928346078334 0.0573304800223 0.942669519978 0.0589167047124 0.941083295288 0.0533824870291 0.946617512971 0.0895543939073 0.910445606093 0.0850547595951 0.914945240405 0.144429442379 0.855570557621 </probabilities>
		</cpt>
		<!-- create node "song_125Travelin' Band" -->
		<cpt id="song_125Travelin'_Band" >
			<!-- setting names of outcomes -->
			<state id="recommended" />
			<state id="notRecommended" />
			<!-- add arcs -->
			<parents>clusterPredict </parents>
			<!-- setting probabilities -->
			<probabilities>0.0619892557568 0.938010744243 0.07575047346 0.92424952654 0.0591255293324 0.940874470668 0.0575276667834 0.942472333217 0.100529172961 0.899470827039 0.0573251499542 0.942674850046 0.0666184024372 0.933381597563 0.0548335582463 0.945166441754 0.0503041586757 0.949695841324 0.0419723337456 0.958027666254 0.0735855196222 0.926414480378 0.0904228215845 0.909577178416 0.21001595744 0.78998404256 </probabilities>
		</cpt>
		<!-- create node "song_126Spanish Banks" -->
		<cpt id="song_126Spanish_Banks" >
			<!-- setting names of outcomes -->
			<state id="recommended" />
			<state id="notRecommended" />
			<!-- add arcs -->
			<parents>clusterPredict </parents>
			<!-- setting probabilities -->
			<probabilities>0.162418815512 0.837581184488 0.070914135849 0.929085864151 0.0568122698111 0.943187730189 0.057130016594 0.942869983406 0.0677982926204 0.93220170738 0.0555412350145 0.944458764985 0.0541511706819 0.945848829318 0.0735791766463 0.926420823354 0.0715040582079 0.928495941792 0.0650885366535 0.934911463346 0.104899475097 0.895100524903 0.0869406597811 0.913059340219 0.0732221575307 0.926777842469 </probabilities>
		</cpt>
		<!-- create node "song_127Behind Closed Doors" -->
		<cpt id="song_127Behind_Closed_Doors" >
			<!-- setting names of outcomes -->
			<state id="recommended" />
			<state id="notRecommended" />
			<!-- add arcs -->
			<parents>clusterPredict </parents>
			<!-- setting probabilities -->
			<probabilities>0.0770520473084 0.922947952692 0.103398640677 0.896601359323 0.0674535285519 0.932546471448 0.0705210907868 0.929478909213 0.0691213837778 0.930878616222 0.0734963294984 0.926503670502 0.0597564756094 0.940243524391 0.0569112955354 0.943088704465 0.0792138537381 0.920786146262 0.081386411795 0.918613588205 0.0540570102301 0.94594298977 0.146064316148 0.853935683852 0.0615676163441 0.938432383656 </probabilities>
		</cpt>
		<!-- create node "song_128Pressure" -->
		<cpt id="song_128Pressure" >
			<!-- setting names of outcomes -->
			<state id="recommended" />
			<state id="notRecommended" />
			<!-- add arcs -->
			<parents>clusterPredict </parents>
			<!-- setting probabilities -->
			<probabilities>0.145079429679 0.854920570321 0.0775671151408 0.922432884859 0.0579861072241 0.942013892776 0.0553828946455 0.944617105354 0.0718421738836 0.928157826116 0.0709460973205 0.92905390268 0.0767067973354 0.923293202665 0.0744110520617 0.925588947938 0.0554336806699 0.94456631933 0.0699551027854 0.930044897215 0.107799372533 0.892200627467 0.0655267127499 0.93447328725 0.0713634639705 0.928636536029 </probabilities>
		</cpt>
		<!-- create node "song_129James Taylor-Greatest Hits-03-Fire and Rain" -->
		<cpt id="song_129James_Taylor-Greatest_Hits-03-Fire_and_Rain" >
			<!-- setting names of outcomes -->
			<state id="recommended" />
			<state id="notRecommended" />
			<!-- add arcs -->
			<parents>clusterPredict </parents>
			<!-- setting probabilities -->
			<probabilities>0.0651552636683 0.934844736332 0.0772822008332 0.922717799167 0.0635435558202 0.93645644418 0.0764588688026 0.923541131197 0.0776101040343 0.922389895966 0.0668941613839 0.933105838616 0.0646332455471 0.935366754453 0.0582565968064 0.941743403194 0.079338169151 0.920661830849 0.057466002155 0.942533997845 0.0656364878657 0.934363512134 0.158073681808 0.841926318192 0.0896516621242 0.910348337876 </probabilities>
		</cpt>
		<!-- create node "song_130Glowworm" -->
		<cpt id="song_130Glowworm" >
			<!-- setting names of outcomes -->
			<state id="recommended" />
			<state id="notRecommended" />
			<!-- add arcs -->
			<parents>clusterPredict </parents>
			<!-- setting probabilities -->
			<probabilities>0.061669088443 0.938330911557 0.0678248015163 0.932175198484 0.179261638656 0.820738361344 0.114148923854 0.885851076146 0.0601024766987 0.939897523301 0.0536539803882 0.946346019612 0.0518761272519 0.948123872748 0.112740338885 0.887259661115 0.0499367243793 0.950063275621 0.0593010538835 0.940698946116 0.059077570075 0.940922429925 0.0716308604442 0.928369139556 0.0587764155256 0.941223584474 </probabilities>
		</cpt>
		<!-- create node "song_131Lovefool" -->
		<cpt id="song_131Lovefool" >
			<!-- setting names of outcomes -->
			<state id="recommended" />
			<state id="notRecommended" />
			<!-- add arcs -->
			<parents>clusterPredict </parents>
			<!-- setting probabilities -->
			<probabilities>0.0616937456931 0.938306254307 0.224604636517 0.775395363483 0.0703338243547 0.929666175645 0.0544459365317 0.945554063468 0.0978531643776 0.902146835622 0.0685473268435 0.931452673156 0.0655579761598 0.93444202384 0.0483309744475 0.951669025553 0.0441848170376 0.955815182962 0.0456804900455 0.954319509954 0.0490300577414 0.950969942259 0.0899924479671 0.910007552033 0.0797446022835 0.920255397717 </probabilities>
		</cpt>
		<!-- create node "song_132Yedi tekrar" -->
		<cpt id="song_132Yedi_tekrar" >
			<!-- setting names of outcomes -->
			<state id="recommended" />
			<state id="notRecommended" />
			<!-- add arcs -->
			<parents>clusterPredict </parents>
			<!-- setting probabilities -->
			<probabilities>0.0790734830803 0.92092651692 0.0584787037899 0.94152129621 0.0716824778562 0.928317522144 0.0777365414395 0.92226345856 0.0706488036691 0.929351196331 0.0552912178899 0.94470878211 0.066747967866 0.933252032134 0.135637852911 0.864362147089 0.0743135255947 0.925686474405 0.0631689786285 0.936831021371 0.108365700932 0.891634299068 0.067314124431 0.932685875569 0.0715406219117 0.928459378088 </probabilities>
		</cpt>
		<!-- create node "song_133 All Mine" -->
		<cpt id="song_133_All_Mine" >
			<!-- setting names of outcomes -->
			<state id="recommended" />
			<state id="notRecommended" />
			<!-- add arcs -->
			<parents>clusterPredict </parents>
			<!-- setting probabilities -->
			<probabilities>0.072218375146 0.927781624854 0.091442225965 0.908557774035 0.126306778246 0.873693221754 0.0767250958702 0.92327490413 0.0867263078891 0.913273692111 0.0674835867372 0.932516413263 0.0750356472439 0.924964352756 0.0851331261259 0.914866873874 0.0592190632793 0.940780936721 0.0665189567799 0.93348104322 0.0587100775108 0.941289922489 0.0699331257917 0.930066874208 0.0645476334153 0.935452366585 </probabilities>
		</cpt>
		<!-- create node "song_134Rocket" -->
		<cpt id="song_134Rocket" >
			<!-- setting names of outcomes -->
			<state id="recommended" />
			<state id="notRecommended" />
			<!-- add arcs -->
			<parents>clusterPredict </parents>
			<!-- setting probabilities -->
			<probabilities>0.0768129524155 0.923187047585 0.135997134976 0.864002865024 0.0740836616502 0.92591633835 0.0603457104914 0.939654289509 0.106304106757 0.893695893243 0.061301476765 0.938698523235 0.062851173304 0.937148826696 0.0567390199825 0.943260980017 0.0653289963404 0.93467100366 0.0551564752405 0.94484352476 0.0519693263911 0.948030673609 0.123545935553 0.876454064447 0.0695640301331 0.930435969867 </probabilities>
		</cpt>
		<!-- create node "song_135I Love My Leather Jacket" -->
		<cpt id="song_135I_Love_My_Leather_Jacket" >
			<!-- setting names of outcomes -->
			<state id="recommended" />
			<state id="notRecommended" />
			<!-- add arcs -->
			<parents>clusterPredict </parents>
			<!-- setting probabilities -->
			<probabilities>0.1013069345 0.8986930655 0.0789053632002 0.9210946368 0.0635999694775 0.936400030522 0.051875914173 0.948124085827 0.147331658282 0.852668341718 0.05317375259 0.94682624741 0.0727982646835 0.927201735317 0.0732852907428 0.926714709257 0.0557028339477 0.944297166052 0.0466828664335 0.953317133566 0.0876646787423 0.912335321258 0.0691298528304 0.93087014717 0.0985426203975 0.901457379603 </probabilities>
		</cpt>
		<!-- create node "song_136Sometimes In Winter" -->
		<cpt id="song_136Sometimes_In_Winter" >
			<!-- setting names of outcomes -->
			<state id="recommended" />
			<state id="notRecommended" />
			<!-- add arcs -->
			<parents>clusterPredict </parents>
			<!-- setting probabilities -->
			<probabilities>0.065548452601 0.934451547399 0.062347218958 0.937652781042 0.088209230757 0.911790769243 0.120539103314 0.879460896686 0.0682922159715 0.931707784029 0.0554801299012 0.944519870099 0.0624201652419 0.937579834758 0.106027104875 0.893972895125 0.0921733334492 0.907826666551 0.0695152538893 0.930484746111 0.0628120833233 0.937187916677 0.087056335403 0.912943664597 0.0595793723154 0.940420627685 </probabilities>
		</cpt>
		<!-- create node "song_137" -->
		<cpt id="song_137" >
			<!-- setting names of outcomes -->
			<state id="recommended" />
			<state id="notRecommended" />
			<!-- add arcs -->
			<parents>clusterPredict </parents>
			<!-- setting probabilities -->
			<probabilities>0.0721443471314 0.927855652869 0.0971410900792 0.902858909921 0.0593587084085 0.940641291591 0.0515924428066 0.948407557193 0.201897058766 0.798102941234 0.0523680110992 0.947631988901 0.0683072838854 0.931692716115 0.0534844158127 0.946515584187 0.0558887129774 0.944111287023 0.0426289700462 0.957371029954 0.0556396120501 0.94436038795 0.103572895856 0.896427104144 0.0859764510816 0.914023548918 </probabilities>
		</cpt>
