<?xml version="1.0" encoding="ISO-8859-1"?>
<smile version="1.0" id="SongRecommender" numsamples="1000" discsamples="10000">
	<nodes>
		<!-- create node "listenedPrediction" -->
		<cpt id="listenedPrediction" >
			<!-- setting names of outcomes -->
			<state id="c1" />
			<state id="c2" />
			<state id="c3" />
			<state id="c4" />
			<state id="c5" />
			<state id="c6" />
			<state id="c7" />
			<state id="c8" />
			<state id="c9" />
			<state id="c10" />
			<state id="c11" />
			<state id="c12" />
			<state id="c13" />
			<state id="c14" />
			<state id="c15" />
			<state id="c16" />
			<state id="c17" />
			<state id="c18" />
			<state id="c19" />
			<state id="c20" />
			<state id="c21" />
			<state id="c22" />
			<state id="c23" />
			<state id="c24" />
			<state id="c25" />
			<state id="c26" />
			<state id="c27" />
			<state id="c28" />
			<state id="c29" />
			<state id="c30" />
			<state id="c31" />
			<state id="c32" />
			<state id="c33" />
			<state id="c34" />
			<state id="c35" />
			<state id="c36" />
			<state id="c37" />
			<state id="c38" />
			<state id="c39" />
			<state id="c40" />
			<state id="c41" />
			<state id="c42" />
			<state id="c43" />
			<state id="c44" />
			<state id="c45" />
			<state id="c46" />
			<state id="c47" />
			<state id="c48" />
			<state id="c49" />
			<state id="c50" />
			<state id="c51" />
			<state id="c52" />
			<state id="c53" />
			<state id="c54" />
			<state id="c55" />
			<state id="c56" />
			<state id="c57" />
			<state id="c58" />
			<state id="c59" />
			<state id="c60" />
			<state id="c61" />
			<state id="c62" />
			<state id="c63" />
			<state id="c64" />
			<state id="c65" />
			<state id="c66" />
			<state id="c67" />
			<state id="c68" />
			<state id="c69" />
			<state id="c70" />
			<state id="c71" />
			<state id="c72" />
			<state id="c73" />
			<state id="c74" />
			<state id="c75" />
			<state id="c76" />
			<state id="c77" />
			<state id="c78" />
			<state id="c79" />
			<state id="c80" />
			<state id="c81" />
			<state id="c82" />
			<state id="c83" />
			<state id="c84" />
			<state id="c85" />
			<state id="c86" />
			<state id="c87" />
			<state id="c88" />
			<state id="c89" />
			<state id="c90" />
			<state id="c91" />
			<state id="c92" />
			<state id="c93" />
			<state id="c94" />
			<state id="c95" />
			<state id="c96" />
			<state id="c97" />
			<state id="c98" />
			<state id="c99" />
			<state id="c100" />
			<state id="c101" />
			<state id="c102" />
			<state id="c103" />
			<state id="c104" />
			<state id="c105" />
			<state id="c106" />
			<state id="c107" />
			<state id="c108" />
			<state id="c109" />
			<state id="c110" />
			<state id="c111" />
			<state id="c112" />
			<state id="c113" />
			<state id="c114" />
			<state id="c115" />
			<state id="c116" />
			<state id="c117" />
			<state id="c118" />
			<state id="c119" />
			<state id="c120" />
			<state id="c121" />
			<state id="c122" />
			<state id="c123" />
			<state id="c124" />
			<state id="c125" />
			<state id="c126" />
			<state id="c127" />
			<state id="c128" />
			<state id="c129" />
			<state id="c130" />
			<state id="c131" />
			<state id="c132" />
			<state id="c133" />
			<state id="c134" />
			<state id="c135" />
			<state id="c136" />
			<state id="c137" />
			<state id="c138" />
			<state id="c139" />
			<state id="c140" />
			<state id="c141" />
			<state id="c142" />
			<state id="c143" />
			<state id="c144" />
			<state id="c145" />
			<state id="c146" />
			<state id="c147" />
			<state id="c148" />
			<state id="c149" />
			<state id="c150" />
			<state id="c151" />
			<state id="c152" />
			<state id="c153" />
			<state id="c154" />
			<state id="c155" />
			<state id="c156" />
			<state id="c157" />
			<state id="c158" />
			<state id="c159" />
			<state id="c160" />
			<state id="c161" />
			<state id="c162" />
			<state id="c163" />
			<state id="c164" />
			<state id="c165" />
			<state id="c166" />
			<state id="c167" />
			<state id="c168" />
			<state id="c169" />
			<state id="c170" />
			<state id="c171" />
			<state id="c172" />
			<state id="c173" />
			<state id="c174" />
			<state id="c175" />
			<state id="c176" />
			<state id="c177" />
			<state id="c178" />
			<state id="c179" />
			<state id="c180" />
			<state id="c181" />
			<state id="c182" />
			<state id="c183" />
			<state id="c184" />
			<state id="c185" />
			<state id="c186" />
			<state id="c187" />
			<state id="c188" />
			<state id="c189" />
			<state id="c190" />
			<state id="c191" />
			<state id="c192" />
			<state id="c193" />
			<state id="c194" />
			<state id="c195" />
			<state id="c196" />
			<state id="c197" />
			<state id="c198" />
			<state id="c199" />
			<state id="c200" />
			<state id="c201" />
			<state id="c202" />
			<state id="c203" />
			<state id="c204" />
			<state id="c205" />
			<state id="c206" />
			<state id="c207" />
			<state id="c208" />
			<state id="c209" />
			<state id="c210" />
			<state id="c211" />
			<state id="c212" />
			<state id="c213" />
			<state id="c214" />
			<state id="c215" />
			<state id="c216" />
			<state id="c217" />
			<state id="c218" />
			<state id="c219" />
			<state id="c220" />
			<state id="c221" />
			<state id="c222" />
			<state id="c223" />
			<state id="c224" />
			<state id="c225" />
			<state id="c226" />
			<state id="c227" />
			<state id="c228" />
			<state id="c229" />
			<state id="c230" />
			<state id="c231" />
			<state id="c232" />
			<state id="c233" />
			<state id="c234" />
			<state id="c235" />
			<state id="c236" />
			<state id="c237" />
			<state id="c238" />
			<state id="c239" />
			<state id="c240" />
			<state id="c241" />
			<state id="c242" />
			<state id="c243" />
			<state id="c244" />
			<state id="c245" />
			<state id="c246" />
			<state id="c247" />
			<state id="c248" />
			<state id="c249" />
			<state id="c250" />
			<state id="c251" />
			<state id="c252" />
			<state id="c253" />
			<state id="c254" />
			<state id="c255" />
			<state id="c256" />
			<state id="c257" />
			<state id="c258" />
			<state id="c259" />
			<state id="c260" />
			<state id="c261" />
			<state id="c262" />
			<state id="c263" />
			<state id="c264" />
			<state id="c265" />
			<state id="c266" />
			<state id="c267" />
			<state id="c268" />
			<state id="c269" />
			<state id="c270" />
			<state id="c271" />
			<state id="c272" />
			<state id="c273" />
			<state id="c274" />
			<state id="c275" />
			<state id="c276" />
			<state id="c277" />
			<state id="c278" />
			<state id="c279" />
			<state id="c280" />
			<state id="c281" />
			<state id="c282" />
			<state id="c283" />
			<state id="c284" />
			<state id="c285" />
			<state id="c286" />
			<state id="c287" />
			<state id="c288" />
			<state id="c289" />
			<state id="c290" />
			<state id="c291" />
			<state id="c292" />
			<state id="c293" />
			<state id="c294" />
			<state id="c295" />
			<state id="c296" />
			<state id="c297" />
			<state id="c298" />
			<state id="c299" />
			<state id="c300" />
			<state id="c301" />
			<state id="c302" />
			<state id="c303" />
			<state id="c304" />
			<state id="c305" />
			<state id="c306" />
			<state id="c307" />
			<state id="c308" />
			<state id="c309" />
			<state id="c310" />
			<state id="c311" />
			<state id="c312" />
			<state id="c313" />
			<state id="c314" />
			<state id="c315" />
			<state id="c316" />
			<state id="c317" />
			<state id="c318" />
			<state id="c319" />
			<state id="c320" />
			<state id="c321" />
			<state id="c322" />
			<state id="c323" />
			<state id="c324" />
			<state id="c325" />
			<state id="c326" />
			<state id="c327" />
			<state id="c328" />
			<state id="c329" />
			<state id="c330" />
			<state id="c331" />
			<state id="c332" />
			<state id="c333" />
			<state id="c334" />
			<state id="c335" />
			<state id="c336" />
			<state id="c337" />
			<state id="c338" />
			<state id="c339" />
			<state id="c340" />
			<state id="c341" />
			<state id="c342" />
			<state id="c343" />
			<state id="c344" />
			<state id="c345" />
			<state id="c346" />
			<state id="c347" />
			<state id="c348" />
			<state id="c349" />
			<state id="c350" />
			<state id="c351" />
			<state id="c352" />
			<state id="c353" />
			<state id="c354" />
			<state id="c355" />
			<state id="c356" />
			<state id="c357" />
			<state id="c358" />
			<state id="c359" />
			<state id="c360" />
			<state id="c361" />
			<state id="c362" />
			<state id="c363" />
			<state id="c364" />
			<state id="c365" />
			<state id="c366" />
			<state id="c367" />
			<state id="c368" />
			<state id="c369" />
			<state id="c370" />
			<state id="c371" />
			<state id="c372" />
			<state id="c373" />
			<state id="c374" />
			<state id="c375" />
			<state id="c376" />
			<state id="c377" />
			<state id="c378" />
			<state id="c379" />
			<state id="c380" />
			<state id="c381" />
			<state id="c382" />
			<state id="c383" />
			<state id="c384" />
			<state id="c385" />
			<state id="c386" />
			<state id="c387" />
			<state id="c388" />
			<state id="c389" />
			<state id="c390" />
			<state id="c391" />
			<state id="c392" />
			<state id="c393" />
			<state id="c394" />
			<state id="c395" />
			<state id="c396" />
			<state id="c397" />
			<state id="c398" />
			<state id="c399" />
			<state id="c400" />
			<state id="c401" />
			<state id="c402" />
			<state id="c403" />
			<state id="c404" />
			<state id="c405" />
			<state id="c406" />
			<state id="c407" />
			<state id="c408" />
			<state id="c409" />
			<state id="c410" />
			<state id="c411" />
			<state id="c412" />
			<state id="c413" />
			<state id="c414" />
			<state id="c415" />
			<state id="c416" />
			<state id="c417" />
			<state id="c418" />
			<state id="c419" />
			<state id="c420" />
			<state id="c421" />
			<state id="c422" />
			<state id="c423" />
			<state id="c424" />
			<state id="c425" />
			<state id="c426" />
			<state id="c427" />
			<state id="c428" />
			<state id="c429" />
			<state id="c430" />
			<state id="c431" />
			<state id="c432" />
			<state id="c433" />
			<state id="c434" />
			<state id="c435" />
			<state id="c436" />
			<state id="c437" />
			<state id="c438" />
			<state id="c439" />
			<state id="c440" />
			<state id="c441" />
			<state id="c442" />
			<state id="c443" />
			<state id="c444" />
			<state id="c445" />
			<state id="c446" />
			<state id="c447" />
			<state id="c448" />
			<state id="c449" />
			<state id="c450" />
			<state id="c451" />
			<state id="c452" />
			<state id="c453" />
			<state id="c454" />
			<state id="c455" />
			<state id="c456" />
			<state id="c457" />
			<state id="c458" />
			<state id="c459" />
			<state id="c460" />
			<state id="c461" />
			<state id="c462" />
			<state id="c463" />
			<state id="c464" />
			<state id="c465" />
			<state id="c466" />
			<state id="c467" />
			<state id="c468" />
			<state id="c469" />
			<state id="c470" />
			<state id="c471" />
			<state id="c472" />
			<state id="c473" />
			<state id="c474" />
			<state id="c475" />
			<state id="c476" />
			<state id="c477" />
			<state id="c478" />
			<state id="c479" />
			<state id="c480" />
			<state id="c481" />
			<state id="c482" />
			<state id="c483" />
			<state id="c484" />
			<state id="c485" />
			<state id="c486" />
			<state id="c487" />
			<state id="c488" />
			<state id="c489" />
			<state id="c490" />
			<state id="c491" />
			<state id="c492" />
			<state id="c493" />
			<state id="c494" />
			<state id="c495" />
			<state id="c496" />
			<state id="c497" />
			<state id="c498" />
			<state id="c499" />
			<state id="c500" />
			<state id="c501" />
			<state id="c502" />
			<state id="c503" />
			<state id="c504" />
			<state id="c505" />
			<state id="c506" />
			<state id="c507" />
			<state id="c508" />
			<state id="c509" />
			<state id="c510" />
			<state id="c511" />
			<state id="c512" />
			<state id="c513" />
			<state id="c514" />
			<state id="c515" />
			<state id="c516" />
			<state id="c517" />
			<state id="c518" />
			<state id="c519" />
			<state id="c520" />
			<state id="c521" />
			<state id="c522" />
			<state id="c523" />
			<state id="c524" />
			<state id="c525" />
			<state id="c526" />
			<state id="c527" />
			<state id="c528" />
			<state id="c529" />
			<state id="c530" />
			<state id="c531" />
			<state id="c532" />
			<state id="c533" />
			<state id="c534" />
			<state id="c535" />
			<state id="c536" />
			<state id="c537" />
			<state id="c538" />
			<state id="c539" />
			<state id="c540" />
			<state id="c541" />
			<state id="c542" />
			<state id="c543" />
			<state id="c544" />
			<state id="c545" />
			<state id="c546" />
			<state id="c547" />
			<state id="c548" />
			<state id="c549" />
			<state id="c550" />
			<state id="c551" />
			<state id="c552" />
			<state id="c553" />
			<state id="c554" />
			<state id="c555" />
			<state id="c556" />
			<state id="c557" />
			<state id="c558" />
			<state id="c559" />
			<state id="c560" />
			<state id="c561" />
			<state id="c562" />
			<state id="c563" />
			<state id="c564" />
			<state id="c565" />
			<state id="c566" />
			<state id="c567" />
			<state id="c568" />
			<state id="c569" />
			<state id="c570" />
			<state id="c571" />
			<state id="c572" />
			<state id="c573" />
			<state id="c574" />
			<state id="c575" />
			<state id="c576" />
			<state id="c577" />
			<state id="c578" />
			<state id="c579" />
			<state id="c580" />
			<state id="c581" />
			<state id="c582" />
			<state id="c583" />
			<state id="c584" />
			<state id="c585" />
			<state id="c586" />
			<state id="c587" />
			<state id="c588" />
			<state id="c589" />
			<state id="c590" />
			<state id="c591" />
			<state id="c592" />
			<state id="c593" />
			<state id="c594" />
			<state id="c595" />
			<state id="c596" />
			<state id="c597" />
			<state id="c598" />
			<state id="c599" />
			<state id="c600" />
			<state id="c601" />
			<state id="c602" />
			<state id="c603" />
			<state id="c604" />
			<state id="c605" />
			<state id="c606" />
			<state id="c607" />
			<state id="c608" />
			<!-- setting probabilities -->
			<probabilities>0.00265434504632 0.000608172294997 0.00104624370939 0.00122870130393 0.00741282641546 0.000341381432633 0.000390704789604 0.000804048220556 0.000493642742716 0.00148245596604 0.000648121198868 0.000268162977864 0.00326016415244 0.000853497191882 0.00139452731963 0.00064383725905 0.00148892219554 0.00185551519537 0.00062193501371 0.0013027903116 0.00938375392383 0.00109706948805 0.000546877217792 0.000941681551309 0.000509385563689 0.000423955999135 0.000684413829308 0.00124836804592 0.00103722809968 0.00213843320451 0.000687421426784 0.00530776099862 0.00121845961284 0.00274806215429 0.000585781312939 0.000240753056617 0.00150231844614 0.00182783643818 0.00213319459931 0.000822368539544 0.00142467340582 0.00062018433888 0.000945322666187 0.000607791308241 0.000340225113802 0.00203359027326 0.00163785497942 0.000581854806277 0.000448701553412 0.00104987984787 0.000727334775563 0.00308184017781 0.00596270756559 0.00047643199906 0.00163134365008 0.000587046010664 0.000312191557636 0.000840252048708 0.000395153195171 0.000519918430398 0.00103695303499 0.000456677574549 0.00066683969703 0.000726686600508 0.00125580586024 0.00676348270639 0.000750850643877 0.00186669630867 0.000415153190439 0.00179363611175 0.00239181138652 0.000439031626932 0.000628996949367 0.000874433064138 0.00385875563694 0.000791843325866 0.000756913175412 0.00463145867361 0.000540449383659 0.00429594522924 0.00068195774806 0.00132480923599 0.00032354573817 0.00102953015104 0.000679036412732 0.000881854375023 0.000980702028356 0.000658815988961 0.000525720730539 0.000352507790562 0.00189402321427 0.00304548085743 0.00250725925357 0.0021098649067 0.000806208732271 0.0122912222465 0.00270522573392 0.00200605242148 0.000625994273739 0.000570339307459 0.0110138890946 0.00610557657591 0.00193510773108 0.00146538728842 0.000958545381441 0.000682491431627 0.000527941236453 0.000734095558442 0.000931912810613 0.00125530810868 0.000662522881247 0.00310739624296 0.000818467763004 0.000789216216159 0.00223618028428 0.000351426261791 0.00249008790441 0.000596978802493 0.000585552025085 0.000613515434741 0.00112631957865 0.000545728124226 0.0037116839784 0.00104696745504 0.00099304364509 0.000752263947387 0.00268631105523 0.00164920641425 0.00126868988298 0.0162753973212 0.00861332263418 0.00111422833227 0.00183976766033 0.000893043781213 0.00152256022149 0.000409821468194 0.000758781649806 0.00189426927234 0.00199152985346 0.000599540316499 0.00170975773582 0.00132731124195 0.000973145711791 0.00130464870498 0.00102038745328 0.00163981296711 0.000468421854323 0.0026341231804 0.00033914812066 0.00198824816851 0.00281393850095 0.00422640929464 0.0125250889862 0.0049093533116 0.000878864467152 0.0011308285115 0.000682560446759 0.000589659233672 0.00136629888836 0.00344615090403 0.000705389517527 0.00070450221518 0.0014364332924 0.00167613033871 0.00109706159875 0.000701842662331 0.00425920359146 0.000525000766476 0.000904583742528 0.000465924083088 0.000520643306765 0.00403453464032 0.00155432378162 0.000806214134612 0.00179579919534 0.00130331260067 0.00371888333169 0.00072511007108 0.00152965035131 0.000632078087841 0.00079075708376 0.00175399351613 0.00392607867375 0.000667825187047 0.00176415002491 0.000585461627236 0.0003875587659 0.000445402845595 0.000510222105523 0.00055483558308 0.00242750917746 0.00315914393366 0.00478837941992 0.00379020566593 0.00478901039448 0.000619537079394 0.00147083861704 0.002162637791 0.00265813381426 0.000787799754205 0.000658145750326 0.000917478056774 0.000552032476934 0.000691581299297 0.00113912843434 0.00147068902282 0.00078697092135 0.000626276764433 0.000807692550191 0.00144883095449 0.00109159927139 0.00157390796482 0.00106821263309 0.00116010832681 0.000951873307728 0.000719627809072 0.000610506114072 0.000894313252326 0.00407601421147 0.000458493786757 0.0027183366129 0.00162926582108 0.00201752864637 0.0012191094417 0.00213550106459 0.000699439561327 0.000794778313698 0.00101539107053 0.000824039229919 0.000705176200145 0.000240782712937 0.000628640353009 0.000999999180321 0.000909492955066 0.000529201482563 0.000575901160534 0.0017453902496 0.00276087245299 0.00846769263379 0.00123214618822 0.000447000810956 0.00135453191149 0.00114704668883 0.000840322346925 0.000430742131877 0.00103498644481 0.00127382808462 0.00172113425102 0.00055647965083 0.00041184970006 0.00171659060444 0.00124026631376 0.000536055057174 0.00206581566405 0.0009944413453 0.00133562706814 0.000801031630858 0.00265807260502 0.0031407154904 0.00285593528191 0.000423419976047 0.00482205281141 0.000643173459576 0.001936356665 0.000470966010944 0.000718013491857 0.000594242398737 0.00161525845961 0.000878523412371 0.000994755408239 0.00149729921523 0.000402935465143 0.000598903043778 0.00584992120342 0.000327355311766 0.000944395650992 0.000540320853182 0.000482843741363 0.000652211774547 0.000624987101556 0.000662670896671 0.00182085660861 0.000635970697027 0.00429518079531 0.00211953101154 0.000453410684026 0.000520424342156 0.000793969056992 0.000483678477833 0.00145284191767 0.000636591730059 0.000880154392067 0.00279372103433 0.000608369414212 0.000814502763342 0.00695039321719 0.00102254811245 0.0011304414822 0.00116870322869 0.000986357299912 0.000505990380015 0.000659611109617 0.00084733452398 0.000703955059329 0.000671403743047 0.00190965839666 0.000352075298695 0.000601194993469 0.000357493461449 0.000880774110074 0.000414154533035 0.00228441652649 0.000482418075371 0.00184599062687 0.000417712662095 0.00108974766398 0.00211328407307 0.000528527435272 0.00115403764409 0.000471191719529 0.00251492440531 0.000893284438101 0.000439123746198 0.000451775691025 0.000801544423231 0.000544835274042 0.000823086221821 0.00115235074897 0.00258100270466 0.000685462721762 0.000633596179105 0.000239860777607 0.00164902138381 0.000335409098763 0.000852430614708 0.00089375586691 0.001015981131 0.00271660107895 0.00132085318459 0.000670440466651 0.00060775852407 0.000538738733797 0.000595693283992 0.00141555125164 0.000765704497185 0.000828181089386 0.00111613348907 0.00121392298637 0.00506552027294 0.00967271168111 0.00456213619988 0.00234864832901 0.000940150808902 0.0011974782715 0.000687354081655 0.000572960284916 0.000726901070489 0.00127765108461 0.000927032978445 0.00197044045512 0.00182556360219 0.000661102022073 0.00182469915764 0.00121857918541 0.000329656132985 0.00121429408843 0.00497019212541 0.000471450268299 0.000361973996774 0.00122016107619 0.000764150657598 0.00364161299039 0.00491836083321 0.00109638052708 0.00490035915223 0.000789450497062 0.00100197745695 0.000517337519529 0.000733645662127 0.000641566002102 0.00271170064872 0.000495728738458 0.00829354429283 0.000637871926939 0.000723465453538 0.000625994273739 0.000794798870368 0.00110616627463 0.000640023061629 0.00235825282282 0.000740626327689 0.00173022819318 0.000666851069953 0.000628640353009 0.000918758178503 0.00120236054478 0.000975758858897 0.00174409038296 0.000584171927292 0.000580939279735 0.000827496829072 0.00171087239448 0.00357737264215 0.00383791263653 0.000901650876913 0.000465740475222 0.00047068699801 0.00130538458129 0.000688360011991 0.000647267412289 0.00049318342539 0.00118217782433 0.000517337519529 0.000492623731375 0.000361905682932 0.00667894825626 0.00109282087093 0.000758618243618 0.00931021074879 0.0010373126511 0.00680431563957 0.000627901722025 0.00186333724526 0.000551899940329 0.000923149362917 0.00294263846129 0.000856605174872 0.00037865325358 0.000580749953502 0.00425352024862 0.000765334029606 0.00823172264882 0.000619123089559 0.00106754823069 0.000441201292091 0.0006105071776 0.00257280714046 0.00109258542999 0.000868257738889 0.00374883530243 0.00332983933383 0.000769749752878 0.000692089487383 0.000782801226338 0.000959592045062 0.000415214926405 0.000806946076984 0.000666358477371 0.000375131234798 0.000883286790065 0.00139432596778 0.000609770288497 0.000781109012362 0.000761017019013 0.0101258074943 0.00152965035131 0.00384403068322 0.00039094243644 0.00267096096767 0.000570174858212 0.000622187983381 0.00232132745522 0.00151173097515 0.00225705213109 0.00171207406932 0.00270436404105 0.00260114722781 0.00243475099873 0.0012502828013 0.00680431563957 0.00274997947174 0.00147383276272 0.000476046807153 0.00055522453719 0.000437306290319 0.0139360430107 0.00178598578036 0.000891539633166 0.00219377888742 0.000639790432177 0.000659722727318 0.000982778548469 0.000472755811411 0.00163412797996 0.000706401709324 0.00084127610215 0.000537596059412 0.000641276966562 0.00473190986635 0.000658301554398 0.00324064584037 0.00152255716684 0.00205914274065 0.00341260247154 0.00199738431062 0.00144587003318 0.00464690478637 0.00133926679826 0.000636193591454 0.000971885756463 0.000682339666246 0.000397928028841 0.00321579810339 0.00113422174383 0.000741088757959 0.00104681273703 0.000666654022989 0.00113359181861 0.00079071201097 0.000826520953462 0.000469362729401 0.00189402797084 0.000582441616925 0.000464645869517 0.00768257655127 0.00100956833768 0.000497636643567 0.00600213344812 0.000811393747581 0.000582781483481 0.00466130875851 0.00111895547084 0.000323193288315 0.00260873244023 0.000624905732179 0.00942539511501 0.0014909910347 0.00207946554086 0.00115985860521 0.000845368266162 0.00187869672842 0.0027540133098 0.0010373126511 0.000658987180833 0.0021221208933 0.00113741898792 0.000598528177137 0.000866944810567 0.00175117154103 0.000466805295417 0.0188976006319 0.000535796730569 0.00785450350107 0.000392945237598 0.000826379464896 0.000912149194692 0.000634126477515 0.000503650075866 0.00147760847941 0.00394392854052 0.000443902833727 0.000840904395157 0.000841823542028 0.00227571623974 0.0025804080026 0.00132906861807 0.000471500664137 0.00158030307884 0.00137789348949 0.000468660259276 0.000705389517527 0.000496136096976 0.000596233304185 0.000553778088196 0.00182375692332 0.000563655934927 0.00117563695458 0.000899748969833 0.000845687348244 0.00402989834371 0.00411700062543 0.00103673533629 0.00175061190367 0.00234319838524 0.00125517754986 0.00174282477234 0.00287255726978 0.000599886020366 0.000492431961292 0.000950988071551 0.000672728819868 0.00306108704014 0.0010560198833 0.002082093538 0.00157977117265 0.00265388620842 0.00109844211654 0.00107680599239 0.000581662503233 0.0014135880466 0.000465924083088 0.000636210827574 0.000738215810975 0.000548164140093 0.000584662208732 0.000740869629728 0.000714618128995 0.0011585139586 0.000343777303679 0.00112967096062 0.00071405495985 0.0025362428281 0.000454531788319 0.00097031946005 0.000851906158685 0.000870776163749 0.000592500442619 0.00149692294451 </probabilities>
		</cpt>
	</nodes>
	<extensions>
		<genie version="1.0" app="py2GeNIe 2013" name="SongRecommender" faultnameformat="nodestate">
			<node id="listenedPrediction">
				<name>listenedPrediction</name>
				<interior color="e5f6f7" />
				<outline color="0000bb" />
				<font color="000000" name="Arial" size="8" />
				<position>0 0 125 65</position>
				<barchart active="true" width="125" height="65" />
			</node>
		</genie>
	</extensions>
</smile>