<?xml version="1.0" encoding="ISO-8859-1"?>
<smile version="1.0" id="SongRecommender" numsamples="1000" discsamples="10000">
	<nodes>
		<!-- create node "listenedPrediction" -->
		<cpt id="listenedPrediction" >
			<!-- setting names of outcomes -->
			<state id="c1" />
			<state id="c2" />
			<state id="c3" />
			<state id="c4" />
			<state id="c5" />
			<state id="c6" />
			<state id="c7" />
			<state id="c8" />
			<state id="c9" />
			<state id="c10" />
			<state id="c11" />
			<state id="c12" />
			<state id="c13" />
			<state id="c14" />
			<state id="c15" />
			<state id="c16" />
			<state id="c17" />
			<state id="c18" />
			<state id="c19" />
			<state id="c20" />
			<state id="c21" />
			<state id="c22" />
			<state id="c23" />
			<state id="c24" />
			<state id="c25" />
			<state id="c26" />
			<state id="c27" />
			<state id="c28" />
			<state id="c29" />
			<state id="c30" />
			<state id="c31" />
			<state id="c32" />
			<state id="c33" />
			<state id="c34" />
			<state id="c35" />
			<state id="c36" />
			<state id="c37" />
			<state id="c38" />
			<state id="c39" />
			<state id="c40" />
			<state id="c41" />
			<state id="c42" />
			<state id="c43" />
			<state id="c44" />
			<state id="c45" />
			<state id="c46" />
			<state id="c47" />
			<state id="c48" />
			<state id="c49" />
			<state id="c50" />
			<state id="c51" />
			<state id="c52" />
			<state id="c53" />
			<state id="c54" />
			<state id="c55" />
			<state id="c56" />
			<state id="c57" />
			<state id="c58" />
			<state id="c59" />
			<state id="c60" />
			<state id="c61" />
			<state id="c62" />
			<state id="c63" />
			<state id="c64" />
			<state id="c65" />
			<state id="c66" />
			<state id="c67" />
			<state id="c68" />
			<state id="c69" />
			<state id="c70" />
			<state id="c71" />
			<state id="c72" />
			<state id="c73" />
			<state id="c74" />
			<state id="c75" />
			<state id="c76" />
			<state id="c77" />
			<state id="c78" />
			<state id="c79" />
			<state id="c80" />
			<state id="c81" />
			<state id="c82" />
			<state id="c83" />
			<state id="c84" />
			<state id="c85" />
			<state id="c86" />
			<state id="c87" />
			<state id="c88" />
			<state id="c89" />
			<state id="c90" />
			<state id="c91" />
			<state id="c92" />
			<state id="c93" />
			<state id="c94" />
			<state id="c95" />
			<state id="c96" />
			<state id="c97" />
			<state id="c98" />
			<state id="c99" />
			<state id="c100" />
			<state id="c101" />
			<state id="c102" />
			<state id="c103" />
			<state id="c104" />
			<state id="c105" />
			<state id="c106" />
			<state id="c107" />
			<state id="c108" />
			<state id="c109" />
			<state id="c110" />
			<state id="c111" />
			<state id="c112" />
			<state id="c113" />
			<state id="c114" />
			<state id="c115" />
			<state id="c116" />
			<state id="c117" />
			<state id="c118" />
			<state id="c119" />
			<state id="c120" />
			<state id="c121" />
			<state id="c122" />
			<state id="c123" />
			<state id="c124" />
			<state id="c125" />
			<state id="c126" />
			<state id="c127" />
			<state id="c128" />
			<state id="c129" />
			<state id="c130" />
			<state id="c131" />
			<state id="c132" />
			<state id="c133" />
			<state id="c134" />
			<state id="c135" />
			<state id="c136" />
			<state id="c137" />
			<state id="c138" />
			<state id="c139" />
			<state id="c140" />
			<state id="c141" />
			<state id="c142" />
			<state id="c143" />
			<state id="c144" />
			<state id="c145" />
			<state id="c146" />
			<state id="c147" />
			<state id="c148" />
			<state id="c149" />
			<state id="c150" />
			<state id="c151" />
			<state id="c152" />
			<state id="c153" />
			<state id="c154" />
			<state id="c155" />
			<state id="c156" />
			<state id="c157" />
			<state id="c158" />
			<state id="c159" />
			<state id="c160" />
			<state id="c161" />
			<state id="c162" />
			<state id="c163" />
			<state id="c164" />
			<state id="c165" />
			<state id="c166" />
			<state id="c167" />
			<state id="c168" />
			<state id="c169" />
			<state id="c170" />
			<state id="c171" />
			<state id="c172" />
			<state id="c173" />
			<state id="c174" />
			<state id="c175" />
			<state id="c176" />
			<state id="c177" />
			<state id="c178" />
			<state id="c179" />
			<state id="c180" />
			<state id="c181" />
			<state id="c182" />
			<state id="c183" />
			<state id="c184" />
			<state id="c185" />
			<state id="c186" />
			<state id="c187" />
			<state id="c188" />
			<state id="c189" />
			<state id="c190" />
			<state id="c191" />
			<state id="c192" />
			<state id="c193" />
			<state id="c194" />
			<state id="c195" />
			<state id="c196" />
			<state id="c197" />
			<state id="c198" />
			<state id="c199" />
			<state id="c200" />
			<state id="c201" />
			<state id="c202" />
			<state id="c203" />
			<state id="c204" />
			<state id="c205" />
			<state id="c206" />
			<state id="c207" />
			<state id="c208" />
			<state id="c209" />
			<state id="c210" />
			<state id="c211" />
			<state id="c212" />
			<state id="c213" />
			<state id="c214" />
			<state id="c215" />
			<state id="c216" />
			<state id="c217" />
			<state id="c218" />
			<state id="c219" />
			<state id="c220" />
			<state id="c221" />
			<state id="c222" />
			<state id="c223" />
			<state id="c224" />
			<state id="c225" />
			<state id="c226" />
			<state id="c227" />
			<state id="c228" />
			<state id="c229" />
			<state id="c230" />
			<state id="c231" />
			<state id="c232" />
			<state id="c233" />
			<state id="c234" />
			<state id="c235" />
			<state id="c236" />
			<state id="c237" />
			<state id="c238" />
			<state id="c239" />
			<state id="c240" />
			<state id="c241" />
			<state id="c242" />
			<state id="c243" />
			<state id="c244" />
			<state id="c245" />
			<state id="c246" />
			<state id="c247" />
			<state id="c248" />
			<state id="c249" />
			<state id="c250" />
			<state id="c251" />
			<state id="c252" />
			<state id="c253" />
			<state id="c254" />
			<state id="c255" />
			<state id="c256" />
			<state id="c257" />
			<state id="c258" />
			<state id="c259" />
			<state id="c260" />
			<state id="c261" />
			<state id="c262" />
			<state id="c263" />
			<state id="c264" />
			<state id="c265" />
			<state id="c266" />
			<state id="c267" />
			<state id="c268" />
			<state id="c269" />
			<state id="c270" />
			<state id="c271" />
			<state id="c272" />
			<state id="c273" />
			<state id="c274" />
			<state id="c275" />
			<state id="c276" />
			<state id="c277" />
			<state id="c278" />
			<state id="c279" />
			<state id="c280" />
			<state id="c281" />
			<state id="c282" />
			<state id="c283" />
			<state id="c284" />
			<state id="c285" />
			<state id="c286" />
			<state id="c287" />
			<state id="c288" />
			<state id="c289" />
			<state id="c290" />
			<state id="c291" />
			<state id="c292" />
			<state id="c293" />
			<state id="c294" />
			<state id="c295" />
			<state id="c296" />
			<state id="c297" />
			<state id="c298" />
			<state id="c299" />
			<state id="c300" />
			<state id="c301" />
			<state id="c302" />
			<state id="c303" />
			<state id="c304" />
			<state id="c305" />
			<state id="c306" />
			<state id="c307" />
			<state id="c308" />
			<state id="c309" />
			<state id="c310" />
			<state id="c311" />
			<state id="c312" />
			<state id="c313" />
			<state id="c314" />
			<state id="c315" />
			<state id="c316" />
			<state id="c317" />
			<state id="c318" />
			<state id="c319" />
			<state id="c320" />
			<state id="c321" />
			<state id="c322" />
			<state id="c323" />
			<state id="c324" />
			<state id="c325" />
			<state id="c326" />
			<state id="c327" />
			<state id="c328" />
			<state id="c329" />
			<state id="c330" />
			<state id="c331" />
			<state id="c332" />
			<state id="c333" />
			<state id="c334" />
			<state id="c335" />
			<state id="c336" />
			<state id="c337" />
			<state id="c338" />
			<state id="c339" />
			<state id="c340" />
			<state id="c341" />
			<state id="c342" />
			<state id="c343" />
			<state id="c344" />
			<state id="c345" />
			<state id="c346" />
			<state id="c347" />
			<state id="c348" />
			<state id="c349" />
			<state id="c350" />
			<state id="c351" />
			<state id="c352" />
			<state id="c353" />
			<state id="c354" />
			<state id="c355" />
			<state id="c356" />
			<state id="c357" />
			<state id="c358" />
			<state id="c359" />
			<state id="c360" />
			<state id="c361" />
			<state id="c362" />
			<state id="c363" />
			<state id="c364" />
			<state id="c365" />
			<state id="c366" />
			<state id="c367" />
			<state id="c368" />
			<state id="c369" />
			<state id="c370" />
			<state id="c371" />
			<state id="c372" />
			<state id="c373" />
			<state id="c374" />
			<state id="c375" />
			<state id="c376" />
			<state id="c377" />
			<state id="c378" />
			<state id="c379" />
			<state id="c380" />
			<state id="c381" />
			<state id="c382" />
			<state id="c383" />
			<state id="c384" />
			<state id="c385" />
			<state id="c386" />
			<state id="c387" />
			<state id="c388" />
			<state id="c389" />
			<state id="c390" />
			<state id="c391" />
			<state id="c392" />
			<state id="c393" />
			<state id="c394" />
			<state id="c395" />
			<state id="c396" />
			<state id="c397" />
			<state id="c398" />
			<state id="c399" />
			<state id="c400" />
			<state id="c401" />
			<state id="c402" />
			<state id="c403" />
			<state id="c404" />
			<state id="c405" />
			<state id="c406" />
			<state id="c407" />
			<state id="c408" />
			<state id="c409" />
			<state id="c410" />
			<state id="c411" />
			<state id="c412" />
			<state id="c413" />
			<state id="c414" />
			<state id="c415" />
			<state id="c416" />
			<state id="c417" />
			<state id="c418" />
			<state id="c419" />
			<state id="c420" />
			<state id="c421" />
			<state id="c422" />
			<state id="c423" />
			<state id="c424" />
			<state id="c425" />
			<state id="c426" />
			<state id="c427" />
			<state id="c428" />
			<state id="c429" />
			<state id="c430" />
			<state id="c431" />
			<state id="c432" />
			<state id="c433" />
			<state id="c434" />
			<state id="c435" />
			<state id="c436" />
			<state id="c437" />
			<state id="c438" />
			<state id="c439" />
			<state id="c440" />
			<state id="c441" />
			<state id="c442" />
			<state id="c443" />
			<state id="c444" />
			<state id="c445" />
			<state id="c446" />
			<state id="c447" />
			<state id="c448" />
			<state id="c449" />
			<state id="c450" />
			<state id="c451" />
			<state id="c452" />
			<state id="c453" />
			<state id="c454" />
			<state id="c455" />
			<state id="c456" />
			<state id="c457" />
			<state id="c458" />
			<state id="c459" />
			<state id="c460" />
			<state id="c461" />
			<state id="c462" />
			<state id="c463" />
			<state id="c464" />
			<state id="c465" />
			<state id="c466" />
			<state id="c467" />
			<state id="c468" />
			<state id="c469" />
			<state id="c470" />
			<state id="c471" />
			<state id="c472" />
			<state id="c473" />
			<state id="c474" />
			<state id="c475" />
			<state id="c476" />
			<state id="c477" />
			<state id="c478" />
			<state id="c479" />
			<state id="c480" />
			<state id="c481" />
			<state id="c482" />
			<state id="c483" />
			<state id="c484" />
			<state id="c485" />
			<state id="c486" />
			<state id="c487" />
			<state id="c488" />
			<state id="c489" />
			<state id="c490" />
			<state id="c491" />
			<state id="c492" />
			<state id="c493" />
			<state id="c494" />
			<state id="c495" />
			<state id="c496" />
			<state id="c497" />
			<state id="c498" />
			<state id="c499" />
			<state id="c500" />
			<state id="c501" />
			<state id="c502" />
			<state id="c503" />
			<state id="c504" />
			<state id="c505" />
			<state id="c506" />
			<state id="c507" />
			<state id="c508" />
			<state id="c509" />
			<state id="c510" />
			<state id="c511" />
			<state id="c512" />
			<state id="c513" />
			<state id="c514" />
			<state id="c515" />
			<state id="c516" />
			<state id="c517" />
			<state id="c518" />
			<state id="c519" />
			<state id="c520" />
			<state id="c521" />
			<state id="c522" />
			<state id="c523" />
			<state id="c524" />
			<state id="c525" />
			<state id="c526" />
			<state id="c527" />
			<state id="c528" />
			<state id="c529" />
			<state id="c530" />
			<state id="c531" />
			<state id="c532" />
			<state id="c533" />
			<state id="c534" />
			<state id="c535" />
			<state id="c536" />
			<state id="c537" />
			<state id="c538" />
			<state id="c539" />
			<state id="c540" />
			<state id="c541" />
			<state id="c542" />
			<state id="c543" />
			<state id="c544" />
			<state id="c545" />
			<state id="c546" />
			<state id="c547" />
			<state id="c548" />
			<state id="c549" />
			<state id="c550" />
			<state id="c551" />
			<state id="c552" />
			<state id="c553" />
			<state id="c554" />
			<state id="c555" />
			<state id="c556" />
			<state id="c557" />
			<state id="c558" />
			<state id="c559" />
			<state id="c560" />
			<state id="c561" />
			<state id="c562" />
			<state id="c563" />
			<state id="c564" />
			<state id="c565" />
			<state id="c566" />
			<state id="c567" />
			<state id="c568" />
			<state id="c569" />
			<state id="c570" />
			<state id="c571" />
			<state id="c572" />
			<state id="c573" />
			<state id="c574" />
			<state id="c575" />
			<state id="c576" />
			<state id="c577" />
			<state id="c578" />
			<state id="c579" />
			<state id="c580" />
			<state id="c581" />
			<state id="c582" />
			<state id="c583" />
			<state id="c584" />
			<state id="c585" />
			<state id="c586" />
			<state id="c587" />
			<state id="c588" />
			<state id="c589" />
			<state id="c590" />
			<state id="c591" />
			<state id="c592" />
			<state id="c593" />
			<state id="c594" />
			<state id="c595" />
			<state id="c596" />
			<state id="c597" />
			<state id="c598" />
			<state id="c599" />
			<state id="c600" />
			<state id="c601" />
			<state id="c602" />
			<state id="c603" />
			<state id="c604" />
			<state id="c605" />
			<state id="c606" />
			<state id="c607" />
			<state id="c608" />
			<!-- setting probabilities -->
			<probabilities>0.00136988420837 0.00128164013474 0.000455437684462 0.00457824502414 0.00081348885678 0.000446043646215 0.000245297371858 0.00283716371948 0.000830416644228 0.000531623782021 0.000343205567902 0.000316366991771 0.00101695151433 0.00387536098812 0.000509475613899 0.00148830677231 0.00252967881298 0.000580149098345 0.00139591959128 0.00304994349704 0.000936847113028 0.00166635975734 0.000315969878026 0.010877972239 0.000887340117502 0.000633289859426 0.00182890936909 0.000541837682581 0.000443826244891 0.00145259721678 0.00165011860352 0.00103221079757 0.000821463450676 0.000644374551163 0.000322299334687 0.000272218200814 0.00253148102996 0.001786311836 0.00148883270575 0.000396822653135 0.000523622408988 0.00133915221106 0.00348829618501 0.00130202564104 0.000441193018276 0.000588826980361 0.000814775317103 0.00102096950784 0.00069547053397 0.00533225230546 0.00210112871192 0.000724589892744 0.000764491231021 0.000281199285984 0.00214385050798 0.00120814652072 0.00020692044694 0.00273045849289 0.000560765756292 0.000898105927689 0.0230727270773 0.000720195227862 0.000824317521077 0.000366775506332 0.000486587958112 0.000869039899261 0.00230910081231 0.00177234759419 0.000263192209104 0.00132016473791 0.00135063849236 0.000672365500481 0.000342093375239 0.00281596549376 0.00117055040373 0.00315795326609 0.000377205319283 0.000727240349732 0.000987496245646 0.0011242840602 0.00168653431957 0.000532813967913 0.000411843834579 0.00467969212768 0.00168535529001 0.00519971739592 0.00043307362985 0.00160318417642 0.000303565342904 0.000226843561641 0.000984983243208 0.000972637599842 0.000735576178348 0.00155144310049 0.000396469022828 0.000822212453326 0.000636991629981 0.00163637658259 0.00130366281677 0.000319146173864 0.000936317441326 0.00104621967023 0.00181290228935 0.00245229349084 0.00379656576757 0.00181943350796 0.000946495799577 0.00209067676496 0.00815161146122 0.00103624283759 0.00163396264215 0.00128685791445 0.0029060341154 0.00287430443509 0.00155695712684 0.00022852231126 0.00145379902055 0.00125563755789 0.00113599417452 0.0013295812947 0.000609870665648 0.00102789402993 0.0011912048962 0.000469532730545 0.0092291281889 0.00197827814915 0.000657003197485 0.0020004848263 0.00118148383401 0.000925717791884 0.000961964481646 0.00762380508795 0.000587476092389 0.000411923851484 0.000527270982557 0.000597658734941 0.00255268028885 0.000570911344365 0.000832501372691 0.00119164661903 0.00177071671431 0.00304713690529 0.00540556133126 0.00342502985075 0.000446223186871 0.000543181303544 0.000742416123111 0.000639097138641 0.000220936773868 0.00166004811319 0.00129930256607 0.000806270529685 0.00092135950203 0.000764709345892 0.00410519324698 0.00502654828527 0.00164865705958 0.000323395461183 0.000508711144058 0.00112133281279 0.00195387677324 0.00188313167702 0.000514297049802 0.000619544794686 0.00473087661316 0.00194493310445 0.000778044735623 0.000933008148441 0.00470245056867 0.000748835377935 0.000929876896392 0.000703889431889 0.00234430486967 0.00150934788641 0.00196078778863 0.000499458016294 0.000703163671085 0.00182049928269 0.000534538629559 0.00141275776271 0.00263786917951 0.000558679229719 0.00115689852775 0.00169949046597 0.002021255359 0.00120512630561 0.000242952084837 0.000688066753529 0.000294430769473 0.000315954124274 0.00122232143555 0.000715677391188 0.00107334341103 0.0011728008955 0.000760399436065 0.0013081576482 0.000550778808589 0.000926369492339 0.00138614894367 0.00295928633934 0.00163267382289 0.000417603433755 0.00105131224859 0.00186840753128 0.000477909365825 0.00140391981395 0.00241695605084 0.00141129606937 0.000389299989636 0.00256403326904 0.000456497094713 0.000535794862592 0.00857161820846 0.00394184771138 0.00489556477371 0.000365439616732 0.00033003571773 0.0042872611858 0.000873794965856 0.000274051549691 0.00132942020854 0.000567650122453 0.0015929550691 0.000484837362743 0.000615506142203 0.00192619878325 0.00319185308578 0.00757102315485 0.00290974049937 0.00199781494584 0.0002721592741 0.00132546351668 0.00314968760957 0.00615004793443 0.00095761608411 0.00114560607049 0.000559620198555 0.00121988108833 0.000798034288401 0.00435657701745 0.000682313011817 0.00331855502515 0.000569917852737 0.00039985178443 0.000646994331514 0.00648786665267 0.0034110156454 0.00203003097491 0.00103556950862 0.000595514717338 0.000730818442922 0.000483203108559 0.000952111890067 0.00162420956203 0.00433235335407 0.00347320304565 0.00305510364224 0.00132012281864 0.000835107050598 0.000847157586488 0.000629511518401 0.0010664531491 0.00145066360474 0.000583691457145 0.000755759046454 0.0018143312202 0.00123458725713 0.00229457188284 0.0026404548958 0.00351500106441 0.00240891588057 0.000250265832322 0.00121280897582 0.000747778133794 0.000416020823965 0.00964593124332 0.00100195821617 0.000778072702786 0.00157709082447 0.00141587006217 0.000348989388305 0.00151310135173 0.00148177655455 0.000971220635608 0.00151253568321 0.0007115108824 0.000299337599122 0.00237443124479 0.000799269967079 0.00222881679632 0.00122092931066 0.00319081562183 0.00121435435809 0.0012464170132 0.00344605377513 0.0010017114377 0.0166665824036 0.00358442037723 0.00613963811063 0.00159097339431 0.000863403663492 0.00157826586201 0.00305457969301 0.00198970304625 0.000351074158374 0.00181823437518 0.000466649274816 0.000328372665435 0.000229167180431 0.00318732270913 0.000606595480309 0.00153188383521 0.000781359140791 0.00188473608661 0.000614814658543 0.000456247286221 0.000668304005506 0.000304497055683 0.00374922364602 0.000756198221621 0.000724378972791 0.00529659066521 0.000668345165514 0.0007041231444 0.00287973744621 0.00100852972857 0.00373242211874 0.000488302794159 0.00066608287088 0.00179762821722 0.00143307025001 0.000272280144878 0.00120615333718 0.000431667798948 0.000406130804169 0.0029891122783 0.00390459275539 0.00137824890056 0.000555232315469 0.00035234021519 0.0012506991707 0.000305068828546 0.00121484108761 0.00254509373819 0.00163503923272 0.00342911259484 0.000511812153885 0.00262893258973 0.000975106026665 0.000858998573819 0.000747595463773 0.000614557144422 0.000427029309284 0.00176329370709 0.000364065650607 0.00114014639054 0.000370785243169 0.000542710584301 0.00448915706793 0.000687659450433 0.00128753289757 0.00160240359518 0.000841550845602 0.00345258472414 0.00042191971972 0.00285621967972 0.00091690990974 0.000279336890238 0.000488003791905 0.000486907244277 0.00253583118682 0.000688229607267 0.000987328164034 0.000456660872012 0.000979549321452 0.00309016296213 0.00711989291177 0.000897534758173 0.00218599060807 0.00146264011785 0.00131026495919 0.000837185621675 0.000936095138286 0.000339314358401 0.00218283695303 0.00130366281677 0.000387080188553 0.00717123371786 0.00140583801316 0.0014778999609 0.00210652692447 0.000560946211401 0.00168635138087 0.00132546351668 0.000424192920031 0.00293632334309 0.00476205001351 0.000555914002176 0.00032359009079 0.000327052362 0.000407502645177 0.00187033981406 0.00117101602822 0.000692814185876 0.00486303208851 0.000742072791597 0.000761378800685 0.00246424099009 0.00183830451007 0.00143813593986 0.00083372952857 0.00504775770667 0.000897534758173 0.000827821490804 0.000484883941911 0.000838584065588 0.000457730180964 0.00249827704734 0.000952465473896 0.000446403069553 0.000788230947121 0.00143518494478 0.00184385473106 0.00104280304607 0.000418721707747 0.000666390772379 0.000404801968759 0.000524177017152 0.00114453629039 0.00111507551686 0.00241363355473 0.000853910666276 0.00136934770769 0.00318055376709 0.000675874176523 0.000331415658421 0.00133594953651 0.00440909221065 0.00420950288181 0.00116814212086 0.00113395258101 0.00221777771501 0.001786010925 0.0029623318919 0.0075033798416 0.000605217452769 0.00329053407864 0.00169573740659 0.000237754980659 0.000409852593981 0.00124296483592 0.00116966555168 0.00274504297017 0.00250114096319 0.000932745888179 0.000534538629559 0.00072301655744 0.000245003498306 0.00131417956899 0.00112471725513 0.00140380600861 0.000623570767304 0.000526997646516 0.00144516808797 0.000592321719372 0.000651893333189 0.000997944067825 0.00119265799071 0.000487190670655 0.000788230947121 0.000780365006591 0.000537376834995 0.000779483748959 0.00106759946649 0.000265235528415 0.000875440837289 0.00178175284125 0.000415108647682 0.00160594831341 0.00151073804976 0.000349531011687 0.00574878406416 0.000756126834775 0.000553624399586 0.0020229238511 0.00301768339441 0.000305466920008 0.00144866368542 0.00102157166425 0.000345949719062 0.00124265053197 0.0024641013314 0.00106019001387 0.00121585072946 0.00106973793054 0.00270756996388 0.00101901300613 0.00247655568029 0.00144579888985 0.000429141511332 0.0017087625973 0.000248984323523 0.0010509090193 0.00526354003295 0.000373443701661 0.00569062469776 0.000352039628222 0.00417965392682 0.00297290955883 0.000403787468977 0.00074678817411 0.000855652570797 0.00116129506434 0.000744424176408 0.000819091282081 0.00721532575746 0.000829797673901 0.00103276185706 0.00326581158765 0.00115662674899 0.000797038180884 0.00361366968594 0.000411777916049 0.00130571035693 0.00138713109145 0.000946224948638 0.000522332593919 0.000606061444235 0.000475714578465 0.000399821275664 0.00122729037287 0.00130164012731 0.000446403069553 0.00145548591571 0.00152255210816 0.000474933117865 0.00122218292927 0.000407242044767 0.00171476504202 0.000732070826889 0.000844261635982 0.000983524693433 0.000945488590293 0.000554063244193 0.00290423949646 0.00239465500201 0.000340289891561 0.000841278500738 0.00261459080916 0.00107052760046 0.000684088926852 0.000400072830806 0.0036108878578 0.000648463325304 0.00128224732066 0.000501007212252 0.000759239102119 0.00229225151923 0.0018107815505 0.000751931653855 0.00195387677324 0.000289683371388 0.00117641691443 0.001047070374 0.00168841170117 0.000313974171019 0.00150460025918 0.00406830817215 0.00324139165275 0.000934629294391 0.000897749947944 0.00734045119168 0.00199636733859 0.00128548473154 0.00367447186277 0.00194655636898 0.000867331385886 0.0012564388574 0.000817610924646 0.00453596325523 0.0016362551988 0.0011415303693 0.00565710946559 0.00162654835747 0.00190322234547 0.000997636541131 0.00282633202038 0.000453863693901 0.00115403625223 0.00216586965646 0.000748835377935 0.00145812126071 0.000369768351513 0.00102682996836 0.0011925412645 0.0023565550189 0.00180790354941 0.00170397268133 0.000451449819378 0.00201341630788 0.00209421341187 0.00143299249538 0.000710541046201 0.00895474777673 0.00451626396659 0.00489084604849 0.00121071647094 0.000526807258997 </probabilities>
		</cpt>
	</nodes>
	<extensions>
		<genie version="1.0" app="py2GeNIe 2013" name="SongRecommender" faultnameformat="nodestate">
			<node id="listenedPrediction">
				<name>listenedPrediction</name>
				<interior color="e5f6f7" />
				<outline color="0000bb" />
				<font color="000000" name="Arial" size="8" />
				<position>0 0 125 65</position>
				<barchart active="true" width="125" height="65" />
			</node>
		</genie>
	</extensions>
</smile>